{
  "type": "LSTM",
  "options": {
    "inputSize": 70,
    "inputRange": 70,
    "hiddenLayers": [
      20,
      20
    ],
    "outputSize": 70,
    "decayRate": 0.999,
    "smoothEps": 1e-8,
    "regc": 0.000001,
    "clipval": 5,
    "maxPredictionLength": 100,
    "dataFormatter": {
      "values": [
        "Adobe",
        "Appreciate every day",
        "What is the meaning of life?",
        "boston",
        "const [first, second] = [1, 2];",
        "const add = (a, b) => a + b;",
        "const address = user?.address?.city;",
        "const apiKey = process.env.API_KEY;",
        "const defaultValue = someVariable ?? 'default';",
        "const greeting = `Hello, ${name}!`;",
        "const { name, age } = { name: 'John', age: 25 };",
        "copy file into docker container",
        "create Javascript strings with embedded expressions",
        "create a git alias",
        "destructure a Javascript array",
        "destructure a Javascript object",
        "docker cp ./some_file CONTAINER:/work",
        "example of an arrow function in Javascript",
        "example of optional chaining in Javascript",
        "favorite city",
        "favorite cloud",
        "favorite company to work for",
        "favorite food",
        "favorite rock",
        "favorite state",
        "git config --global alias.co checkout",
        "git pull origin --rebase",
        "how to clean node cache",
        "how to rebase in git",
        "how to run nodejs file on command line",
        "how to view all ports being used on mac",
        "igneous",
        "mass",
        "node --experimental-modules src/file.js",
        "npm cache clean --force",
        "pizza",
        "provide a default value if none is defined in Javascript",
        "retrieving an enviroment variable in Javascript",
        "stratus",
        "sudo lsof -iTCP -sTCP:LISTEN -n -P"
      ],
      "indexTable": {
        "1": 27,
        "2": 28,
        "5": 52,
        "A": 0,
        "d": 1,
        "o": 2,
        "b": 3,
        "e": 4,
        "p": 5,
        "r": 6,
        "c": 7,
        "i": 8,
        "a": 9,
        "t": 10,
        " ": 11,
        "v": 12,
        "y": 13,
        "W": 14,
        "h": 15,
        "s": 16,
        "m": 17,
        "n": 18,
        "g": 19,
        "f": 20,
        "l": 21,
        "?": 22,
        "[": 23,
        ",": 24,
        "]": 25,
        "=": 26,
        ";": 29,
        "(": 30,
        ")": 31,
        ">": 32,
        "+": 33,
        "u": 34,
        ".": 35,
        "K": 36,
        "P": 37,
        "I": 38,
        "_": 39,
        "E": 40,
        "Y": 41,
        "V": 42,
        "'": 43,
        "`": 44,
        "H": 45,
        "$": 46,
        "{": 47,
        "}": 48,
        "!": 49,
        ":": 50,
        "J": 51,
        "k": 53,
        "w": 54,
        "x": 55,
        "j": 56,
        "/": 57,
        "C": 58,
        "O": 59,
        "N": 60,
        "T": 61,
        "R": 62,
        "-": 63,
        "z": 64,
        "L": 65,
        "S": 66,
        "stop-input": 67,
        "start-output": 68,
        "unrecognized": 69
      },
      "characterTable": {
        "0": "A",
        "1": "d",
        "2": "o",
        "3": "b",
        "4": "e",
        "5": "p",
        "6": "r",
        "7": "c",
        "8": "i",
        "9": "a",
        "10": "t",
        "11": " ",
        "12": "v",
        "13": "y",
        "14": "W",
        "15": "h",
        "16": "s",
        "17": "m",
        "18": "n",
        "19": "g",
        "20": "f",
        "21": "l",
        "22": "?",
        "23": "[",
        "24": ",",
        "25": "]",
        "26": "=",
        "27": "1",
        "28": "2",
        "29": ";",
        "30": "(",
        "31": ")",
        "32": ">",
        "33": "+",
        "34": "u",
        "35": ".",
        "36": "K",
        "37": "P",
        "38": "I",
        "39": "_",
        "40": "E",
        "41": "Y",
        "42": "V",
        "43": "'",
        "44": "`",
        "45": "H",
        "46": "$",
        "47": "{",
        "48": "}",
        "49": "!",
        "50": ":",
        "51": "J",
        "52": "5",
        "53": "k",
        "54": "w",
        "55": "x",
        "56": "j",
        "57": "/",
        "58": "C",
        "59": "O",
        "60": "N",
        "61": "T",
        "62": "R",
        "63": "-",
        "64": "z",
        "65": "L",
        "66": "S",
        "67": null,
        "68": null,
        "69": null
      },
      "characters": [
        "A",
        "d",
        "o",
        "b",
        "e",
        "p",
        "r",
        "c",
        "i",
        "a",
        "t",
        " ",
        "v",
        "y",
        "W",
        "h",
        "s",
        "m",
        "n",
        "g",
        "f",
        "l",
        "?",
        "[",
        ",",
        "]",
        "=",
        "1",
        "2",
        ";",
        "(",
        ")",
        ">",
        "+",
        "u",
        ".",
        "K",
        "P",
        "I",
        "_",
        "E",
        "Y",
        "V",
        "'",
        "`",
        "H",
        "$",
        "{",
        "}",
        "!",
        ":",
        "J",
        "5",
        "k",
        "w",
        "x",
        "j",
        "/",
        "C",
        "O",
        "N",
        "T",
        "R",
        "-",
        "z",
        "L",
        "S",
        "stop-input",
        "start-output",
        "unrecognized"
      ],
      "specialIndexes": [
        67,
        68,
        69
      ]
    }
  },
  "input": {
    "rows": 71,
    "columns": 70,
    "weights": {
      "0": 0.8160648941993713,
      "1": -0.2987510859966278,
      "2": -0.7409961223602295,
      "3": -0.25459152460098267,
      "4": -0.3424152135848999,
      "5": 0.45884066820144653,
      "6": 0.4615742266178131,
      "7": -0.7567206621170044,
      "8": 0.14572347700595856,
      "9": 0.35330942273139954,
      "10": -1.1512908935546875,
      "11": 1.8553799390792847,
      "12": 0.35390332341194153,
      "13": 0.009649857878684998,
      "14": -1.4626870155334473,
      "15": 0.4417537450790405,
      "16": 0.06540245562791824,
      "17": -0.19934608042240143,
      "18": -0.6706582307815552,
      "19": 0.35065892338752747,
      "20": 0.14290498197078705,
      "21": 0.2285982072353363,
      "22": -0.5213642716407776,
      "23": -1.4469867944717407,
      "24": 0.6818066239356995,
      "25": -0.058393605053424835,
      "26": 0.07679091393947601,
      "27": 1.4002654552459717,
      "28": -1.1081008911132812,
      "29": -0.3095998167991638,
      "30": 0.27132463455200195,
      "31": -0.4658755958080292,
      "32": 0.17494364082813263,
      "33": 0.8685793876647949,
      "34": 0.1485820859670639,
      "35": -0.135681614279747,
      "36": -0.15461449325084686,
      "37": 0.2448256015777588,
      "38": 0.0583551786839962,
      "39": 0.06589768826961517,
      "40": 0.03435780853033066,
      "41": 0.31857597827911377,
      "42": -0.1295420378446579,
      "43": -0.15359097719192505,
      "44": 0.02109443210065365,
      "45": 0.009561428800225258,
      "46": 0.07154806703329086,
      "47": 0.13010954856872559,
      "48": 0.786417543888092,
      "49": -0.848275363445282,
      "50": 0.09711606055498123,
      "51": 0.8639440536499023,
      "52": 0.43783771991729736,
      "53": -1.5065706968307495,
      "54": 0.08978064358234406,
      "55": -0.40220028162002563,
      "56": 1.9737788438796997,
      "57": -0.6070996522903442,
      "58": -0.05965938791632652,
      "59": -0.2648233473300934,
      "60": -0.18693290650844574,
      "61": 0.2173106074333191,
      "62": -1.8756632804870605,
      "63": -0.33036890625953674,
      "64": -0.04668816551566124,
      "65": -0.058391135185956955,
      "66": -1.4569141864776611,
      "67": -1.5162800550460815,
      "68": 0.3036797344684601,
      "69": -0.8479926586151123,
      "70": 0.04235520586371422,
      "71": -0.8289644718170166,
      "72": -1.075722098350525,
      "73": -0.7483012676239014,
      "74": 0.3659800589084625,
      "75": -3.608175754547119,
      "76": 3.949337959289551,
      "77": 1.6931580305099487,
      "78": -1.865815281867981,
      "79": -1.509291410446167,
      "80": -0.9566581845283508,
      "81": 0.5972504019737244,
      "82": -0.5712964534759521,
      "83": 2.605874538421631,
      "84": -3.0360758304595947,
      "85": -1.6035010814666748,
      "86": 0.7333144545555115,
      "87": -0.008883817121386528,
      "88": 0.8097584247589111,
      "89": -0.6748568415641785,
      "90": -2.575127601623535,
      "91": -2.1024117469787598,
      "92": -1.0593595504760742,
      "93": -1.2834339141845703,
      "94": -4.1445488929748535,
      "95": 2.9640190601348877,
      "96": -2.255720376968384,
      "97": 2.108853816986084,
      "98": -2.3441522121429443,
      "99": -0.6527392864227295,
      "100": 1.3960561752319336,
      "101": -4.575225830078125,
      "102": -2.478127956390381,
      "103": -3.5844216346740723,
      "104": -0.1321244239807129,
      "105": -0.5389965772628784,
      "106": 2.3425779342651367,
      "107": -1.7191658020019531,
      "108": -2.6205246448516846,
      "109": -1.6058145761489868,
      "110": 3.034879684448242,
      "111": -0.11302506923675537,
      "112": 1.6135711669921875,
      "113": 1.8958330154418945,
      "114": 3.0241641998291016,
      "115": 2.577577829360962,
      "116": -2.6288552284240723,
      "117": -1.2637773752212524,
      "118": -1.7270554304122925,
      "119": 2.106102466583252,
      "120": -3.995687961578369,
      "121": -0.7936150431632996,
      "122": -3.624866008758545,
      "123": 0.22176626324653625,
      "124": -2.2306270599365234,
      "125": 4.612649917602539,
      "126": -1.6501933336257935,
      "127": -3.6515181064605713,
      "128": 2.4736921787261963,
      "129": -0.1590796560049057,
      "130": -0.8243144154548645,
      "131": -1.0825746059417725,
      "132": 3.0399181842803955,
      "133": 1.578977346420288,
      "134": -3.61975359916687,
      "135": 0.5166566967964172,
      "136": -2.1321990489959717,
      "137": -1.4133038520812988,
      "138": -3.2868056297302246,
      "139": -0.6798065900802612,
      "140": 0.9480425715446472,
      "141": -1.4499568939208984,
      "142": -0.6258559823036194,
      "143": -0.5802431702613831,
      "144": 1.7861138582229614,
      "145": 0.7144021391868591,
      "146": -0.3546609580516815,
      "147": -0.18619278073310852,
      "148": 0.383724182844162,
      "149": 1.0423576831817627,
      "150": -0.3895948529243469,
      "151": 1.8389215469360352,
      "152": 0.7571749091148376,
      "153": -0.00004305878246668726,
      "154": -1.1358872652053833,
      "155": -1.1636134386062622,
      "156": 0.5480401515960693,
      "157": 0.9235913157463074,
      "158": -0.5588899850845337,
      "159": -0.37598279118537903,
      "160": 0.39140239357948303,
      "161": 0.574267566204071,
      "162": 0.9996767640113831,
      "163": -0.9863794445991516,
      "164": -0.6382554769515991,
      "165": 0.537415087223053,
      "166": -1.1355886459350586,
      "167": 0.9047832489013672,
      "168": -0.8649944067001343,
      "169": 0.10270421952009201,
      "170": -0.775825023651123,
      "171": 0.5961859226226807,
      "172": -0.5441393852233887,
      "173": -0.12232522666454315,
      "174": -0.22113516926765442,
      "175": 0.5852367281913757,
      "176": 0.3563106060028076,
      "177": 0.25104445219039917,
      "178": 0.7616689801216125,
      "179": -1.1851162910461426,
      "180": 1.0455020666122437,
      "181": -0.6872599720954895,
      "182": 0.8501513004302979,
      "183": 0.31171372532844543,
      "184": 0.2953038811683655,
      "185": -0.5791233777999878,
      "186": -0.898590624332428,
      "187": 0.5256038308143616,
      "188": -0.2090950608253479,
      "189": 0.5427207350730896,
      "190": 1.268225908279419,
      "191": -0.3842524290084839,
      "192": 0.11519534885883331,
      "193": -0.5246531963348389,
      "194": -0.8966634273529053,
      "195": -0.03726779669523239,
      "196": -0.023189332336187363,
      "197": -1.3358956575393677,
      "198": 0.8611952662467957,
      "199": -0.7666429877281189,
      "200": 0.21566051244735718,
      "201": 0.23360489308834076,
      "202": -0.4646865725517273,
      "203": -0.4225520193576813,
      "204": -1.4181618690490723,
      "205": -0.8727130889892578,
      "206": -1.4127929210662842,
      "207": -1.5797431468963623,
      "208": 0.31767645478248596,
      "209": 0.27060478925704956,
      "210": 2.5667643547058105,
      "211": -0.13400013744831085,
      "212": -1.5691092014312744,
      "213": 0.10444887727499008,
      "214": 1.126137375831604,
      "215": 0.9470806121826172,
      "216": -0.040182992815971375,
      "217": -1.7712228298187256,
      "218": -0.37732312083244324,
      "219": -0.2400335669517517,
      "220": -1.027373194694519,
      "221": 1.26478111743927,
      "222": 0.713636577129364,
      "223": 0.6508428454399109,
      "224": -0.9254094958305359,
      "225": -0.3738972842693329,
      "226": -2.1765921115875244,
      "227": -0.11280523240566254,
      "228": -0.5084620118141174,
      "229": 2.027492046356201,
      "230": 0.49190571904182434,
      "231": 0.5475302338600159,
      "232": 0.39083191752433777,
      "233": -1.4027819633483887,
      "234": 0.20345404744148254,
      "235": 1.1900235414505005,
      "236": 0.5088984966278076,
      "237": 0.29713574051856995,
      "238": -0.45523908734321594,
      "239": -0.7086868286132812,
      "240": -0.38127249479293823,
      "241": -0.17169710993766785,
      "242": -0.679280698299408,
      "243": -0.6546655893325806,
      "244": 1.2930266857147217,
      "245": 0.202415332198143,
      "246": 0.43773457407951355,
      "247": 0.6777651906013489,
      "248": 0.614956259727478,
      "249": 0.25459176301956177,
      "250": -0.06615842878818512,
      "251": -0.5415480136871338,
      "252": 0.19432826340198517,
      "253": -0.3884834945201874,
      "254": 0.24278533458709717,
      "255": -1.498898983001709,
      "256": -0.6728768348693848,
      "257": -0.3110900819301605,
      "258": 0.9680057764053345,
      "259": -1.7780711650848389,
      "260": 0.6144437193870544,
      "261": 0.6944882869720459,
      "262": 0.13136649131774902,
      "263": -1.5337462425231934,
      "264": -0.42156967520713806,
      "265": 0.17984303832054138,
      "266": -0.1206776574254036,
      "267": -0.6694735288619995,
      "268": -1.2680060863494873,
      "269": 0.09732772409915924,
      "270": 0.20314356684684753,
      "271": 0.271018385887146,
      "272": -0.07292889803647995,
      "273": 0.8004770874977112,
      "274": -0.87637859582901,
      "275": -0.4701898396015167,
      "276": -1.096434473991394,
      "277": -0.5096646547317505,
      "278": 0.3115937411785126,
      "279": -0.14222843945026398,
      "280": -1.1827219724655151,
      "281": -2.0796148777008057,
      "282": -1.9688338041305542,
      "283": -0.26377254724502563,
      "284": 1.1636279821395874,
      "285": 3.013990640640259,
      "286": -0.612336277961731,
      "287": -2.0621066093444824,
      "288": -2.4616692066192627,
      "289": 2.1546332836151123,
      "290": -0.783707320690155,
      "291": -0.960547924041748,
      "292": 2.0202412605285645,
      "293": -1.9111250638961792,
      "294": -0.6296185255050659,
      "295": -0.3341800570487976,
      "296": 1.6071326732635498,
      "297": 0.3780158758163452,
      "298": -1.2418087720870972,
      "299": -1.2833322286605835,
      "300": 1.722547173500061,
      "301": 2.2483932971954346,
      "302": 0.9171665906906128,
      "303": -0.06243015453219414,
      "304": -0.01947718858718872,
      "305": 1.5577070713043213,
      "306": -0.41126516461372375,
      "307": -1.2101589441299438,
      "308": 0.3819311559200287,
      "309": -1.2123712301254272,
      "310": -0.5254880785942078,
      "311": 1.358329176902771,
      "312": 2.1400763988494873,
      "313": -2.7772817611694336,
      "314": 0.8492995500564575,
      "315": 0.22461535036563873,
      "316": -0.38469937443733215,
      "317": -2.0428102016448975,
      "318": 2.391899585723877,
      "319": -0.6596813201904297,
      "320": 0.6854097843170166,
      "321": -0.9688859581947327,
      "322": 1.4977861642837524,
      "323": -0.9375104904174805,
      "324": -1.108241319656372,
      "325": -4.012996196746826,
      "326": -0.032184578478336334,
      "327": 1.089402198791504,
      "328": 0.09467681497335434,
      "329": 0.5370762944221497,
      "330": 0.942987859249115,
      "331": 0.6131198406219482,
      "332": 1.9295753240585327,
      "333": -0.9782012104988098,
      "334": -0.4973572790622711,
      "335": -1.9498076438903809,
      "336": 1.9437181949615479,
      "337": 0.2471371293067932,
      "338": -0.6997128129005432,
      "339": -1.0278675556182861,
      "340": 0.7265270948410034,
      "341": -0.1312764585018158,
      "342": -1.0103460550308228,
      "343": -0.985398530960083,
      "344": -1.8070491552352905,
      "345": -0.7249271869659424,
      "346": -0.9576196670532227,
      "347": 0.9072580933570862,
      "348": 1.5736932754516602,
      "349": -0.22883914411067963,
      "350": 0.34957021474838257,
      "351": -1.1452217102050781,
      "352": 0.4457399547100067,
      "353": -0.41622039675712585,
      "354": -0.8551438450813293,
      "355": -0.7194722294807434,
      "356": -0.6927053928375244,
      "357": -0.7287612557411194,
      "358": 1.073002576828003,
      "359": 0.4975201189517975,
      "360": -0.6025423407554626,
      "361": 1.4977400302886963,
      "362": -1.426540493965149,
      "363": -0.6215265989303589,
      "364": -0.31746166944503784,
      "365": -0.938764214515686,
      "366": 0.5778918266296387,
      "367": -0.1910330355167389,
      "368": -0.48422712087631226,
      "369": 0.3644997775554657,
      "370": 0.37963229417800903,
      "371": 0.5995767712593079,
      "372": -1.2131844758987427,
      "373": -1.1009434461593628,
      "374": -0.015073736198246479,
      "375": 0.10918062925338745,
      "376": 0.22589392960071564,
      "377": 1.994601845741272,
      "378": -1.344188928604126,
      "379": -0.7277680039405823,
      "380": -0.26061809062957764,
      "381": -0.3684532642364502,
      "382": 0.6180478930473328,
      "383": -0.8226521611213684,
      "384": -0.11755833029747009,
      "385": -0.7044278979301453,
      "386": 0.031737297773361206,
      "387": 0.5220960974693298,
      "388": 0.870013415813446,
      "389": 0.8147029280662537,
      "390": 0.8727214336395264,
      "391": 0.8691575527191162,
      "392": -0.927395761013031,
      "393": -0.5629258751869202,
      "394": -0.21108101308345795,
      "395": -0.38354256749153137,
      "396": -0.6082354187965393,
      "397": 0.6805931925773621,
      "398": 0.33017632365226746,
      "399": 0.09187574684619904,
      "400": 0.26166561245918274,
      "401": -0.8681003451347351,
      "402": 0.6747042536735535,
      "403": -0.5094512701034546,
      "404": -0.12866340577602386,
      "405": -0.5217140913009644,
      "406": 0.24781835079193115,
      "407": -1.7349884510040283,
      "408": -0.7193700671195984,
      "409": -1.5688556432724,
      "410": 0.19781287014484406,
      "411": 0.5054823160171509,
      "412": -2.1017730236053467,
      "413": -3.426826238632202,
      "414": -1.2181400060653687,
      "415": -0.7547033429145813,
      "416": 0.4899199604988098,
      "417": -1.1149706840515137,
      "418": -0.560317873954773,
      "419": -0.7611190676689148,
      "420": -1.9926862716674805,
      "421": 1.034711241722107,
      "422": 2.3492846488952637,
      "423": 0.10711830854415894,
      "424": -0.29594549536705017,
      "425": 0.11162443459033966,
      "426": -0.5344929695129395,
      "427": -0.4744424521923065,
      "428": 0.6393721699714661,
      "429": 0.15041030943393707,
      "430": 0.6053621172904968,
      "431": -0.6074989438056946,
      "432": -0.5792302489280701,
      "433": -1.5619112253189087,
      "434": 1.1001540422439575,
      "435": -0.1810111701488495,
      "436": 1.4250296354293823,
      "437": 0.6244603991508484,
      "438": 0.3086942136287689,
      "439": 0.8937548995018005,
      "440": 0.3105649948120117,
      "441": 1.3459198474884033,
      "442": -0.6361753344535828,
      "443": 1.9620283842086792,
      "444": 0.498064786195755,
      "445": -0.8706175088882446,
      "446": -0.1728704273700714,
      "447": -1.4930812120437622,
      "448": 1.6721384525299072,
      "449": -0.35027483105659485,
      "450": -0.6002044677734375,
      "451": 1.3319066762924194,
      "452": 0.5162070393562317,
      "453": 1.43610680103302,
      "454": -0.40032702684402466,
      "455": -0.9976658821105957,
      "456": -1.5531980991363525,
      "457": -0.930712103843689,
      "458": 0.6010515689849854,
      "459": 0.36573755741119385,
      "460": -0.7809333205223083,
      "461": -1.8022067546844482,
      "462": -1.1696066856384277,
      "463": 0.11250632256269455,
      "464": 0.10140476375818253,
      "465": 1.209142804145813,
      "466": 1.0853722095489502,
      "467": 0.9288646578788757,
      "468": 0.35514962673187256,
      "469": -0.1094023734331131,
      "470": 1.8775700330734253,
      "471": -0.33452701568603516,
      "472": 0.043071597814559937,
      "473": 0.18722590804100037,
      "474": -0.2096894532442093,
      "475": -0.7828949093818665,
      "476": 0.049527790397405624,
      "477": 0.08271174877882004,
      "478": -0.5289540886878967,
      "479": 0.713729977607727,
      "480": 1.6690057516098022,
      "481": 1.1198687553405762,
      "482": 0.5735528469085693,
      "483": -1.5600398778915405,
      "484": -0.25522562861442566,
      "485": 0.8480464816093445,
      "486": 0.5238576531410217,
      "487": 1.8536040782928467,
      "488": -0.1027248352766037,
      "489": -1.671099305152893,
      "490": -0.6534063220024109,
      "491": 0.4205894470214844,
      "492": 0.5561211109161377,
      "493": -0.05198932811617851,
      "494": -0.561642587184906,
      "495": 0.05999241769313812,
      "496": 0.8986319899559021,
      "497": -0.12279689311981201,
      "498": 1.5453925132751465,
      "499": -1.2477203607559204,
      "500": -0.035848554223775864,
      "501": -1.1818277835845947,
      "502": -0.367561936378479,
      "503": 2.2211132049560547,
      "504": 0.9313925504684448,
      "505": 0.5374982357025146,
      "506": -1.4554835557937622,
      "507": -0.5382789969444275,
      "508": -0.07736741751432419,
      "509": 1.141061544418335,
      "510": -0.14075082540512085,
      "511": 0.3498259484767914,
      "512": -0.8669924139976501,
      "513": 0.691612958908081,
      "514": 0.7078875303268433,
      "515": -0.7355250120162964,
      "516": 1.5128754377365112,
      "517": -0.7482362389564514,
      "518": -0.016299011185765266,
      "519": 0.50586998462677,
      "520": 0.279744416475296,
      "521": -0.3218681216239929,
      "522": 1.1087507009506226,
      "523": -0.05934072658419609,
      "524": 0.7140842080116272,
      "525": -0.051559481769800186,
      "526": 0.30202627182006836,
      "527": 1.4219551086425781,
      "528": -0.23513570427894592,
      "529": 0.7724469304084778,
      "530": -1.1901048421859741,
      "531": 0.7673206925392151,
      "532": -1.3233929872512817,
      "533": -0.15114060044288635,
      "534": -1.0645835399627686,
      "535": 0.7482946515083313,
      "536": 0.5388141870498657,
      "537": -0.19727884232997894,
      "538": 0.22080256044864655,
      "539": -0.20846784114837646,
      "540": -0.36466652154922485,
      "541": 1.3469281196594238,
      "542": -1.5707900524139404,
      "543": -0.8884028792381287,
      "544": -0.07159548252820969,
      "545": 0.6357511878013611,
      "546": -0.35630157589912415,
      "547": -1.010323405265808,
      "548": -1.5891380310058594,
      "549": -0.387172669172287,
      "550": -0.09099103510379791,
      "551": -0.016315430402755737,
      "552": 0.015905428677797318,
      "553": -0.14125244319438934,
      "554": 1.3414039611816406,
      "555": 0.9209117293357849,
      "556": 0.506148099899292,
      "557": 0.9760591387748718,
      "558": -0.6054253578186035,
      "559": 0.5624017715454102,
      "560": 1.4728107452392578,
      "561": -0.8053736090660095,
      "562": 0.5283973813056946,
      "563": -0.9702399969100952,
      "564": -0.3602486252784729,
      "565": 2.263507843017578,
      "566": 0.12313243746757507,
      "567": -0.6224292516708374,
      "568": -1.074758529663086,
      "569": 0.8004068732261658,
      "570": -1.5318644046783447,
      "571": 3.3907358646392822,
      "572": -1.8160344362258911,
      "573": 0.254148930311203,
      "574": -1.5735081434249878,
      "575": 0.8900846838951111,
      "576": 1.6382008790969849,
      "577": 0.24521741271018982,
      "578": -0.8152890205383301,
      "579": 0.5619396567344666,
      "580": 0.5173775553703308,
      "581": 0.6788693070411682,
      "582": -0.3993273973464966,
      "583": -1.9160196781158447,
      "584": 0.4756787419319153,
      "585": -0.013191785663366318,
      "586": -0.2899966537952423,
      "587": -0.024810073897242546,
      "588": -2.523362159729004,
      "589": 0.16560672223567963,
      "590": 0.5498043298721313,
      "591": -2.4149792194366455,
      "592": 1.686773657798767,
      "593": -0.6958763599395752,
      "594": -0.07018066197633743,
      "595": 0.3588375151157379,
      "596": -1.497150182723999,
      "597": 2.4479713439941406,
      "598": -0.18296554684638977,
      "599": 0.14073310792446136,
      "600": 0.49522483348846436,
      "601": 0.1353895217180252,
      "602": 0.44865188002586365,
      "603": 0.9812611937522888,
      "604": 0.05928557738661766,
      "605": -0.40520766377449036,
      "606": 0.5295151472091675,
      "607": 0.5117438435554504,
      "608": 0.26407209038734436,
      "609": -0.4765223264694214,
      "610": 0.9115254282951355,
      "611": -0.9091029167175293,
      "612": -0.9976986646652222,
      "613": -2.1213810443878174,
      "614": -1.02523934841156,
      "615": 1.2273856401443481,
      "616": 1.3360008001327515,
      "617": -0.24034668505191803,
      "618": -0.054306842386722565,
      "619": -0.49891480803489685,
      "620": -0.9838992953300476,
      "621": 0.04711595177650452,
      "622": -2.072347640991211,
      "623": -0.8841825723648071,
      "624": -0.011588656343519688,
      "625": -0.39550742506980896,
      "626": -2.2229487895965576,
      "627": -1.3204188346862793,
      "628": 1.6009737253189087,
      "629": 0.08959433436393738,
      "630": -0.16583465039730072,
      "631": 0.899996817111969,
      "632": -0.17110292613506317,
      "633": 1.0627129077911377,
      "634": -1.1775108575820923,
      "635": -1.4691575765609741,
      "636": 1.5114140510559082,
      "637": 0.6886172890663147,
      "638": -0.38146674633026123,
      "639": -1.9788932800292969,
      "640": 0.8877726793289185,
      "641": -1.2340964078903198,
      "642": -0.8606011271476746,
      "643": 2.090512752532959,
      "644": 1.2213716506958008,
      "645": 0.7448723316192627,
      "646": -1.0462212562561035,
      "647": -1.1178897619247437,
      "648": 1.242396593093872,
      "649": 0.5054921507835388,
      "650": -1.3257031440734863,
      "651": -2.0101351737976074,
      "652": -0.7768419981002808,
      "653": 0.08464442938566208,
      "654": 1.0426353216171265,
      "655": -0.3694550096988678,
      "656": 0.311144083738327,
      "657": 0.2868853211402893,
      "658": 0.2810222804546356,
      "659": -0.07743576914072037,
      "660": 1.7180644273757935,
      "661": -1.3202264308929443,
      "662": -0.5268834829330444,
      "663": -0.1102047711610794,
      "664": 0.22482004761695862,
      "665": -0.7276408672332764,
      "666": -0.4724982678890228,
      "667": 0.8109838366508484,
      "668": -1.7135999202728271,
      "669": 1.0235594511032104,
      "670": -0.9211780428886414,
      "671": 1.981952428817749,
      "672": -0.6949880719184875,
      "673": -0.42972439527511597,
      "674": -0.34046539664268494,
      "675": 0.34006407856941223,
      "676": 0.4292576014995575,
      "677": -2.0240895748138428,
      "678": 0.1325286626815796,
      "679": -0.04765615984797478,
      "680": -2.2783827781677246,
      "681": 0.6056509613990784,
      "682": -1.640825629234314,
      "683": 0.6428402066230774,
      "684": 1.613508939743042,
      "685": 1.3983616828918457,
      "686": -1.3597097396850586,
      "687": 0.9287885427474976,
      "688": -1.1109347343444824,
      "689": 0.8008994460105896,
      "690": -0.17409038543701172,
      "691": -0.2898978888988495,
      "692": 0.4164547324180603,
      "693": 0.9570929408073425,
      "694": 1.0271598100662231,
      "695": 0.2714320421218872,
      "696": 1.4986830949783325,
      "697": 1.4451804161071777,
      "698": -1.3571885824203491,
      "699": 0.05838713049888611,
      "700": -0.3168855905532837,
      "701": -0.11572203040122986,
      "702": 0.9915381669998169,
      "703": 0.6471073627471924,
      "704": 0.2844931483268738,
      "705": -0.1574212908744812,
      "706": 0.12929555773735046,
      "707": -0.1655014604330063,
      "708": -1.3902734518051147,
      "709": -0.2502231299877167,
      "710": 0.5610584616661072,
      "711": -0.9502303600311279,
      "712": -1.4037061929702759,
      "713": -0.3332010507583618,
      "714": 0.4130920469760895,
      "715": -0.0214939396828413,
      "716": 0.06169590353965759,
      "717": -0.6949366331100464,
      "718": 0.04926210269331932,
      "719": 0.08443900942802429,
      "720": -0.8631551265716553,
      "721": -0.4763452410697937,
      "722": 0.10431062430143356,
      "723": 0.2453995943069458,
      "724": 1.2822368144989014,
      "725": 0.22748138010501862,
      "726": 0.6980820298194885,
      "727": -0.48442742228507996,
      "728": 1.4148507118225098,
      "729": 0.10150837898254395,
      "730": 0.3153454661369324,
      "731": -1.279642105102539,
      "732": 0.9251100420951843,
      "733": -0.7708207368850708,
      "734": 0.6248332262039185,
      "735": 0.13046884536743164,
      "736": 0.10641387104988098,
      "737": 0.2784717082977295,
      "738": 0.1701013147830963,
      "739": 1.3378016948699951,
      "740": -0.3480684757232666,
      "741": 0.40832027792930603,
      "742": -0.028085408732295036,
      "743": -0.12937328219413757,
      "744": -0.5822855234146118,
      "745": 0.7082709074020386,
      "746": 0.02056976407766342,
      "747": -0.5472136735916138,
      "748": -0.5042999982833862,
      "749": 0.5091572403907776,
      "750": -0.6075185537338257,
      "751": 0.8177894949913025,
      "752": 0.8905849456787109,
      "753": 0.6609330177307129,
      "754": 0.6896030902862549,
      "755": -0.3292045295238495,
      "756": 0.0159127376973629,
      "757": 0.684011697769165,
      "758": -1.320691466331482,
      "759": -0.04448726028203964,
      "760": 0.6470033526420593,
      "761": -0.16349469125270844,
      "762": 0.5419747829437256,
      "763": 0.9131513833999634,
      "764": 0.3599218726158142,
      "765": 0.2187567502260208,
      "766": 0.9761781692504883,
      "767": 1.4650678634643555,
      "768": -0.44041553139686584,
      "769": 0.4445453882217407,
      "770": 0.13385705649852753,
      "771": -2.149791955947876,
      "772": -0.07711651176214218,
      "773": -0.9565702676773071,
      "774": 0.7911701202392578,
      "775": 0.8929231762886047,
      "776": -0.31526023149490356,
      "777": -0.23903833329677582,
      "778": -1.9140511751174927,
      "779": 2.6368188858032227,
      "780": -0.9850968718528748,
      "781": 0.8493376970291138,
      "782": -0.12275612354278564,
      "783": -0.37147703766822815,
      "784": -0.8042044639587402,
      "785": -1.254660725593567,
      "786": 0.9928481578826904,
      "787": 1.0837880373001099,
      "788": -1.2838541269302368,
      "789": -0.10642819106578827,
      "790": 1.7776638269424438,
      "791": 2.8469204902648926,
      "792": 0.6149759888648987,
      "793": -0.6977881789207458,
      "794": -1.4713449478149414,
      "795": 2.0552077293395996,
      "796": -0.3519100546836853,
      "797": -0.7775381803512573,
      "798": -0.7282000184059143,
      "799": -0.47426870465278625,
      "800": -0.24375076591968536,
      "801": -0.5568119287490845,
      "802": 0.7570351958274841,
      "803": -0.8285289406776428,
      "804": 0.1135539785027504,
      "805": 0.5018598437309265,
      "806": 0.6548911929130554,
      "807": -0.5473838448524475,
      "808": -0.3000434637069702,
      "809": -1.3848179578781128,
      "810": 1.970953345298767,
      "811": -0.9624014496803284,
      "812": 1.7548669576644897,
      "813": -0.18702013790607452,
      "814": -0.21288257837295532,
      "815": -0.7804310321807861,
      "816": -0.8532775640487671,
      "817": 1.516814947128296,
      "818": 0.4402487277984619,
      "819": 0.5799113512039185,
      "820": 0.41981810331344604,
      "821": -1.0900083780288696,
      "822": 0.35402894020080566,
      "823": -0.22839324176311493,
      "824": -1.5624812841415405,
      "825": -0.5798320770263672,
      "826": 0.3539276123046875,
      "827": -0.2567030191421509,
      "828": 0.8414611220359802,
      "829": -1.4752298593521118,
      "830": 0.015913721174001694,
      "831": 0.5279179811477661,
      "832": -0.6009714603424072,
      "833": -0.9684739112854004,
      "834": -1.5313572883605957,
      "835": -1.3267230987548828,
      "836": -0.7947139143943787,
      "837": -0.4107321500778198,
      "838": 1.9123446941375732,
      "839": -0.6540476679801941,
      "840": -0.1468830108642578,
      "841": 0.10478315502405167,
      "842": -0.006096028257161379,
      "843": 0.4497373700141907,
      "844": 0.8600831031799316,
      "845": 0.16512072086334229,
      "846": 0.4666391909122467,
      "847": 0.035399243235588074,
      "848": -0.20534861087799072,
      "849": 0.23732806742191315,
      "850": 0.15526002645492554,
      "851": -1.5936329364776611,
      "852": 0.32850274443626404,
      "853": 0.6447194218635559,
      "854": 0.5751619338989258,
      "855": -0.16612717509269714,
      "856": -0.9789496064186096,
      "857": 0.5811580419540405,
      "858": 0.19877901673316956,
      "859": 0.8473003506660461,
      "860": 0.08447220921516418,
      "861": 0.013991362415254116,
      "862": 0.8030266165733337,
      "863": 1.3772566318511963,
      "864": 0.05636875331401825,
      "865": 0.5228719711303711,
      "866": -0.06255846470594406,
      "867": -1.6448291540145874,
      "868": 1.733986496925354,
      "869": -0.08617504686117172,
      "870": -0.5410289168357849,
      "871": 0.3122255802154541,
      "872": 0.03544432669878006,
      "873": 0.12414723634719849,
      "874": 0.6011208891868591,
      "875": 0.718625545501709,
      "876": 0.3488580286502838,
      "877": 0.264186829328537,
      "878": 0.4392141103744507,
      "879": -0.33309125900268555,
      "880": -0.1768169105052948,
      "881": 0.01890408620238304,
      "882": 0.4729340374469757,
      "883": -0.409500390291214,
      "884": -0.7314870357513428,
      "885": 0.07627896964550018,
      "886": -0.153365820646286,
      "887": 0.18858054280281067,
      "888": 0.052089035511016846,
      "889": 0.006560967769473791,
      "890": 0.9377537965774536,
      "891": 0.6084951758384705,
      "892": -0.623992383480072,
      "893": -0.003585238242521882,
      "894": 0.39064106345176697,
      "895": -0.2700303792953491,
      "896": -0.2561223804950714,
      "897": 0.2520847022533417,
      "898": -0.5380839109420776,
      "899": 0.08045726269483566,
      "900": 0.7602159976959229,
      "901": 0.01712728478014469,
      "902": 0.9478075504302979,
      "903": 0.24418824911117554,
      "904": -0.21226634085178375,
      "905": -0.3510158360004425,
      "906": 0.3311323821544647,
      "907": 1.4726321697235107,
      "908": 0.11526451259851456,
      "909": 0.09911784529685974,
      "910": 0.08923033624887466,
      "911": -2.1986680030822754,
      "912": -2.3881850242614746,
      "913": -0.9581978917121887,
      "914": 0.5003144145011902,
      "915": 0.925769567489624,
      "916": -2.2372913360595703,
      "917": -2.85404372215271,
      "918": -1.2470905780792236,
      "919": 1.9850696325302124,
      "920": -1.0763992071151733,
      "921": 2.081101655960083,
      "922": -0.03005390800535679,
      "923": -1.8577343225479126,
      "924": -0.24049240350723267,
      "925": 1.4134104251861572,
      "926": 1.0663970708847046,
      "927": 0.5907702445983887,
      "928": -0.02742563746869564,
      "929": 0.11215443909168243,
      "930": -0.07913117855787277,
      "931": 0.3422408103942871,
      "932": 0.16598108410835266,
      "933": -2.8911795616149902,
      "934": 0.02916330099105835,
      "935": 1.0979782342910767,
      "936": 1.5148584842681885,
      "937": 2.397139310836792,
      "938": -0.19550520181655884,
      "939": -1.739349365234375,
      "940": 0.6648497581481934,
      "941": -0.8108459711074829,
      "942": 2.758143663406372,
      "943": -2.5807859897613525,
      "944": 3.00693416595459,
      "945": -0.13375233113765717,
      "946": -0.0678589791059494,
      "947": 1.5991240739822388,
      "948": 0.35282406210899353,
      "949": 0.654805064201355,
      "950": -0.015711762011051178,
      "951": -1.5787930488586426,
      "952": -0.18454189598560333,
      "953": -1.3844213485717773,
      "954": -1.4069063663482666,
      "955": -2.3743813037872314,
      "956": -2.888915777206421,
      "957": -0.31142881512641907,
      "958": 0.8408080339431763,
      "959": -0.6650216579437256,
      "960": 0.04551035165786743,
      "961": 2.267453670501709,
      "962": 0.6093168258666992,
      "963": -0.4294047951698303,
      "964": -0.8443940877914429,
      "965": -0.8820359110832214,
      "966": 0.614649772644043,
      "967": -1.7072992324829102,
      "968": -1.650801658630371,
      "969": -0.3372362554073334,
      "970": 0.5334034562110901,
      "971": -1.1015008687973022,
      "972": 0.49000754952430725,
      "973": 0.2382044494152069,
      "974": -0.5532106757164001,
      "975": -1.3458023071289062,
      "976": -0.11252747476100922,
      "977": 0.1563580334186554,
      "978": 0.21323572099208832,
      "979": 0.45897743105888367,
      "980": -1.4722949266433716,
      "981": -2.3659117221832275,
      "982": -0.5144726037979126,
      "983": -2.0030369758605957,
      "984": 1.3656572103500366,
      "985": 1.792023777961731,
      "986": -2.459407329559326,
      "987": 0.9933472871780396,
      "988": 0.338092565536499,
      "989": 1.2846646308898926,
      "990": 2.4498469829559326,
      "991": -0.334311842918396,
      "992": 1.7345926761627197,
      "993": 0.4730425179004669,
      "994": 0.03899186849594116,
      "995": 1.629116415977478,
      "996": 2.1392011642456055,
      "997": 4.322154998779297,
      "998": 0.30996066331863403,
      "999": -0.752522349357605,
      "1000": 0.7900605201721191,
      "1001": -1.5323437452316284,
      "1002": 1.6484607458114624,
      "1003": -0.27754878997802734,
      "1004": -0.527067244052887,
      "1005": 0.6776832342147827,
      "1006": -2.181004047393799,
      "1007": 0.46111345291137695,
      "1008": 0.1574852466583252,
      "1009": 0.6473415493965149,
      "1010": -1.153122901916504,
      "1011": -0.6870965957641602,
      "1012": 0.5262392163276672,
      "1013": -1.8233249187469482,
      "1014": 1.0983331203460693,
      "1015": 1.327853798866272,
      "1016": 0.9929657578468323,
      "1017": 2.436138153076172,
      "1018": 2.769649028778076,
      "1019": -2.100339651107788,
      "1020": 0.9227465987205505,
      "1021": -2.730668067932129,
      "1022": 0.8187084197998047,
      "1023": 0.390341579914093,
      "1024": -1.269113302230835,
      "1025": -0.9832944869995117,
      "1026": -1.8696224689483643,
      "1027": 0.6351863145828247,
      "1028": -1.9793518781661987,
      "1029": 1.6527769565582275,
      "1030": 2.45209002494812,
      "1031": 1.320268154144287,
      "1032": -0.8595982193946838,
      "1033": -1.0791220664978027,
      "1034": -3.8294451236724854,
      "1035": 1.2576428651809692,
      "1036": -1.1048903465270996,
      "1037": -1.983375072479248,
      "1038": -0.016161927953362465,
      "1039": -1.506656527519226,
      "1040": 2.2458255290985107,
      "1041": -1.4006768465042114,
      "1042": -0.35170310735702515,
      "1043": 0.15055426955223083,
      "1044": -1.8675702810287476,
      "1045": -1.4909642934799194,
      "1046": -0.8388177156448364,
      "1047": 3.035433530807495,
      "1048": 0.3803105652332306,
      "1049": 1.8490725755691528,
      "1050": 3.7820098400115967,
      "1051": -3.0570192337036133,
      "1052": -2.200035572052002,
      "1053": -2.6934280395507812,
      "1054": 2.47241473197937,
      "1055": 2.837390184402466,
      "1056": -2.2556216716766357,
      "1057": 1.9869023561477661,
      "1058": -2.033705949783325,
      "1059": 3.1939992904663086,
      "1060": -3.0378870964050293,
      "1061": 3.231005907058716,
      "1062": 2.2204360961914062,
      "1063": -2.3861589431762695,
      "1064": -4.239329814910889,
      "1065": -2.24586820602417,
      "1066": 2.212576389312744,
      "1067": 3.0306293964385986,
      "1068": -2.719136953353882,
      "1069": -2.3764913082122803,
      "1070": 2.7282345294952393,
      "1071": 2.5662214756011963,
      "1072": 2.777451515197754,
      "1073": -5.877720832824707,
      "1074": -2.2045717239379883,
      "1075": 2.574538469314575,
      "1076": -2.3113298416137695,
      "1077": -1.4439048767089844,
      "1078": -3.1643195152282715,
      "1079": 2.2350080013275146,
      "1080": -2.650730609893799,
      "1081": 2.157696485519409,
      "1082": -2.22890567779541,
      "1083": -2.9127345085144043,
      "1084": -2.3784799575805664,
      "1085": 2.5580618381500244,
      "1086": 2.818448781967163,
      "1087": -2.157506227493286,
      "1088": 2.547898054122925,
      "1089": -2.2983686923980713,
      "1090": 2.495936870574951,
      "1091": -1.5406595468521118,
      "1092": 2.635679244995117,
      "1093": 2.2646431922912598,
      "1094": 2.2266452312469482,
      "1095": -2.3759443759918213,
      "1096": -2.441147804260254,
      "1097": 2.612783432006836,
      "1098": -1.8625465631484985,
      "1099": 1.806331753730774,
      "1100": 2.651113748550415,
      "1101": -2.3420119285583496,
      "1102": 2.50305438041687,
      "1103": 1.484926462173462,
      "1104": -2.400303363800049,
      "1105": -2.8836491107940674,
      "1106": -1.642411708831787,
      "1107": 1.9112015962600708,
      "1108": 2.198216438293457,
      "1109": -3.0514440536499023,
      "1110": 3.275902509689331,
      "1111": 1.5373870134353638,
      "1112": 2.145528554916382,
      "1113": -2.2038443088531494,
      "1114": -2.6047396659851074,
      "1115": -2.5870344638824463,
      "1116": -2.7601590156555176,
      "1117": -2.3703598976135254,
      "1118": 2.6077380180358887,
      "1119": -2.0689189434051514,
      "1120": 0.0892660915851593,
      "1121": -1.9442224502563477,
      "1122": -1.6572091579437256,
      "1123": -1.305724859237671,
      "1124": 2.922130584716797,
      "1125": 1.1045514345169067,
      "1126": -0.6875696778297424,
      "1127": -2.1285078525543213,
      "1128": -1.2926931381225586,
      "1129": 1.515306830406189,
      "1130": -2.2000365257263184,
      "1131": 0.354651540517807,
      "1132": 0.759040892124176,
      "1133": -0.553167462348938,
      "1134": -2.802631378173828,
      "1135": -2.1567275524139404,
      "1136": 0.8252699971199036,
      "1137": 1.7567306756973267,
      "1138": -1.6273601055145264,
      "1139": -0.5442031025886536,
      "1140": 1.135300874710083,
      "1141": 1.1918566226959229,
      "1142": 1.474381685256958,
      "1143": -2.3971686363220215,
      "1144": -1.9846926927566528,
      "1145": 1.8459806442260742,
      "1146": -1.8116432428359985,
      "1147": 1.8253873586654663,
      "1148": 0.45305135846138,
      "1149": -0.8107734322547913,
      "1150": -1.5605967044830322,
      "1151": 1.0054529905319214,
      "1152": -1.2105169296264648,
      "1153": -1.0557920932769775,
      "1154": -0.5626336932182312,
      "1155": 1.205741047859192,
      "1156": 1.9814467430114746,
      "1157": -0.4012340009212494,
      "1158": 0.8765233159065247,
      "1159": -2.385374069213867,
      "1160": 1.8960211277008057,
      "1161": -1.242786169052124,
      "1162": 2.3055150508880615,
      "1163": 0.30340057611465454,
      "1164": 1.305351972579956,
      "1165": -0.6889389157295227,
      "1166": -1.7902024984359741,
      "1167": 1.3294219970703125,
      "1168": 0.0020575388334691525,
      "1169": 0.6599851846694946,
      "1170": 1.834240436553955,
      "1171": -0.3458656966686249,
      "1172": 0.6869938969612122,
      "1173": -2.4969215393066406,
      "1174": -1.8401460647583008,
      "1175": -1.10150146484375,
      "1176": 1.5168224573135376,
      "1177": 0.30385178327560425,
      "1178": 1.5302866697311401,
      "1179": -1.1712367534637451,
      "1180": -1.5537291765213013,
      "1181": -0.9167172312736511,
      "1182": 0.5004480481147766,
      "1183": 1.0030062198638916,
      "1184": -2.388939142227173,
      "1185": -1.7375009059906006,
      "1186": -2.8118691444396973,
      "1187": 0.8269708156585693,
      "1188": 0.8331031799316406,
      "1189": 0.16121168434619904,
      "1190": -0.3410104513168335,
      "1191": 0.6085428595542908,
      "1192": 0.4655817449092865,
      "1193": 0.22792844474315643,
      "1194": -1.3215563297271729,
      "1195": -0.07368101924657822,
      "1196": 1.3413691520690918,
      "1197": 0.14487215876579285,
      "1198": 1.8501733541488647,
      "1199": -1.7668815851211548,
      "1200": 0.2582254111766815,
      "1201": -0.816440761089325,
      "1202": -0.5757439136505127,
      "1203": 2.769329071044922,
      "1204": 0.9530963897705078,
      "1205": 1.0968170166015625,
      "1206": -1.276505470275879,
      "1207": -1.5529834032058716,
      "1208": 0.23659852147102356,
      "1209": 0.88237464427948,
      "1210": -0.44820713996887207,
      "1211": -0.6218019127845764,
      "1212": -1.3226759433746338,
      "1213": 0.16089782118797302,
      "1214": 0.5610723495483398,
      "1215": -1.4120415449142456,
      "1216": 1.3170794248580933,
      "1217": -1.245368242263794,
      "1218": -0.4120052456855774,
      "1219": 0.2902275323867798,
      "1220": 1.0834901332855225,
      "1221": -0.8028483390808105,
      "1222": 1.1299686431884766,
      "1223": 0.5263484120368958,
      "1224": 0.8227260708808899,
      "1225": -0.863954484462738,
      "1226": -0.3016603887081146,
      "1227": 1.366511583328247,
      "1228": -0.8561485409736633,
      "1229": 1.0858092308044434,
      "1230": -1.2816003561019897,
      "1231": 1.119224190711975,
      "1232": -1.6962058544158936,
      "1233": 0.14014986157417297,
      "1234": -0.5896758437156677,
      "1235": 0.07075291126966476,
      "1236": 1.3021878004074097,
      "1237": -0.9209373593330383,
      "1238": 0.25668832659721375,
      "1239": -0.46182623505592346,
      "1240": -0.7507767677307129,
      "1241": 1.0641205310821533,
      "1242": -1.73497474193573,
      "1243": -0.8030429482460022,
      "1244": 0.42137134075164795,
      "1245": 0.7784633636474609,
      "1246": -0.4317844808101654,
      "1247": -0.6546090841293335,
      "1248": -1.3359383344650269,
      "1249": -0.01175515167415142,
      "1250": -0.6336504817008972,
      "1251": -0.07755360007286072,
      "1252": -0.6793319582939148,
      "1253": 0.04851391911506653,
      "1254": 1.832970380783081,
      "1255": 1.393033504486084,
      "1256": 0.759342610836029,
      "1257": 1.3073917627334595,
      "1258": -0.9558007717132568,
      "1259": 0.48694533109664917,
      "1260": -0.10660137236118317,
      "1261": 1.015299677848816,
      "1262": -0.2782730460166931,
      "1263": -0.2566002309322357,
      "1264": -0.14123639464378357,
      "1265": 0.7569989562034607,
      "1266": 1.1991125345230103,
      "1267": -0.5037728548049927,
      "1268": -1.0427638292312622,
      "1269": -0.3300907611846924,
      "1270": -0.4270258843898773,
      "1271": -1.490473747253418,
      "1272": -1.7163586616516113,
      "1273": 0.9965907335281372,
      "1274": 0.3192002773284912,
      "1275": -0.7870763540267944,
      "1276": -0.7057150602340698,
      "1277": 0.349646657705307,
      "1278": -1.1597572565078735,
      "1279": 0.752502977848053,
      "1280": 1.0471664667129517,
      "1281": 0.9005318284034729,
      "1282": -0.35015687346458435,
      "1283": 1.8230953216552734,
      "1284": 0.3341572880744934,
      "1285": 0.48280808329582214,
      "1286": -0.6529887318611145,
      "1287": -0.9291024208068848,
      "1288": 2.406593084335327,
      "1289": -0.08067579567432404,
      "1290": -0.9087271094322205,
      "1291": 1.9129458665847778,
      "1292": 0.46427422761917114,
      "1293": 1.5803849697113037,
      "1294": -0.05095675215125084,
      "1295": 0.8732187151908875,
      "1296": 0.44523611664772034,
      "1297": -2.1731958389282227,
      "1298": 0.6826308369636536,
      "1299": -0.44785094261169434,
      "1300": 0.1039651557803154,
      "1301": 0.9880200028419495,
      "1302": 0.6435152292251587,
      "1303": -0.049020953476428986,
      "1304": 1.1129271984100342,
      "1305": 1.1695220470428467,
      "1306": 1.1676439046859741,
      "1307": 0.9791810512542725,
      "1308": 0.4197806119918823,
      "1309": -0.23106808960437775,
      "1310": 1.441085696220398,
      "1311": 0.2792215645313263,
      "1312": 0.7988089919090271,
      "1313": -0.3885982930660248,
      "1314": 1.0318443775177002,
      "1315": -0.9854809641838074,
      "1316": 0.16910004615783691,
      "1317": 2.2206501960754395,
      "1318": -0.5811702013015747,
      "1319": -0.055960480123758316,
      "1320": 1.655836582183838,
      "1321": 1.2590856552124023,
      "1322": -0.2937341332435608,
      "1323": -1.0007824897766113,
      "1324": -0.12950049340724945,
      "1325": 0.048416245728731155,
      "1326": -0.4765799045562744,
      "1327": 1.4152992963790894,
      "1328": 1.3537954092025757,
      "1329": -0.9795174598693848,
      "1330": 0.1152440533041954,
      "1331": -0.4344180226325989,
      "1332": 0.6571251749992371,
      "1333": 0.08944248408079147,
      "1334": 0.8024635314941406,
      "1335": 0.5658578872680664,
      "1336": 0.24075698852539062,
      "1337": -0.8823549151420593,
      "1338": -0.014730161055922508,
      "1339": 0.6918034553527832,
      "1340": -0.10488231480121613,
      "1341": -1.1545369625091553,
      "1342": -0.9160137176513672,
      "1343": 0.5530868172645569,
      "1344": 0.5250134468078613,
      "1345": -0.14172187447547913,
      "1346": -1.1372476816177368,
      "1347": 0.1454334557056427,
      "1348": -0.43611836433410645,
      "1349": 0.8648562431335449,
      "1350": 0.7458747625350952,
      "1351": 0.1346941441297531,
      "1352": 0.34444373846054077,
      "1353": 0.985360860824585,
      "1354": 1.1792197227478027,
      "1355": 0.7359555959701538,
      "1356": 0.2766001224517822,
      "1357": -1.3503669500350952,
      "1358": 2.614861011505127,
      "1359": -0.3449039161205292,
      "1360": -1.170372724533081,
      "1361": -0.5651010274887085,
      "1362": 0.7931991815567017,
      "1363": 0.2923678755760193,
      "1364": 0.9231271743774414,
      "1365": 1.1740556955337524,
      "1366": 0.5739373564720154,
      "1367": 0.5809511542320251,
      "1368": 0.3633266091346741,
      "1369": 0.6957749724388123,
      "1370": -0.2581181228160858,
      "1371": 0.7436433434486389,
      "1372": 0.5231157541275024,
      "1373": -0.5660109519958496,
      "1374": -0.2652813494205475,
      "1375": -0.05717920511960983,
      "1376": 0.17104876041412354,
      "1377": 0.7204466462135315,
      "1378": 0.5197564363479614,
      "1379": 1.0211354494094849,
      "1380": 1.0275800228118896,
      "1381": 0.46926000714302063,
      "1382": 0.8873494267463684,
      "1383": 0.09683813154697418,
      "1384": 0.4450128376483917,
      "1385": -1.3181192874908447,
      "1386": -0.21271422505378723,
      "1387": 1.8217958211898804,
      "1388": -1.2928903102874756,
      "1389": 0.052228838205337524,
      "1390": 0.12979547679424286,
      "1391": 0.016815314069390297,
      "1392": 0.7786664962768555,
      "1393": 0.6181609630584717,
      "1394": -0.2271622121334076,
      "1395": -0.7226052284240723,
      "1396": 0.30784788727760315,
      "1397": 2.214951515197754,
      "1398": 0.40664923191070557,
      "1399": -0.25110599398612976,
      "1400": -0.3691509962081909,
      "1401": -1.314195990562439,
      "1402": -1.305689811706543,
      "1403": 0.19676370918750763,
      "1404": 0.5448678731918335,
      "1405": -0.6726865768432617,
      "1406": -1.746649980545044,
      "1407": 0.21460604667663574,
      "1408": 1.4708077907562256,
      "1409": 1.5847430229187012,
      "1410": 2.4077630043029785,
      "1411": -1.4965022802352905,
      "1412": 0.5019397139549255,
      "1413": -0.8406471610069275,
      "1414": 3.038902521133423,
      "1415": -0.5264493823051453,
      "1416": 0.2510865032672882,
      "1417": 1.2747721672058105,
      "1418": 2.4246723651885986,
      "1419": -1.4587123394012451,
      "1420": -1.8646847009658813,
      "1421": -0.860497236251831,
      "1422": 1.1004973649978638,
      "1423": 1.4002196788787842,
      "1424": 0.7722105383872986,
      "1425": -1.03278386592865,
      "1426": 0.6612495183944702,
      "1427": -0.8442783951759338,
      "1428": 3.125030755996704,
      "1429": 1.3301668167114258,
      "1430": 0.5600147247314453,
      "1431": 0.0008124354062601924,
      "1432": -1.1493489742279053,
      "1433": -1.7543230056762695,
      "1434": -0.45088377594947815,
      "1435": -1.8767014741897583,
      "1436": -1.9087660312652588,
      "1437": 0.8308365941047668,
      "1438": -0.27185362577438354,
      "1439": 0.6069811582565308,
      "1440": -0.19764171540737152,
      "1441": -0.06013995781540871,
      "1442": -0.014409488998353481,
      "1443": 0.2357562631368637,
      "1444": -0.0296589657664299,
      "1445": 0.2675180733203888,
      "1446": -0.43620333075523376,
      "1447": -1.269019365310669,
      "1448": -0.6872456669807434,
      "1449": -0.478840708732605,
      "1450": 0.6270574927330017,
      "1451": -0.32099974155426025,
      "1452": -0.3587234318256378,
      "1453": 3.0883629322052,
      "1454": 1.8201828002929688,
      "1455": -0.9276366829872131,
      "1456": -1.654213547706604,
      "1457": 3.240206480026245,
      "1458": -0.15179938077926636,
      "1459": -0.19666019082069397,
      "1460": 2.146358013153076,
      "1461": -2.62503981590271,
      "1462": 1.2319079637527466,
      "1463": 0.03036644496023655,
      "1464": 0.4399428069591522,
      "1465": -0.09833815693855286,
      "1466": 3.031386613845825,
      "1467": 2.251680850982666,
      "1468": -0.828291118144989,
      "1469": 2.5098843574523926,
      "1470": 0.6991327404975891,
      "1471": -2.8271665573120117,
      "1472": -1.133922815322876,
      "1473": 0.05959417670965195,
      "1474": 0.9101338982582092,
      "1475": 0.944750189781189,
      "1476": -1.370723009109497,
      "1477": -1.0835769176483154,
      "1478": -0.9173539280891418,
      "1479": 3.129058837890625,
      "1480": -0.9003139138221741,
      "1481": 0.5952159762382507,
      "1482": 1.025909185409546,
      "1483": -1.448021411895752,
      "1484": -0.3876053988933563,
      "1485": -0.893220067024231,
      "1486": -0.43435412645339966,
      "1487": 0.2599960267543793,
      "1488": -1.01200532913208,
      "1489": 0.9650249481201172,
      "1490": 1.0969597101211548,
      "1491": 1.8440525531768799,
      "1492": 0.16386869549751282,
      "1493": -0.8390640616416931,
      "1494": -0.7149809002876282,
      "1495": 2.085232973098755,
      "1496": 0.7840924263000488,
      "1497": -0.15365733206272125,
      "1498": -0.40169981122016907,
      "1499": -1.1043425798416138,
      "1500": 0.1917499601840973,
      "1501": 1.037641167640686,
      "1502": 1.3325458765029907,
      "1503": -0.7441850900650024,
      "1504": 0.7522977590560913,
      "1505": -0.22529858350753784,
      "1506": 0.223392054438591,
      "1507": 0.26879698038101196,
      "1508": 0.4140201508998871,
      "1509": -1.026771068572998,
      "1510": 1.381401538848877,
      "1511": -1.294466257095337,
      "1512": 1.32644784450531,
      "1513": -1.257031798362732,
      "1514": 0.2828146517276764,
      "1515": -1.881758451461792,
      "1516": -1.8155479431152344,
      "1517": 0.8016458749771118,
      "1518": 0.3683423399925232,
      "1519": -0.8902552127838135,
      "1520": 0.9242714643478394,
      "1521": 0.7092313766479492,
      "1522": 1.3569636344909668,
      "1523": -0.016921155154705048,
      "1524": -0.2272454798221588,
      "1525": -0.5719181895256042,
      "1526": -0.033443011343479156,
      "1527": -0.3666851818561554,
      "1528": -0.3444899022579193,
      "1529": -1.2884074449539185,
      "1530": 0.20755323767662048,
      "1531": -0.24790354073047638,
      "1532": 0.643768310546875,
      "1533": -0.7625009417533875,
      "1534": -1.7749110460281372,
      "1535": -1.3013678789138794,
      "1536": -0.41357937455177307,
      "1537": -0.46021100878715515,
      "1538": 0.9604684114456177,
      "1539": -0.10211768746376038,
      "1540": 0.45939406752586365,
      "1541": -0.7700685858726501,
      "1542": -0.047583308070898056,
      "1543": -0.5200968980789185,
      "1544": 1.131193995475769,
      "1545": 1.802146315574646,
      "1546": 0.7852174639701843,
      "1547": -0.9844878315925598,
      "1548": -0.20243670046329498,
      "1549": 0.8757158517837524,
      "1550": -0.6984845995903015,
      "1551": 1.6477526426315308,
      "1552": -0.5433090925216675,
      "1553": 0.40872010588645935,
      "1554": -3.3275489807128906,
      "1555": -0.9023732542991638,
      "1556": 0.09813154488801956,
      "1557": -0.20964962244033813,
      "1558": -2.829753875732422,
      "1559": 0.2754766047000885,
      "1560": 1.2173182964324951,
      "1561": -0.0005597597337327898,
      "1562": 0.8871100544929504,
      "1563": -0.9874502420425415,
      "1564": 0.22287173569202423,
      "1565": 1.6646162271499634,
      "1566": -3.014725923538208,
      "1567": 0.7343496084213257,
      "1568": -0.8989548087120056,
      "1569": -0.6378500461578369,
      "1570": -2.722041606903076,
      "1571": 1.1865334510803223,
      "1572": 2.0215868949890137,
      "1573": -0.22380267083644867,
      "1574": -0.2970722019672394,
      "1575": 3.2470614910125732,
      "1576": 2.847832202911377,
      "1577": -1.2228604555130005,
      "1578": 3.7271504402160645,
      "1579": -1.0334523916244507,
      "1580": 1.304978847503662,
      "1581": 0.6230603456497192,
      "1582": 1.7289886474609375,
      "1583": -0.9656556844711304,
      "1584": -0.09359043091535568,
      "1585": -0.852073073387146,
      "1586": -0.7036392092704773,
      "1587": 2.8307974338531494,
      "1588": -0.019177554175257683,
      "1589": 0.6272798180580139,
      "1590": 2.3659934997558594,
      "1591": 0.04431258887052536,
      "1592": 2.4590537548065186,
      "1593": -2.707728624343872,
      "1594": -0.332721471786499,
      "1595": -3.4793591499328613,
      "1596": 2.830219268798828,
      "1597": -1.7565335035324097,
      "1598": 0.993174135684967,
      "1599": -2.911702871322632,
      "1600": -2.1283347606658936,
      "1601": 0.40985026955604553,
      "1602": -2.7243101596832275,
      "1603": 0.007748735602945089,
      "1604": -0.43283316493034363,
      "1605": -1.639113426208496,
      "1606": -2.943408489227295,
      "1607": -1.9455785751342773,
      "1608": 0.8567572832107544,
      "1609": 0.2091519981622696,
      "1610": -1.4282692670822144,
      "1611": 4.497559547424316,
      "1612": -2.1686999797821045,
      "1613": -2.23470139503479,
      "1614": 2.604619264602661,
      "1615": -0.30746790766716003,
      "1616": 3.513519048690796,
      "1617": 1.1792229413986206,
      "1618": 0.35773661732673645,
      "1619": 0.11012206971645355,
      "1620": 3.7969515323638916,
      "1621": 5.760282039642334,
      "1622": 2.53186297416687,
      "1623": -0.7469624876976013,
      "1624": -1.4061427116394043,
      "1625": -2.210237503051758,
      "1626": 0.798166811466217,
      "1627": 1.8289358615875244,
      "1628": 0.38777756690979004,
      "1629": -3.253830671310425,
      "1630": 0.8250236511230469,
      "1631": 0.7812002301216125,
      "1632": 2.285555124282837,
      "1633": -1.0656794309616089,
      "1634": -2.3466644287109375,
      "1635": 1.964664340019226,
      "1636": -3.3457138538360596,
      "1637": 3.447089672088623,
      "1638": -5.072984218597412,
      "1639": 1.0420078039169312,
      "1640": -0.9797399640083313,
      "1641": 1.126159906387329,
      "1642": -2.648930788040161,
      "1643": -3.440962314605713,
      "1644": -3.590770959854126,
      "1645": 0.6352580189704895,
      "1646": -1.0558184385299683,
      "1647": -3.0681068897247314,
      "1648": -1.3376600742340088,
      "1649": -2.7721054553985596,
      "1650": 2.345036506652832,
      "1651": -2.4405100345611572,
      "1652": 2.6398520469665527,
      "1653": 0.8662892580032349,
      "1654": 1.8251982927322388,
      "1655": 1.6336562633514404,
      "1656": -2.033176898956299,
      "1657": -1.5705454349517822,
      "1658": -0.5260684490203857,
      "1659": 2.275020122528076,
      "1660": 1.3768842220306396,
      "1661": -2.0215635299682617,
      "1662": -1.2824209928512573,
      "1663": 0.823467493057251,
      "1664": -2.3727357387542725,
      "1665": 2.812612533569336,
      "1666": -0.6373093128204346,
      "1667": -2.13655424118042,
      "1668": 4.477503299713135,
      "1669": 0.5095688700675964,
      "1670": -3.4561145305633545,
      "1671": -0.007235799916088581,
      "1672": 2.69779372215271,
      "1673": -1.2496528625488281,
      "1674": -2.067457914352417,
      "1675": 1.6083838939666748,
      "1676": -5.0828537940979,
      "1677": -4.916602611541748,
      "1678": 0.6791475415229797,
      "1679": -0.47863510251045227,
      "1680": -6.705295562744141,
      "1681": 2.653991460800171,
      "1682": 1.0755727291107178,
      "1683": 0.5838226079940796,
      "1684": -5.4022111892700195,
      "1685": -5.728515625,
      "1686": 0.8280103206634521,
      "1687": 4.64877462387085,
      "1688": 3.2542848587036133,
      "1689": -3.038351535797119,
      "1690": 7.50114631652832,
      "1691": -5.227941513061523,
      "1692": 3.0801637172698975,
      "1693": -3.5417721271514893,
      "1694": 3.2855653762817383,
      "1695": 4.049613952636719,
      "1696": 1.9031144380569458,
      "1697": 0.4336138069629669,
      "1698": 0.7199265956878662,
      "1699": -7.080727577209473,
      "1700": -5.553892135620117,
      "1701": -4.198912620544434,
      "1702": -0.42308056354522705,
      "1703": 3.1622495651245117,
      "1704": 2.495248556137085,
      "1705": -1.6695733070373535,
      "1706": -0.013820547610521317,
      "1707": 1.3477925062179565,
      "1708": 1.034906029701233,
      "1709": -4.061756134033203,
      "1710": 4.1571574211120605,
      "1711": 2.3024778366088867,
      "1712": -1.789219617843628,
      "1713": 1.2991974353790283,
      "1714": -4.727046489715576,
      "1715": 0.2329559624195099,
      "1716": -0.33149459958076477,
      "1717": -4.293219089508057,
      "1718": -3.3035497665405273,
      "1719": 6.9630022048950195,
      "1720": -2.1591379642486572,
      "1721": 2.276608467102051,
      "1722": -4.69057035446167,
      "1723": -3.799692153930664,
      "1724": -1.6251775026321411,
      "1725": 4.852923393249512,
      "1726": 0.4362965226173401,
      "1727": -5.897868633270264,
      "1728": -4.593137741088867,
      "1729": -0.49362581968307495,
      "1730": -7.388235092163086,
      "1731": 2.5288400650024414,
      "1732": -2.3099210262298584,
      "1733": 4.430278301239014,
      "1734": 3.7048628330230713,
      "1735": 7.337060451507568,
      "1736": -6.0898308753967285,
      "1737": 4.69935941696167,
      "1738": -2.433591365814209,
      "1739": 1.3608022928237915,
      "1740": 0.635163426399231,
      "1741": -2.813032627105713,
      "1742": 4.822126865386963,
      "1743": 2.753530979156494,
      "1744": 4.114126682281494,
      "1745": 1.0920222997665405,
      "1746": 3.635103225708008,
      "1747": 1.379366159439087,
      "1748": -3.734339952468872,
      "1749": 0.7223023772239685,
      "1750": -5.319674968719482,
      "1751": -1.8763772249221802,
      "1752": 2.050156354904175,
      "1753": -1.3996529579162598,
      "1754": 0.5316964387893677,
      "1755": 1.6861488819122314,
      "1756": -1.285934567451477,
      "1757": 2.664639949798584,
      "1758": 3.602379560470581,
      "1759": 0.8908467888832092,
      "1760": 3.938506841659546,
      "1761": -2.3775551319122314,
      "1762": 0.11342569440603256,
      "1763": -1.2651060819625854,
      "1764": 1.0628304481506348,
      "1765": 0.8077265620231628,
      "1766": 1.2835410833358765,
      "1767": 3.1085407733917236,
      "1768": 1.3896158933639526,
      "1769": -1.2198574542999268,
      "1770": -1.1798902750015259,
      "1771": -0.3423096239566803,
      "1772": 0.5179647207260132,
      "1773": 1.088804006576538,
      "1774": 1.2375108003616333,
      "1775": -1.8687629699707031,
      "1776": -0.03793155029416084,
      "1777": -0.6992794275283813,
      "1778": 2.23345685005188,
      "1779": 3.278672933578491,
      "1780": 1.3666260242462158,
      "1781": 0.1818152666091919,
      "1782": 0.4908507168292999,
      "1783": -2.66851544380188,
      "1784": 0.11735338717699051,
      "1785": -0.3374766409397125,
      "1786": 0.6074430346488953,
      "1787": 5.0790252685546875,
      "1788": 1.8340694904327393,
      "1789": 1.1661570072174072,
      "1790": 1.0346430540084839,
      "1791": -1.9514161348342896,
      "1792": 0.4450628459453583,
      "1793": 1.2374662160873413,
      "1794": -4.397881984710693,
      "1795": 2.062534809112549,
      "1796": 0.6167715191841125,
      "1797": -2.786266803741455,
      "1798": -1.786419153213501,
      "1799": -0.0807197317481041,
      "1800": 0.9917482137680054,
      "1801": 0.7564675211906433,
      "1802": -2.617750644683838,
      "1803": 0.8255306482315063,
      "1804": -1.8488128185272217,
      "1805": 1.062259316444397,
      "1806": -3.267495632171631,
      "1807": -1.434200406074524,
      "1808": -2.6929171085357666,
      "1809": -2.05104923248291,
      "1810": 5.290998458862305,
      "1811": -4.839366912841797,
      "1812": -0.10889449715614319,
      "1813": 1.8921467065811157,
      "1814": -0.0349704809486866,
      "1815": -0.1803624927997589,
      "1816": 1.2941960096359253,
      "1817": 4.3337554931640625,
      "1818": -0.8884621858596802,
      "1819": 4.360901832580566,
      "1820": -0.7508918046951294,
      "1821": -5.99314022064209,
      "1822": -0.15316888689994812,
      "1823": -5.178459167480469,
      "1824": -1.310205101966858,
      "1825": 1.9285739660263062,
      "1826": -2.8935933113098145,
      "1827": -0.44249504804611206,
      "1828": 2.3476076126098633,
      "1829": 7.000349998474121,
      "1830": -1.1342196464538574,
      "1831": 7.5484442710876465,
      "1832": -2.7547473907470703,
      "1833": -6.669513702392578,
      "1834": -2.7293639183044434,
      "1835": 2.943917989730835,
      "1836": 2.7161738872528076,
      "1837": 5.738778591156006,
      "1838": -3.6046831607818604,
      "1839": -1.499567985534668,
      "1840": 2.257331609725952,
      "1841": 4.010575294494629,
      "1842": 1.6024459600448608,
      "1843": -3.2317938804626465,
      "1844": -5.987240314483643,
      "1845": 1.9261648654937744,
      "1846": 1.169758915901184,
      "1847": 5.584902763366699,
      "1848": -6.632236480712891,
      "1849": -1.0370830297470093,
      "1850": -0.11199488490819931,
      "1851": -5.057538986206055,
      "1852": 5.536336421966553,
      "1853": 1.1143147945404053,
      "1854": 1.0319297313690186,
      "1855": 0.8322233557701111,
      "1856": 2.0288891792297363,
      "1857": 7.404520511627197,
      "1858": 0.5241994857788086,
      "1859": -3.120417356491089,
      "1860": 5.70062255859375,
      "1861": -3.877063035964966,
      "1862": 3.5361721515655518,
      "1863": -1.8267972469329834,
      "1864": -0.7154694199562073,
      "1865": 0.368490606546402,
      "1866": -2.7602405548095703,
      "1867": 2.1098227500915527,
      "1868": 2.7696890830993652,
      "1869": -5.043501377105713,
      "1870": 1.1178826093673706,
      "1871": 3.05997633934021,
      "1872": 5.65554141998291,
      "1873": -2.1810221672058105,
      "1874": -1.5767993927001953,
      "1875": -2.9319348335266113,
      "1876": 4.529336929321289,
      "1877": -3.916637897491455,
      "1878": -0.8757959008216858,
      "1879": -4.428381443023682,
      "1880": -4.817100524902344,
      "1881": -5.810620307922363,
      "1882": -5.844661712646484,
      "1883": -5.417481899261475,
      "1884": -4.296505928039551,
      "1885": -6.572940826416016,
      "1886": -1.4769138097763062,
      "1887": -1.4406898021697998,
      "1888": 3.6054229736328125,
      "1889": -3.3297789096832275,
      "1890": -1.9726008176803589,
      "1891": -0.4350023865699768,
      "1892": -0.7882570028305054,
      "1893": -1.5812386274337769,
      "1894": -0.015230992808938026,
      "1895": 2.447373390197754,
      "1896": -1.7645618915557861,
      "1897": 0.17272408306598663,
      "1898": 0.6194099187850952,
      "1899": 1.375288724899292,
      "1900": 1.291636347770691,
      "1901": -0.02536442130804062,
      "1902": -0.6770694851875305,
      "1903": -2.5667049884796143,
      "1904": 0.6475978493690491,
      "1905": 0.8739935755729675,
      "1906": 2.782015800476074,
      "1907": 1.7627055644989014,
      "1908": 0.6325643658638,
      "1909": -0.7991174459457397,
      "1910": 1.4423694610595703,
      "1911": 0.8158425688743591,
      "1912": 1.8234643936157227,
      "1913": 0.9918199181556702,
      "1914": -0.09138549864292145,
      "1915": 0.6736556887626648,
      "1916": -0.9041000604629517,
      "1917": -0.5130628347396851,
      "1918": 0.8129463195800781,
      "1919": 1.5331449508666992,
      "1920": -1.516103982925415,
      "1921": 0.34413400292396545,
      "1922": 0.3708590865135193,
      "1923": -3.394970178604126,
      "1924": -0.7566664814949036,
      "1925": 1.8490123748779297,
      "1926": 0.5145260691642761,
      "1927": 1.2286782264709473,
      "1928": 1.3061550855636597,
      "1929": -0.35979294776916504,
      "1930": 0.27028360962867737,
      "1931": -2.2069616317749023,
      "1932": 1.6991016864776611,
      "1933": 1.3962750434875488,
      "1934": 0.35772615671157837,
      "1935": -0.9651226997375488,
      "1936": -0.8504174947738647,
      "1937": 1.5613832473754883,
      "1938": -0.7854127883911133,
      "1939": 0.30523642897605896,
      "1940": 1.7464966773986816,
      "1941": -0.40455156564712524,
      "1942": 0.3571290671825409,
      "1943": 0.3445679545402527,
      "1944": -1.9643988609313965,
      "1945": -0.7392477989196777,
      "1946": -0.9060630202293396,
      "1947": 1.051175832748413,
      "1948": -0.12264304608106613,
      "1949": -1.0833290815353394,
      "1950": -0.21578939259052277,
      "1951": -1.6550023555755615,
      "1952": 0.6221166253089905,
      "1953": -0.25439679622650146,
      "1954": 0.20514190196990967,
      "1955": -0.5542475581169128,
      "1956": -0.08504074066877365,
      "1957": 2.303602933883667,
      "1958": 2.3328022956848145,
      "1959": 1.614281415939331,
      "1960": -3.9820799827575684,
      "1961": 1.2169908285140991,
      "1962": -1.697618842124939,
      "1963": 3.680565357208252,
      "1964": -3.97105073928833,
      "1965": -5.435547351837158,
      "1966": 0.9969443082809448,
      "1967": 3.9277541637420654,
      "1968": 2.7005362510681152,
      "1969": -0.7096757292747498,
      "1970": 2.9391086101531982,
      "1971": -3.5589141845703125,
      "1972": -0.6663666367530823,
      "1973": -4.523292064666748,
      "1974": 5.464146614074707,
      "1975": 2.9100847244262695,
      "1976": 5.158536434173584,
      "1977": -5.750791072845459,
      "1978": 4.868083953857422,
      "1979": -3.120522975921631,
      "1980": -4.246062755584717,
      "1981": -5.339119911193848,
      "1982": -3.412323474884033,
      "1983": 0.20075827836990356,
      "1984": 2.648750066757202,
      "1985": -4.539966583251953,
      "1986": 2.4597156047821045,
      "1987": -2.0473344326019287,
      "1988": 4.134722709655762,
      "1989": -1.9469183683395386,
      "1990": 5.537302017211914,
      "1991": 2.317840814590454,
      "1992": -3.267310619354248,
      "1993": 1.2077291011810303,
      "1994": -3.35982084274292,
      "1995": -5.420629501342773,
      "1996": -4.471005916595459,
      "1997": -3.0846991539001465,
      "1998": -4.091732501983643,
      "1999": 2.8139851093292236,
      "2000": -2.828529119491577,
      "2001": 2.8634722232818604,
      "2002": -3.4062016010284424,
      "2003": -1.9924838542938232,
      "2004": -2.093644380569458,
      "2005": -1.3726803064346313,
      "2006": -0.11788249015808105,
      "2007": -4.755046844482422,
      "2008": -2.809349775314331,
      "2009": -4.142800807952881,
      "2010": -4.024512767791748,
      "2011": 2.5240540504455566,
      "2012": -5.322951793670654,
      "2013": 1.9931561946868896,
      "2014": 4.029426574707031,
      "2015": 3.3136398792266846,
      "2016": -2.38196063041687,
      "2017": 1.481581211090088,
      "2018": 2.653726816177368,
      "2019": 3.2196407318115234,
      "2020": 4.962745189666748,
      "2021": -3.7602992057800293,
      "2022": 0.8456000089645386,
      "2023": -0.4803408682346344,
      "2024": 3.0840442180633545,
      "2025": 4.197958946228027,
      "2026": 3.602414608001709,
      "2027": 2.447315216064453,
      "2028": -4.566707134246826,
      "2029": -0.5243315696716309,
      "2030": 3.504728078842163,
      "2031": -4.2441725730896,
      "2032": -2.2533974647521973,
      "2033": 2.66100811958313,
      "2034": 1.9392644166946411,
      "2035": -5.019596099853516,
      "2036": 4.840647220611572,
      "2037": 0.05751243233680725,
      "2038": -4.2644829750061035,
      "2039": 0.744026243686676,
      "2040": -6.213411331176758,
      "2041": -1.9020323753356934,
      "2042": 5.663015365600586,
      "2043": 8.990946769714355,
      "2044": 0.20580227673053741,
      "2045": 1.7763203382492065,
      "2046": -4.065384387969971,
      "2047": -0.5268951058387756,
      "2048": -0.25447046756744385,
      "2049": 1.0769662857055664,
      "2050": -2.8098697662353516,
      "2051": -1.08022940158844,
      "2052": -1.7739589214324951,
      "2053": -2.8407979011535645,
      "2054": -0.5382465720176697,
      "2055": -0.6017050743103027,
      "2056": 3.0038771629333496,
      "2057": 0.04661484807729721,
      "2058": 0.32110780477523804,
      "2059": -3.7808523178100586,
      "2060": 2.127239942550659,
      "2061": -1.1188969612121582,
      "2062": 1.6983102560043335,
      "2063": -0.9063611626625061,
      "2064": 3.6060314178466797,
      "2065": -1.5307025909423828,
      "2066": 0.9623042941093445,
      "2067": 2.046236753463745,
      "2068": -3.7576241493225098,
      "2069": -1.1753758192062378,
      "2070": -0.849647045135498,
      "2071": 1.8865904808044434,
      "2072": -0.4392826557159424,
      "2073": -7.737313747406006,
      "2074": -3.058389663696289,
      "2075": 0.44180992245674133,
      "2076": -2.8768630027770996,
      "2077": -2.800668716430664,
      "2078": 0.6913328170776367,
      "2079": -0.8937004804611206,
      "2080": -2.612177848815918,
      "2081": 8.029642105102539,
      "2082": 1.3380138874053955,
      "2083": 1.5910558700561523,
      "2084": 1.5750185251235962,
      "2085": -2.6844229698181152,
      "2086": 1.4792145490646362,
      "2087": -0.4936775863170624,
      "2088": 1.8026100397109985,
      "2089": 1.5426303148269653,
      "2090": 5.194565296173096,
      "2091": -2.6607353687286377,
      "2092": -0.11620447039604187,
      "2093": 3.4521782398223877,
      "2094": -0.7899693250656128,
      "2095": 0.2203192412853241,
      "2096": 1.6794310808181763,
      "2097": 0.0775487944483757,
      "2098": -2.8080503940582275,
      "2099": -2.2171363830566406,
      "2100": 1.8849023580551147,
      "2101": -3.614514112472534,
      "2102": -0.07002776861190796,
      "2103": -2.6632189750671387,
      "2104": 1.91315495967865,
      "2105": 2.748394250869751,
      "2106": -1.1551631689071655,
      "2107": -0.260231614112854,
      "2108": -1.0966843366622925,
      "2109": 1.9042391777038574,
      "2110": -2.7795193195343018,
      "2111": 3.037429094314575,
      "2112": 0.5902833342552185,
      "2113": 1.5635886192321777,
      "2114": -3.4817380905151367,
      "2115": 0.9098787307739258,
      "2116": 1.185995101928711,
      "2117": 1.3629333972930908,
      "2118": -2.9784233570098877,
      "2119": -0.04083134979009628,
      "2120": 0.7971891164779663,
      "2121": -0.0759694054722786,
      "2122": 2.077017307281494,
      "2123": -1.7480956315994263,
      "2124": -0.9619336724281311,
      "2125": 1.8157477378845215,
      "2126": -0.10945137590169907,
      "2127": 0.8062901496887207,
      "2128": -2.026881456375122,
      "2129": 1.3922350406646729,
      "2130": 0.11878450959920883,
      "2131": -1.9507083892822266,
      "2132": 3.15054988861084,
      "2133": 1.599696159362793,
      "2134": -0.10683924704790115,
      "2135": 2.413587808609009,
      "2136": 1.7294820547103882,
      "2137": 2.003278970718384,
      "2138": 1.3997095823287964,
      "2139": -2.6871955394744873,
      "2140": 4.367544174194336,
      "2141": -1.6527537107467651,
      "2142": 3.550950765609741,
      "2143": 1.2343460321426392,
      "2144": 0.14366957545280457,
      "2145": 0.49602481722831726,
      "2146": -1.1095143556594849,
      "2147": 2.5007781982421875,
      "2148": 1.0819758176803589,
      "2149": 2.743950366973877,
      "2150": 3.567075490951538,
      "2151": 0.8313847780227661,
      "2152": 1.167995810508728,
      "2153": -3.2650299072265625,
      "2154": -1.8337697982788086,
      "2155": -1.3902485370635986,
      "2156": 2.2104876041412354,
      "2157": -2.616405487060547,
      "2158": 1.0739840269088745,
      "2159": -2.1315107345581055,
      "2160": 0.1169688031077385,
      "2161": 0.506928026676178,
      "2162": -3.174675226211548,
      "2163": -0.899537205696106,
      "2164": -0.8526464104652405,
      "2165": -1.3606544733047485,
      "2166": -1.9250895977020264,
      "2167": -2.4671945571899414,
      "2168": 2.8505311012268066,
      "2169": 0.6969366073608398,
      "2170": 1.0813395977020264,
      "2171": -0.6461495161056519,
      "2172": 1.6007989645004272,
      "2173": -3.755662202835083,
      "2174": 0.008796634152531624,
      "2175": 4.995895862579346,
      "2176": 3.498544454574585,
      "2177": -3.549766778945923,
      "2178": -2.107255220413208,
      "2179": 1.7474514245986938,
      "2180": -3.446342945098877,
      "2181": 5.171799182891846,
      "2182": -1.224418044090271,
      "2183": 0.29603996872901917,
      "2184": -5.407733917236328,
      "2185": 0.02049357257783413,
      "2186": -0.6003122925758362,
      "2187": -0.4831601083278656,
      "2188": -5.859272480010986,
      "2189": 1.1787467002868652,
      "2190": 5.573187828063965,
      "2191": 7.830510139465332,
      "2192": 0.5405106544494629,
      "2193": 1.1787159442901611,
      "2194": 1.7317750453948975,
      "2195": 4.503464698791504,
      "2196": -0.029345974326133728,
      "2197": -2.336803674697876,
      "2198": 0.3615953326225281,
      "2199": -3.2868118286132812,
      "2200": -5.662411212921143,
      "2201": 0.06966414302587509,
      "2202": 2.8828535079956055,
      "2203": 2.457820177078247,
      "2204": 0.9479339122772217,
      "2205": 5.2421040534973145,
      "2206": 4.64853048324585,
      "2207": -5.3771491050720215,
      "2208": 0.003936573397368193,
      "2209": 0.13272148370742798,
      "2210": -0.018520895391702652,
      "2211": 1.1103405952453613,
      "2212": 0.6981339454650879,
      "2213": -2.639756679534912,
      "2214": 0.2676120698451996,
      "2215": 2.461524248123169,
      "2216": 1.3489412069320679,
      "2217": 5.893378734588623,
      "2218": 2.2064952850341797,
      "2219": 0.013510718010365963,
      "2220": 1.6593620777130127,
      "2221": 0.307454913854599,
      "2222": 5.165322780609131,
      "2223": -5.550799369812012,
      "2224": -0.7657786011695862,
      "2225": -5.582424640655518,
      "2226": 5.35235071182251,
      "2227": 0.4970754384994507,
      "2228": 0.29561737179756165,
      "2229": -2.305844783782959,
      "2230": -1.6068075895309448,
      "2231": 4.002627849578857,
      "2232": -5.835252285003662,
      "2233": -0.21841561794281006,
      "2234": -0.6057431101799011,
      "2235": -0.6616567373275757,
      "2236": -1.9336024522781372,
      "2237": -2.3111732006073,
      "2238": 6.3883867263793945,
      "2239": -3.1932950019836426,
      "2240": 1.6482223272323608,
      "2241": -2.9882729053497314,
      "2242": -4.448977947235107,
      "2243": -2.750049352645874,
      "2244": 2.719576835632324,
      "2245": 3.0537567138671875,
      "2246": 3.2713489532470703,
      "2247": -1.789244294166565,
      "2248": -3.535973072052002,
      "2249": 3.6012582778930664,
      "2250": -2.1012773513793945,
      "2251": 4.843533515930176,
      "2252": -2.435231924057007,
      "2253": -3.013808488845825,
      "2254": -3.818183422088623,
      "2255": -0.7918957471847534,
      "2256": 2.1081933975219727,
      "2257": 3.2288901805877686,
      "2258": -2.7075912952423096,
      "2259": -0.25257664918899536,
      "2260": 2.566420316696167,
      "2261": 2.586695909500122,
      "2262": 3.6390678882598877,
      "2263": -4.45262336730957,
      "2264": -3.655008316040039,
      "2265": 2.73929762840271,
      "2266": -1.883579134941101,
      "2267": 0.7091437578201294,
      "2268": -1.6041653156280518,
      "2269": -0.15048862993717194,
      "2270": -1.6176583766937256,
      "2271": -3.8943979740142822,
      "2272": 4.343929290771484,
      "2273": -0.4295809864997864,
      "2274": 1.1246211528778076,
      "2275": 2.535250663757324,
      "2276": 1.229697585105896,
      "2277": -0.1425095647573471,
      "2278": 0.801038920879364,
      "2279": -4.251649856567383,
      "2280": 3.6689372062683105,
      "2281": -5.045462608337402,
      "2282": 3.8672070503234863,
      "2283": 2.7887909412384033,
      "2284": 1.2080799341201782,
      "2285": -3.056013822555542,
      "2286": -2.8979077339172363,
      "2287": 2.4463279247283936,
      "2288": 0.28772440552711487,
      "2289": -0.2018664926290512,
      "2290": 3.0407192707061768,
      "2291": -0.06714202463626862,
      "2292": 1.1084911823272705,
      "2293": -2.867835760116577,
      "2294": -3.005774736404419,
      "2295": -1.4808337688446045,
      "2296": 1.4109690189361572,
      "2297": -4.835723876953125,
      "2298": 0.7347323894500732,
      "2299": -2.29407000541687,
      "2300": -4.005043983459473,
      "2301": 0.7843789458274841,
      "2302": -1.4141029119491577,
      "2303": 3.9735422134399414,
      "2304": -2.4813339710235596,
      "2305": -2.8746390342712402,
      "2306": -4.107703685760498,
      "2307": -0.09715477377176285,
      "2308": 3.223236560821533,
      "2309": 0.3141050636768341,
      "2310": -1.461312174797058,
      "2311": -5.4903883934021,
      "2312": -1.074135422706604,
      "2313": -5.357311248779297,
      "2314": -0.16049446165561676,
      "2315": 0.08694955706596375,
      "2316": -4.5052080154418945,
      "2317": 0.5551548600196838,
      "2318": -5.949038982391357,
      "2319": 5.265944957733154,
      "2320": 1.2632107734680176,
      "2321": -0.42637360095977783,
      "2322": -0.12493258714675903,
      "2323": -9.237957954406738,
      "2324": 0.0625050961971283,
      "2325": -3.3942348957061768,
      "2326": 2.7132179737091064,
      "2327": -0.12480945140123367,
      "2328": 0.10078179836273193,
      "2329": -2.3792366981506348,
      "2330": 0.6907621026039124,
      "2331": 4.162075519561768,
      "2332": 0.6654557585716248,
      "2333": 0.32092761993408203,
      "2334": -7.125168323516846,
      "2335": 1.083964228630066,
      "2336": -4.099489688873291,
      "2337": 4.622849464416504,
      "2338": -1.5273207426071167,
      "2339": 0.7816632986068726,
      "2340": -0.8162574172019958,
      "2341": -4.312253952026367,
      "2342": 5.020685195922852,
      "2343": -3.0963447093963623,
      "2344": -1.05783212184906,
      "2345": 1.0476441383361816,
      "2346": 1.125821828842163,
      "2347": -0.8138402104377747,
      "2348": 1.4032684564590454,
      "2349": -6.309314727783203,
      "2350": 5.497059345245361,
      "2351": -1.92914879322052,
      "2352": 1.1345187425613403,
      "2353": 0.07837028801441193,
      "2354": -4.766676425933838,
      "2355": -5.475274562835693,
      "2356": -5.753918647766113,
      "2357": 3.073078155517578,
      "2358": -1.2929036617279053,
      "2359": 0.9627746939659119,
      "2360": -0.37937209010124207,
      "2361": -1.5335990190505981,
      "2362": -0.3679688274860382,
      "2363": 0.12675538659095764,
      "2364": -6.005633354187012,
      "2365": -0.14935225248336792,
      "2366": -0.7428328394889832,
      "2367": -6.340697288513184,
      "2368": -3.936246871948242,
      "2369": -6.102860927581787,
      "2370": 7.0250091552734375,
      "2371": 0.709741473197937,
      "2372": -5.03804349899292,
      "2373": -0.9104508757591248,
      "2374": -1.0016518831253052,
      "2375": -1.2381973266601562,
      "2376": 0.4714701771736145,
      "2377": 7.675260543823242,
      "2378": 0.21997545659542084,
      "2379": 1.2431869506835938,
      "2380": -0.8143035769462585,
      "2381": -1.523098349571228,
      "2382": 4.0476579666137695,
      "2383": -1.213310718536377,
      "2384": -6.92948055267334,
      "2385": 0.12830796837806702,
      "2386": 1.2736561298370361,
      "2387": -0.5110974907875061,
      "2388": 3.578613042831421,
      "2389": -8.110020637512207,
      "2390": 0.7900084853172302,
      "2391": 1.8074567317962646,
      "2392": -2.270127534866333,
      "2393": 1.6715739965438843,
      "2394": 2.1097664833068848,
      "2395": 2.336793899536133,
      "2396": -4.231259346008301,
      "2397": -6.499359130859375,
      "2398": 0.6822012066841125,
      "2399": 4.087474822998047,
      "2400": 0.5323235988616943,
      "2401": -0.5659122467041016,
      "2402": -6.9185285568237305,
      "2403": -4.267204761505127,
      "2404": 3.7265102863311768,
      "2405": -1.5444436073303223,
      "2406": 5.614956378936768,
      "2407": -0.04191499203443527,
      "2408": -4.92877197265625,
      "2409": -1.6143921613693237,
      "2410": 0.7696232795715332,
      "2411": -2.0069167613983154,
      "2412": 3.0560970306396484,
      "2413": 3.8036928176879883,
      "2414": 4.826320171356201,
      "2415": -2.423567295074463,
      "2416": 1.6745996475219727,
      "2417": 1.4303319454193115,
      "2418": -6.074324131011963,
      "2419": 6.066382884979248,
      "2420": -5.214993476867676,
      "2421": 3.996190071105957,
      "2422": -8.56827449798584,
      "2423": -1.8924003839492798,
      "2424": -6.666127681732178,
      "2425": -4.738307952880859,
      "2426": 2.287240743637085,
      "2427": -0.13512633740901947,
      "2428": 1.9842373132705688,
      "2429": -2.878906488418579,
      "2430": -9.176414489746094,
      "2431": 5.292200565338135,
      "2432": -0.9224751591682434,
      "2433": -1.1824185848236084,
      "2434": 0.20231854915618896,
      "2435": 1.0272513628005981,
      "2436": 0.32079359889030457,
      "2437": -0.9068648815155029,
      "2438": -6.094893932342529,
      "2439": -5.791571140289307,
      "2440": -2.248548746109009,
      "2441": 1.3259419202804565,
      "2442": -0.7666172981262207,
      "2443": -0.18347930908203125,
      "2444": 5.64222526550293,
      "2445": 4.774239540100098,
      "2446": 1.932016372680664,
      "2447": 4.849702835083008,
      "2448": -1.5404390096664429,
      "2449": -0.979030191898346,
      "2450": 2.186826467514038,
      "2451": -0.749139666557312,
      "2452": 0.3131386637687683,
      "2453": 0.9665583968162537,
      "2454": -0.993833601474762,
      "2455": -0.1944001168012619,
      "2456": -2.574524402618408,
      "2457": 0.19481098651885986,
      "2458": -3.3368418216705322,
      "2459": 0.07198326289653778,
      "2460": -1.7934373617172241,
      "2461": 1.734066367149353,
      "2462": -0.6950761675834656,
      "2463": -0.6835103631019592,
      "2464": -0.8241309523582458,
      "2465": 0.2776287794113159,
      "2466": 0.054764196276664734,
      "2467": -1.2398810386657715,
      "2468": 0.8449547290802002,
      "2469": 2.3446462154388428,
      "2470": -1.6517620086669922,
      "2471": -0.872688889503479,
      "2472": -0.7916507720947266,
      "2473": -1.1880110502243042,
      "2474": -0.4970264732837677,
      "2475": -0.58724045753479,
      "2476": 1.0333752632141113,
      "2477": 0.5644729733467102,
      "2478": -1.0233485698699951,
      "2479": -0.9930971264839172,
      "2480": 1.6327259540557861,
      "2481": -0.4718115031719208,
      "2482": 0.8644241690635681,
      "2483": 0.33504432439804077,
      "2484": 0.7219025492668152,
      "2485": -1.393329381942749,
      "2486": -0.8596317172050476,
      "2487": -0.07933696359395981,
      "2488": -0.2500108778476715,
      "2489": 0.2758612036705017,
      "2490": -0.7287837862968445,
      "2491": -0.636456310749054,
      "2492": -1.6820156574249268,
      "2493": -0.31104132533073425,
      "2494": -0.5251520276069641,
      "2495": -0.5029016733169556,
      "2496": 0.2176610678434372,
      "2497": -0.564165472984314,
      "2498": 0.23995715379714966,
      "2499": -0.3204261362552643,
      "2500": -0.7105410099029541,
      "2501": 0.07872451841831207,
      "2502": -0.06872014701366425,
      "2503": -0.1010792925953865,
      "2504": 0.3263185918331146,
      "2505": 0.532991886138916,
      "2506": 0.5459009408950806,
      "2507": -1.1577595472335815,
      "2508": -0.9878762364387512,
      "2509": -0.3929915130138397,
      "2510": 1.118949055671692,
      "2511": 0.9684232473373413,
      "2512": 0.012716448865830898,
      "2513": 0.17579466104507446,
      "2514": 1.4820839166641235,
      "2515": 1.746366024017334,
      "2516": 0.7207145690917969,
      "2517": 0.24683326482772827,
      "2518": -1.2908390760421753,
      "2519": -0.6447826623916626,
      "2520": -2.8788013458251953,
      "2521": 1.425955891609192,
      "2522": -0.35196807980537415,
      "2523": 0.7523728013038635,
      "2524": -1.2565362453460693,
      "2525": -2.1001124382019043,
      "2526": -0.16633205115795135,
      "2527": 0.6712132692337036,
      "2528": -0.7847008109092712,
      "2529": -0.22931428253650665,
      "2530": 3.0145468711853027,
      "2531": -1.6668193340301514,
      "2532": -0.43868640065193176,
      "2533": -1.961729645729065,
      "2534": 1.0679047107696533,
      "2535": 1.2963435649871826,
      "2536": 0.48100757598876953,
      "2537": -0.38917604088783264,
      "2538": 2.49809193611145,
      "2539": -2.527278423309326,
      "2540": -3.103882074356079,
      "2541": -3.091729164123535,
      "2542": -0.11277885735034943,
      "2543": 0.9822224974632263,
      "2544": 1.3028457164764404,
      "2545": -1.0430129766464233,
      "2546": -0.08518315851688385,
      "2547": -0.31639936566352844,
      "2548": 1.9955593347549438,
      "2549": -0.9423748254776001,
      "2550": 1.70851731300354,
      "2551": -0.01627803035080433,
      "2552": 0.4148752987384796,
      "2553": -0.20711664855480194,
      "2554": -0.9063209891319275,
      "2555": -2.395216226577759,
      "2556": -2.1423847675323486,
      "2557": -0.8579286932945251,
      "2558": 0.4806017577648163,
      "2559": 1.6310290098190308,
      "2560": -0.4864167869091034,
      "2561": 0.148728609085083,
      "2562": -0.7690578103065491,
      "2563": -1.1970564126968384,
      "2564": -0.5108315944671631,
      "2565": 0.44774436950683594,
      "2566": 0.4939368665218353,
      "2567": -3.9610097408294678,
      "2568": -1.4955517053604126,
      "2569": 0.8468438386917114,
      "2570": 0.22235825657844543,
      "2571": 0.6683570146560669,
      "2572": 0.8510096669197083,
      "2573": 4.591974258422852,
      "2574": 2.1640961170196533,
      "2575": 0.2423846423625946,
      "2576": -1.3748787641525269,
      "2577": 1.96774160861969,
      "2578": -0.7243210077285767,
      "2579": 1.8260248899459839,
      "2580": 1.3265538215637207,
      "2581": -2.691807985305786,
      "2582": 1.860762357711792,
      "2583": 1.0028843879699707,
      "2584": 0.5774187445640564,
      "2585": 0.29075154662132263,
      "2586": 1.7621924877166748,
      "2587": 1.745361328125,
      "2588": -1.3084707260131836,
      "2589": 0.31071293354034424,
      "2590": -3.0798470973968506,
      "2591": 6.1709370613098145,
      "2592": 0.10891862958669662,
      "2593": 3.140723943710327,
      "2594": -3.6669070720672607,
      "2595": -3.535390853881836,
      "2596": 0.9817265272140503,
      "2597": -2.958423137664795,
      "2598": 5.5438008308410645,
      "2599": -5.668041706085205,
      "2600": 4.763494968414307,
      "2601": -1.0464938879013062,
      "2602": -0.6815798282623291,
      "2603": -3.039400100708008,
      "2604": 0.20593519508838654,
      "2605": 0.7640000581741333,
      "2606": -2.3115482330322266,
      "2607": -0.5819970965385437,
      "2608": 5.8166961669921875,
      "2609": 1.5747603178024292,
      "2610": -1.470743179321289,
      "2611": -4.295646667480469,
      "2612": 0.0632081925868988,
      "2613": -0.18639646470546722,
      "2614": 1.59503972530365,
      "2615": -3.8153233528137207,
      "2616": -0.8370130658149719,
      "2617": -5.3985276222229,
      "2618": 1.126357913017273,
      "2619": -0.2918865382671356,
      "2620": 5.626235008239746,
      "2621": -0.5624777674674988,
      "2622": 2.578244209289551,
      "2623": 4.283695697784424,
      "2624": 0.16418439149856567,
      "2625": -1.3433409929275513,
      "2626": -4.947096347808838,
      "2627": 4.638545036315918,
      "2628": -0.9051231145858765,
      "2629": 0.13876543939113617,
      "2630": -4.978271484375,
      "2631": 2.5121548175811768,
      "2632": -2.386904239654541,
      "2633": -0.09984228014945984,
      "2634": -0.26583683490753174,
      "2635": 2.180114507675171,
      "2636": 3.1837024688720703,
      "2637": -5.105617046356201,
      "2638": 2.1295108795166016,
      "2639": -5.628898620605469,
      "2640": -0.17669038474559784,
      "2641": 3.2290291786193848,
      "2642": -5.933150291442871,
      "2643": -5.5236921310424805,
      "2644": 5.38803243637085,
      "2645": -2.0931897163391113,
      "2646": 4.5660295486450195,
      "2647": 1.6105098724365234,
      "2648": -3.6737775802612305,
      "2649": 5.836175441741943,
      "2650": 3.1476430892944336,
      "2651": -3.7724194526672363,
      "2652": -2.3973593711853027,
      "2653": 1.9262553453445435,
      "2654": 4.269193649291992,
      "2655": 0.19139328598976135,
      "2656": 1.705722451210022,
      "2657": 4.062819004058838,
      "2658": -0.8210229277610779,
      "2659": -0.9681096076965332,
      "2660": 1.5777734518051147,
      "2661": -3.5054869651794434,
      "2662": -3.8470137119293213,
      "2663": -5.75238561630249,
      "2664": 2.736605405807495,
      "2665": 2.3812172412872314,
      "2666": -2.242668628692627,
      "2667": -1.8035794496536255,
      "2668": -1.3702812194824219,
      "2669": 3.4345481395721436,
      "2670": -1.4363006353378296,
      "2671": 2.250749349594116,
      "2672": 3.260668992996216,
      "2673": 1.2702947854995728,
      "2674": -2.1127259731292725,
      "2675": -3.0045807361602783,
      "2676": -1.3820321559906006,
      "2677": 0.9349604845046997,
      "2678": -2.1524314880371094,
      "2679": 1.3365123271942139,
      "2680": 3.6845052242279053,
      "2681": 0.22779452800750732,
      "2682": -0.13814301788806915,
      "2683": -2.322096824645996,
      "2684": 0.3845170736312866,
      "2685": 4.235110282897949,
      "2686": -3.755053758621216,
      "2687": 2.5977227687835693,
      "2688": -2.7352359294891357,
      "2689": -1.4937223196029663,
      "2690": -3.420297145843506,
      "2691": 2.4142894744873047,
      "2692": 1.6464790105819702,
      "2693": 0.8706111311912537,
      "2694": 1.5252351760864258,
      "2695": 3.6404592990875244,
      "2696": 2.933760166168213,
      "2697": 1.7358996868133545,
      "2698": 3.093623638153076,
      "2699": -3.888036012649536,
      "2700": 3.9147918224334717,
      "2701": 1.1906883716583252,
      "2702": 4.3123779296875,
      "2703": -1.3349368572235107,
      "2704": -0.980938732624054,
      "2705": -2.847999095916748,
      "2706": -3.135108470916748,
      "2707": 4.843430042266846,
      "2708": 1.6454131603240967,
      "2709": -1.5087939500808716,
      "2710": 2.8550384044647217,
      "2711": 1.3310288190841675,
      "2712": 2.133230686187744,
      "2713": -2.2450335025787354,
      "2714": -4.002727508544922,
      "2715": -1.965518593788147,
      "2716": 1.901438593864441,
      "2717": 0.3839435875415802,
      "2718": -0.822460412979126,
      "2719": -3.9073758125305176,
      "2720": -2.5834386348724365,
      "2721": 1.011451005935669,
      "2722": -1.9884686470031738,
      "2723": -2.3419783115386963,
      "2724": -3.601883888244629,
      "2725": -3.876376152038574,
      "2726": -2.3391616344451904,
      "2727": -1.94626784324646,
      "2728": 0.5910865068435669,
      "2729": -1.0620687007904053,
      "2730": -1.9802454710006714,
      "2731": 4.749317646026611,
      "2732": 4.875980854034424,
      "2733": 5.157904148101807,
      "2734": -1.7262917757034302,
      "2735": -1.8907904624938965,
      "2736": 2.7886526584625244,
      "2737": 2.9320478439331055,
      "2738": 3.0633676052093506,
      "2739": -3.203165054321289,
      "2740": 2.595142364501953,
      "2741": 0.03156774863600731,
      "2742": -3.128904342651367,
      "2743": 3.150865316390991,
      "2744": 2.0985488891601562,
      "2745": 2.590571165084839,
      "2746": 4.289713382720947,
      "2747": -2.198258399963379,
      "2748": 0.330108642578125,
      "2749": -2.5534918308258057,
      "2750": -1.4561519622802734,
      "2751": -0.6963481903076172,
      "2752": -2.812626838684082,
      "2753": 2.529271125793457,
      "2754": 2.513028383255005,
      "2755": -3.933340549468994,
      "2756": 2.722431182861328,
      "2757": -5.086531639099121,
      "2758": -0.6475250124931335,
      "2759": 3.039900064468384,
      "2760": 1.219704031944275,
      "2761": -0.8672633171081543,
      "2762": -0.758903980255127,
      "2763": 0.36930981278419495,
      "2764": -4.474551677703857,
      "2765": -3.9834117889404297,
      "2766": -5.109844207763672,
      "2767": -4.889957427978516,
      "2768": -0.05693148449063301,
      "2769": 0.7790537476539612,
      "2770": -3.7693397998809814,
      "2771": -1.8114869594573975,
      "2772": -1.870811104774475,
      "2773": 4.0492987632751465,
