{
  "type": "LSTM",
  "options": {
    "inputSize": 70,
    "inputRange": 70,
    "hiddenLayers": [
      20,
      20
    ],
    "outputSize": 70,
    "decayRate": 0.999,
    "smoothEps": 1e-8,
    "regc": 0.000001,
    "clipval": 5,
    "maxPredictionLength": 100,
    "dataFormatter": {
      "values": [
        "Adobe",
        "Appreciate every day",
        "What is the meaning of life?",
        "boston",
        "const [first, second] = [1, 2];",
        "const add = (a, b) => a + b;",
        "const address = user?.address?.city;",
        "const apiKey = process.env.API_KEY;",
        "const defaultValue = someVariable ?? 'default';",
        "const greeting = `Hello, ${name}!`;",
        "const { name, age } = { name: 'John', age: 25 };",
        "copy file into docker container",
        "create Javascript strings with embedded expressions",
        "create a git alias",
        "destructure a Javascript array",
        "destructure a Javascript object",
        "docker cp ./some_file CONTAINER:/work",
        "example of an arrow function in Javascript",
        "example of optional chaining in Javascript",
        "favorite city",
        "favorite cloud",
        "favorite company to work for",
        "favorite food",
        "favorite rock",
        "favorite state",
        "git config --global alias.co checkout",
        "git pull origin --rebase",
        "how to clean node cache",
        "how to rebase in git",
        "how to run nodejs file on command line",
        "how to view all ports being used on mac",
        "igneous",
        "mass",
        "node --experimental-modules src/file.js",
        "npm cache clean --force",
        "pizza",
        "provide a default value if none is defined in Javascript",
        "retrieving an enviroment variable in Javascript",
        "stratus",
        "sudo lsof -iTCP -sTCP:LISTEN -n -P"
      ],
      "indexTable": {
        "1": 27,
        "2": 28,
        "5": 52,
        "A": 0,
        "d": 1,
        "o": 2,
        "b": 3,
        "e": 4,
        "p": 5,
        "r": 6,
        "c": 7,
        "i": 8,
        "a": 9,
        "t": 10,
        " ": 11,
        "v": 12,
        "y": 13,
        "W": 14,
        "h": 15,
        "s": 16,
        "m": 17,
        "n": 18,
        "g": 19,
        "f": 20,
        "l": 21,
        "?": 22,
        "[": 23,
        ",": 24,
        "]": 25,
        "=": 26,
        ";": 29,
        "(": 30,
        ")": 31,
        ">": 32,
        "+": 33,
        "u": 34,
        ".": 35,
        "K": 36,
        "P": 37,
        "I": 38,
        "_": 39,
        "E": 40,
        "Y": 41,
        "V": 42,
        "'": 43,
        "`": 44,
        "H": 45,
        "$": 46,
        "{": 47,
        "}": 48,
        "!": 49,
        ":": 50,
        "J": 51,
        "k": 53,
        "w": 54,
        "x": 55,
        "j": 56,
        "/": 57,
        "C": 58,
        "O": 59,
        "N": 60,
        "T": 61,
        "R": 62,
        "-": 63,
        "z": 64,
        "L": 65,
        "S": 66,
        "stop-input": 67,
        "start-output": 68,
        "unrecognized": 69
      },
      "characterTable": {
        "0": "A",
        "1": "d",
        "2": "o",
        "3": "b",
        "4": "e",
        "5": "p",
        "6": "r",
        "7": "c",
        "8": "i",
        "9": "a",
        "10": "t",
        "11": " ",
        "12": "v",
        "13": "y",
        "14": "W",
        "15": "h",
        "16": "s",
        "17": "m",
        "18": "n",
        "19": "g",
        "20": "f",
        "21": "l",
        "22": "?",
        "23": "[",
        "24": ",",
        "25": "]",
        "26": "=",
        "27": "1",
        "28": "2",
        "29": ";",
        "30": "(",
        "31": ")",
        "32": ">",
        "33": "+",
        "34": "u",
        "35": ".",
        "36": "K",
        "37": "P",
        "38": "I",
        "39": "_",
        "40": "E",
        "41": "Y",
        "42": "V",
        "43": "'",
        "44": "`",
        "45": "H",
        "46": "$",
        "47": "{",
        "48": "}",
        "49": "!",
        "50": ":",
        "51": "J",
        "52": "5",
        "53": "k",
        "54": "w",
        "55": "x",
        "56": "j",
        "57": "/",
        "58": "C",
        "59": "O",
        "60": "N",
        "61": "T",
        "62": "R",
        "63": "-",
        "64": "z",
        "65": "L",
        "66": "S",
        "67": null,
        "68": null,
        "69": null
      },
      "characters": [
        "A",
        "d",
        "o",
        "b",
        "e",
        "p",
        "r",
        "c",
        "i",
        "a",
        "t",
        " ",
        "v",
        "y",
        "W",
        "h",
        "s",
        "m",
        "n",
        "g",
        "f",
        "l",
        "?",
        "[",
        ",",
        "]",
        "=",
        "1",
        "2",
        ";",
        "(",
        ")",
        ">",
        "+",
        "u",
        ".",
        "K",
        "P",
        "I",
        "_",
        "E",
        "Y",
        "V",
        "'",
        "`",
        "H",
        "$",
        "{",
        "}",
        "!",
        ":",
        "J",
        "5",
        "k",
        "w",
        "x",
        "j",
        "/",
        "C",
        "O",
        "N",
        "T",
        "R",
        "-",
        "z",
        "L",
        "S",
        "stop-input",
        "start-output",
        "unrecognized"
      ],
      "specialIndexes": [
        67,
        68,
        69
      ]
    }
  },
  "input": {
    "rows": 71,
    "columns": 70,
    "weights": {
      "0": -3.338033437728882,
      "1": 0.003852450754493475,
      "2": -0.047902897000312805,
      "3": -1.8342111110687256,
      "4": 2.163318634033203,
      "5": 1.6279646158218384,
      "6": 1.4314777851104736,
      "7": -0.34137120842933655,
      "8": 0.026898490265011787,
      "9": -1.3943427801132202,
      "10": 1.4466276168823242,
      "11": -1.2524431943893433,
      "12": 2.4647459983825684,
      "13": 3.2124712467193604,
      "14": 1.8435282707214355,
      "15": -2.0572423934936523,
      "16": -1.1923770904541016,
      "17": -0.39895278215408325,
      "18": -1.0855354070663452,
      "19": 1.2244418859481812,
      "20": -0.36330345273017883,
      "21": 2.1782679557800293,
      "22": -0.8197023868560791,
      "23": -1.0928235054016113,
      "24": 1.7992401123046875,
      "25": 1.5782579183578491,
      "26": -0.5717244744300842,
      "27": 0.3381733000278473,
      "28": -1.2379530668258667,
      "29": 0.3026069700717926,
      "30": 0.014427735470235348,
      "31": 3.259174346923828,
      "32": -1.9593162536621094,
      "33": -1.6368107795715332,
      "34": -1.1583408117294312,
      "35": 1.582142949104309,
      "36": 0.1113802045583725,
      "37": -0.16605514287948608,
      "38": 0.22694261372089386,
      "39": -2.332411050796509,
      "40": -0.767911970615387,
      "41": 1.1231387853622437,
      "42": 1.1651328802108765,
      "43": 0.28614336252212524,
      "44": -2.9073548316955566,
      "45": -4.325226306915283,
      "46": -0.7416954040527344,
      "47": 2.104039192199707,
      "48": -0.5036798119544983,
      "49": 0.8519602417945862,
      "50": 2.1904571056365967,
      "51": 2.3876893520355225,
      "52": 0.8117426633834839,
      "53": 1.3600897789001465,
      "54": -1.077274203300476,
      "55": 1.5204964876174927,
      "56": 0.5198560357093811,
      "57": -0.43296658992767334,
      "58": -0.9748019576072693,
      "59": -1.1901785135269165,
      "60": 0.12628105282783508,
      "61": 0.7139750719070435,
      "62": -2.8541319370269775,
      "63": 1.0501216650009155,
      "64": -1.0857216119766235,
      "65": -2.066754102706909,
      "66": 0.3827406167984009,
      "67": -1.8023914098739624,
      "68": 3.9495675563812256,
      "69": -1.9429634809494019,
      "70": 0.19848676025867462,
      "71": 7.684327602386475,
      "72": 7.75037956237793,
      "73": 13.066498756408691,
      "74": 0.7176216244697571,
      "75": 2.1733367443084717,
      "76": 3.166658878326416,
      "77": 10.447318077087402,
      "78": 7.097390651702881,
      "79": 0.6469749212265015,
      "80": -11.815775871276855,
      "81": 5.988994121551514,
      "82": -0.4720943868160248,
      "83": 1.4446337223052979,
      "84": -3.4653236865997314,
      "85": -13.941158294677734,
      "86": -4.494500160217285,
      "87": 4.919439315795898,
      "88": -0.32382428646087646,
      "89": -9.214433670043945,
      "90": -0.6511058807373047,
      "91": 0.9244275689125061,
      "92": 10.517376899719238,
      "93": 9.6340913772583,
      "94": 9.803385734558105,
      "95": -7.877005577087402,
      "96": 3.104062795639038,
      "97": 4.50906229019165,
      "98": 2.200590133666992,
      "99": 2.0965311527252197,
      "100": 4.012819766998291,
      "101": -0.14488670229911804,
      "102": -1.6625646352767944,
      "103": -6.480077743530273,
      "104": -7.874575614929199,
      "105": 2.8475208282470703,
      "106": -4.849295616149902,
      "107": -3.6010499000549316,
      "108": -1.0589123964309692,
      "109": 0.8991686105728149,
      "110": 5.608560085296631,
      "111": -4.096642017364502,
      "112": -4.242258548736572,
      "113": 3.152270555496216,
      "114": -6.473469257354736,
      "115": 11.264052391052246,
      "116": 3.5632452964782715,
      "117": -5.77039098739624,
      "118": -8.788959503173828,
      "119": 2.594778537750244,
      "120": -3.6626217365264893,
      "121": 0.38780641555786133,
      "122": 8.148287773132324,
      "123": 5.160397052764893,
      "124": -3.8629894256591797,
      "125": -3.810220241546631,
      "126": 2.69406795501709,
      "127": -9.01169490814209,
      "128": -4.449297904968262,
      "129": 2.7271389961242676,
      "130": -0.5139960646629333,
      "131": 4.9197998046875,
      "132": -11.687755584716797,
      "133": 3.0331153869628906,
      "134": -3.698401689529419,
      "135": -6.2382307052612305,
      "136": 1.7511907815933228,
      "137": -3.330474853515625,
      "138": -12.735410690307617,
      "139": 7.812398910522461,
      "140": 2.5029475688934326,
      "141": -7.180186748504639,
      "142": 1.1146726608276367,
      "143": -0.5428580045700073,
      "144": -3.5421385765075684,
      "145": -2.6243503093719482,
      "146": -0.009163452312350273,
      "147": 0.025805925950407982,
      "148": -1.821102499961853,
      "149": 0.05053224414587021,
      "150": -0.7200775742530823,
      "151": -2.052558183670044,
      "152": 4.278081893920898,
      "153": -0.342110812664032,
      "154": 2.2095603942871094,
      "155": 4.649667739868164,
      "156": -3.224820375442505,
      "157": 1.0334993600845337,
      "158": -2.638739824295044,
      "159": 4.7643842697143555,
      "160": 2.956589937210083,
      "161": -3.8940765857696533,
      "162": -0.6533491015434265,
      "163": 3.0792911052703857,
      "164": 3.774143934249878,
      "165": -3.6361443996429443,
      "166": -1.5255497694015503,
      "167": -0.6295434236526489,
      "168": 1.9260286092758179,
      "169": 0.12508085370063782,
      "170": 0.9997339844703674,
      "171": -3.573747158050537,
      "172": 4.752132415771484,
      "173": 2.2406272888183594,
      "174": 4.983462333679199,
      "175": 0.22795477509498596,
      "176": 4.833469390869141,
      "177": 0.3700314462184906,
      "178": 1.7693790197372437,
      "179": -0.7533436417579651,
      "180": -1.737282633781433,
      "181": -0.984195351600647,
      "182": 0.39872997999191284,
      "183": 4.455825328826904,
      "184": 2.317913293838501,
      "185": 3.285926342010498,
      "186": -0.13571658730506897,
      "187": 0.2955927550792694,
      "188": 1.7088849544525146,
      "189": 3.7482211589813232,
      "190": 3.5506861209869385,
      "191": 4.990810394287109,
      "192": -2.6342241764068604,
      "193": 0.38633936643600464,
      "194": -0.9571727514266968,
      "195": -3.20835280418396,
      "196": -2.490908145904541,
      "197": 0.5081716179847717,
      "198": -0.3165552616119385,
      "199": -2.3460898399353027,
      "200": 3.066272497177124,
      "201": -2.027613401412964,
      "202": 0.15708234906196594,
      "203": 0.7030195593833923,
      "204": 0.24098847806453705,
      "205": -0.5414971113204956,
      "206": 0.36812376976013184,
      "207": -0.4889053404331207,
      "208": -1.1527044773101807,
      "209": -1.7669177055358887,
      "210": 0.5929078459739685,
      "211": -0.8749452829360962,
      "212": -2.124701976776123,
      "213": 0.29851090908050537,
      "214": 2.089179039001465,
      "215": -0.3941011130809784,
      "216": -0.9538130164146423,
      "217": 3.1594650745391846,
      "218": -0.792528510093689,
      "219": 6.323271751403809,
      "220": 1.9753741025924683,
      "221": 1.9341634511947632,
      "222": 2.53487229347229,
      "223": -0.8042775392532349,
      "224": 2.3017995357513428,
      "225": 4.612589359283447,
      "226": 2.264223575592041,
      "227": -0.2272680103778839,
      "228": 2.8772194385528564,
      "229": 2.5043880939483643,
      "230": -0.15387417376041412,
      "231": -1.1490614414215088,
      "232": 0.8516767621040344,
      "233": -1.0344866514205933,
      "234": -1.4255563020706177,
      "235": 0.1282988041639328,
      "236": 0.2215607911348343,
      "237": 2.3685760498046875,
      "238": -0.21531136333942413,
      "239": -1.690576434135437,
      "240": -2.3626255989074707,
      "241": -3.203627824783325,
      "242": 0.7803387641906738,
      "243": 5.242179870605469,
      "244": -1.6575489044189453,
      "245": 1.3684782981872559,
      "246": 0.7741525769233704,
      "247": -3.055164098739624,
      "248": 0.6806203126907349,
      "249": 0.007358752656728029,
      "250": -0.22517000138759613,
      "251": -0.9872142672538757,
      "252": -2.0750539302825928,
      "253": 1.432301640510559,
      "254": 1.204317569732666,
      "255": 0.3862132132053375,
      "256": 0.5059512853622437,
      "257": 1.118232011795044,
      "258": 0.11083100736141205,
      "259": 0.14774438738822937,
      "260": 0.23789261281490326,
      "261": 4.058305740356445,
      "262": -2.729682445526123,
      "263": -1.4158048629760742,
      "264": 0.21346008777618408,
      "265": 0.06874518096446991,
      "266": 0.36294320225715637,
      "267": 0.9008075594902039,
      "268": -0.18773069977760315,
      "269": 0.7307505011558533,
      "270": 3.235558032989502,
      "271": -0.5161063075065613,
      "272": 1.715030312538147,
      "273": -0.651262640953064,
      "274": -1.4776465892791748,
      "275": 3.6798994541168213,
      "276": -0.9182286858558655,
      "277": -0.43384504318237305,
      "278": -1.0274099111557007,
      "279": -2.504889726638794,
      "280": -4.385868549346924,
      "281": 3.260178565979004,
      "282": -2.9386444091796875,
      "283": -2.721299886703491,
      "284": 0.23180921375751495,
      "285": 0.8539127707481384,
      "286": -4.55379056930542,
      "287": 1.5102490186691284,
      "288": -2.2526586055755615,
      "289": 2.2633304595947266,
      "290": 2.699599266052246,
      "291": -0.5179243087768555,
      "292": -2.9460840225219727,
      "293": 7.276659965515137,
      "294": 1.7393995523452759,
      "295": -5.776327133178711,
      "296": -0.9149431586265564,
      "297": -1.4057799577713013,
      "298": -3.7151951789855957,
      "299": 2.935487985610962,
      "300": 7.17774772644043,
      "301": -1.0565799474716187,
      "302": 0.6034899950027466,
      "303": -3.0512757301330566,
      "304": 0.011521299369633198,
      "305": 5.642735958099365,
      "306": -1.1139140129089355,
      "307": -4.548255920410156,
      "308": -1.2476050853729248,
      "309": -6.405616283416748,
      "310": 3.348222017288208,
      "311": 3.4326748847961426,
      "312": -1.5546700954437256,
      "313": -0.12812894582748413,
      "314": 4.4116363525390625,
      "315": 5.101545333862305,
      "316": -1.4871389865875244,
      "317": -0.908388078212738,
      "318": 0.18130062520503998,
      "319": 2.115351438522339,
      "320": -6.769721031188965,
      "321": 1.2656276226043701,
      "322": -4.802918910980225,
      "323": 2.419309616088867,
      "324": 0.4125117063522339,
      "325": -1.3108004331588745,
      "326": 2.286991596221924,
      "327": -1.9414126873016357,
      "328": -4.286189079284668,
      "329": 0.9189196228981018,
      "330": 2.595489978790283,
      "331": -1.7145352363586426,
      "332": -9.229735374450684,
      "333": -1.409018874168396,
      "334": -0.02075289562344551,
      "335": 2.2406880855560303,
      "336": 1.6111425161361694,
      "337": 2.0098683834075928,
      "338": -1.6488782167434692,
      "339": 2.8261327743530273,
      "340": -5.2658562660217285,
      "341": -9.666293144226074,
      "342": -2.565974235534668,
      "343": -2.0751516819000244,
      "344": 0.6363058090209961,
      "345": -6.435922622680664,
      "346": -7.080294609069824,
      "347": 6.423476696014404,
      "348": 1.0112392902374268,
      "349": 0.07840824872255325,
      "350": -0.8223254680633545,
      "351": -3.990462064743042,
      "352": 0.43784618377685547,
      "353": -2.5075223445892334,
      "354": 0.2930471897125244,
      "355": -2.574986219406128,
      "356": -3.132641315460205,
      "357": -0.7958945631980896,
      "358": -2.830819606781006,
      "359": 4.63358736038208,
      "360": 3.9202818870544434,
      "361": 1.0133403539657593,
      "362": 2.288235664367676,
      "363": -2.5176610946655273,
      "364": 3.028130531311035,
      "365": 1.1689395904541016,
      "366": -3.495532989501953,
      "367": -1.3678358793258667,
      "368": -3.9048776626586914,
      "369": 4.130487442016602,
      "370": -1.4913290739059448,
      "371": -1.197693109512329,
      "372": -0.9750370383262634,
      "373": -0.43999359011650085,
      "374": -0.5933496952056885,
      "375": -0.3290213346481323,
      "376": -3.0894265174865723,
      "377": 2.5811493396759033,
      "378": 1.695112705230713,
      "379": -1.2384731769561768,
      "380": -2.6513774394989014,
      "381": -0.44632819294929504,
      "382": 0.08020719885826111,
      "383": 1.8107454776763916,
      "384": 0.6654185652732849,
      "385": -0.9307606816291809,
      "386": -1.2985647916793823,
      "387": 0.5597466230392456,
      "388": -4.434781551361084,
      "389": 3.414031982421875,
      "390": -2.050729274749756,
      "391": -0.5715915560722351,
      "392": 2.6821181774139404,
      "393": 2.1760199069976807,
      "394": 0.6639983057975769,
      "395": 0.8443793058395386,
      "396": -3.8129589557647705,
      "397": 1.5636650323867798,
      "398": 2.1317451000213623,
      "399": -4.024887561798096,
      "400": -2.827199935913086,
      "401": 5.094602108001709,
      "402": -2.939107656478882,
      "403": -1.273625373840332,
      "404": 5.837270736694336,
      "405": 1.5624334812164307,
      "406": -0.3995841443538666,
      "407": -1.074845790863037,
      "408": 1.4912039041519165,
      "409": -1.2218751907348633,
      "410": 4.083824634552002,
      "411": 1.785068154335022,
      "412": -3.76066517829895,
      "413": 0.2990281581878662,
      "414": 1.2601611614227295,
      "415": 1.4392764568328857,
      "416": -0.4787151515483856,
      "417": -0.8393706679344177,
      "418": 0.1383237987756729,
      "419": -2.440490245819092,
      "420": -1.7913743257522583,
      "421": -2.017639636993408,
      "422": -0.7107890248298645,
      "423": 0.9752980470657349,
      "424": 1.3917806148529053,
      "425": 1.4777159690856934,
      "426": -0.21284303069114685,
      "427": -2.076504945755005,
      "428": -3.7624197006225586,
      "429": 0.500373899936676,
      "430": 0.8035789728164673,
      "431": -1.1629362106323242,
      "432": 1.712883710861206,
      "433": 0.5265622138977051,
      "434": 3.371507167816162,
      "435": 0.1694425493478775,
      "436": 1.793809413909912,
      "437": -3.8674209117889404,
      "438": 0.6236582398414612,
      "439": -1.4945579767227173,
      "440": -0.5629851222038269,
      "441": 1.1664305925369263,
      "442": -1.9624149799346924,
      "443": -2.370865821838379,
      "444": 2.0761725902557373,
      "445": 4.5048956871032715,
      "446": 0.5327515006065369,
      "447": -0.4736374616622925,
      "448": -1.5508662462234497,
      "449": -1.2024478912353516,
      "450": 0.39687755703926086,
      "451": 0.27196380496025085,
      "452": -5.379973888397217,
      "453": -0.018128814175724983,
      "454": -0.34714046120643616,
      "455": 1.0349669456481934,
      "456": 0.6850835680961609,
      "457": 4.154806137084961,
      "458": 2.316511631011963,
      "459": -4.333925247192383,
      "460": -1.3168386220932007,
      "461": 6.6546831130981445,
      "462": -1.8473715782165527,
      "463": -0.721123218536377,
      "464": 0.31484344601631165,
      "465": -2.2187585830688477,
      "466": 0.6866571307182312,
      "467": 2.157963514328003,
      "468": 0.9121139049530029,
      "469": -1.8010120391845703,
      "470": 0.5235518217086792,
      "471": 4.036566257476807,
      "472": 3.82033109664917,
      "473": 0.7514503598213196,
      "474": -1.588009238243103,
      "475": 4.443068504333496,
      "476": 0.0954272523522377,
      "477": -0.5301375389099121,
      "478": -1.7577967643737793,
      "479": -2.2349934577941895,
      "480": -0.9393967986106873,
      "481": -1.9172152280807495,
      "482": 5.339914798736572,
      "483": 0.35209113359451294,
      "484": -1.1088485717773438,
      "485": -0.6362137198448181,
      "486": 3.109128713607788,
      "487": -1.582687497138977,
      "488": -0.036522481590509415,
      "489": 2.1409857273101807,
      "490": 1.097817063331604,
      "491": 1.5230132341384888,
      "492": 0.5331295728683472,
      "493": 0.9061432480812073,
      "494": 4.058483123779297,
      "495": -0.621588408946991,
      "496": -0.35054266452789307,
      "497": 1.834787368774414,
      "498": 0.30731600522994995,
      "499": 8.870085716247559,
      "500": -1.3485736846923828,
      "501": 3.323913812637329,
      "502": -1.4118969440460205,
      "503": -0.5922964811325073,
      "504": -4.007232666015625,
      "505": -0.6192782521247864,
      "506": -0.7112476229667664,
      "507": 2.2584176063537598,
      "508": 1.7477046251296997,
      "509": -0.37353596091270447,
      "510": 0.16254685819149017,
      "511": -0.7304865121841431,
      "512": 1.5703438520431519,
      "513": 0.5942370295524597,
      "514": -2.7277767658233643,
      "515": 0.3142915666103363,
      "516": -0.06834067404270172,
      "517": -5.7797532081604,
      "518": 0.32018232345581055,
      "519": 0.19918788969516754,
      "520": -4.443731307983398,
      "521": 1.2424448728561401,
      "522": 1.3040096759796143,
      "523": -3.037015199661255,
      "524": -0.18787039816379547,
      "525": 1.4437320232391357,
      "526": -1.7012176513671875,
      "527": -6.17421817779541,
      "528": 1.5889784097671509,
      "529": 0.3835521936416626,
      "530": -2.9507524967193604,
      "531": -0.33705899119377136,
      "532": 0.5061779022216797,
      "533": 5.394894599914551,
      "534": -0.1598837971687317,
      "535": -0.43669867515563965,
      "536": 0.64881432056427,
      "537": 1.914071798324585,
      "538": -0.3121573328971863,
      "539": -1.321427345275879,
      "540": 2.0539257526397705,
      "541": 1.5019906759262085,
      "542": -0.33596566319465637,
      "543": -0.5026671886444092,
      "544": -2.2364749908447266,
      "545": -1.5002074241638184,
      "546": -1.9045225381851196,
      "547": -0.13836446404457092,
      "548": 1.6732854843139648,
      "549": 0.34407150745391846,
      "550": -1.5202701091766357,
      "551": -1.4429103136062622,
      "552": 1.0629603862762451,
      "553": 2.3254613876342773,
      "554": 1.0343914031982422,
      "555": 0.8861165046691895,
      "556": 4.799633026123047,
      "557": 1.3592629432678223,
      "558": 2.2719547748565674,
      "559": 0.31286096572875977,
      "560": 1.3035452365875244,
      "561": -0.9252642393112183,
      "562": 0.6459904313087463,
      "563": -2.506408929824829,
      "564": 2.8473258018493652,
      "565": 0.6954175233840942,
      "566": 0.6817479729652405,
      "567": 5.322498798370361,
      "568": 0.9749932885169983,
      "569": -2.911712646484375,
      "570": 0.6250186562538147,
      "571": 2.9868900775909424,
      "572": 0.20782408118247986,
      "573": 1.6549277305603027,
      "574": 0.8409642577171326,
      "575": -0.8869706392288208,
      "576": 0.09654423594474792,
      "577": 1.2328587770462036,
      "578": -1.2077462673187256,
      "579": -1.500976800918579,
      "580": -4.549815654754639,
      "581": -0.8649349212646484,
      "582": 3.474270820617676,
      "583": -0.2383793145418167,
      "584": -1.3146413564682007,
      "585": 1.9855316877365112,
      "586": -0.12939009070396423,
      "587": -0.11924752593040466,
      "588": 0.43683069944381714,
      "589": -0.3862011134624481,
      "590": -4.13016939163208,
      "591": -0.2547067701816559,
      "592": -0.32625308632850647,
      "593": 1.4195719957351685,
      "594": -0.7743536233901978,
      "595": -0.367221862077713,
      "596": 7.880469799041748,
      "597": -5.204971790313721,
      "598": -0.806611180305481,
      "599": -1.5372138023376465,
      "600": -1.4760242700576782,
      "601": 0.15405502915382385,
      "602": 0.9813064932823181,
      "603": 1.045485019683838,
      "604": 1.268048644065857,
      "605": 0.8240668177604675,
      "606": -0.35114288330078125,
      "607": -2.4950060844421387,
      "608": -1.6099541187286377,
      "609": 2.8705172538757324,
      "610": -1.6444882154464722,
      "611": -0.5741446614265442,
      "612": -4.015885829925537,
      "613": -0.06176923215389252,
      "614": 3.6903326511383057,
      "615": 0.7081274390220642,
      "616": 2.2049121856689453,
      "617": -0.0035005637910217047,
      "618": 0.3670232594013214,
      "619": 0.42563486099243164,
      "620": 3.044088125228882,
      "621": 0.9966739416122437,
      "622": 3.692782402038574,
      "623": -3.007845163345337,
      "624": -6.229217529296875,
      "625": -0.6588867902755737,
      "626": 0.2726235091686249,
      "627": -1.8182650804519653,
      "628": -2.4552536010742188,
      "629": 1.6371456384658813,
      "630": -1.460892915725708,
      "631": 1.5352152585983276,
      "632": 0.6978757381439209,
      "633": -0.7048174142837524,
      "634": 4.205574989318848,
      "635": -1.3916199207305908,
      "636": -1.0182814598083496,
      "637": 1.8111881017684937,
      "638": -2.075845956802368,
      "639": 3.829066753387451,
      "640": 3.5491280555725098,
      "641": -2.4959208965301514,
      "642": -0.06189979612827301,
      "643": -3.7546186447143555,
      "644": -2.5002777576446533,
      "645": -1.785515308380127,
      "646": -1.755330204963684,
      "647": 0.0005900710821151733,
      "648": -1.09481680393219,
      "649": 0.8341237306594849,
      "650": -1.1818134784698486,
      "651": -2.2310893535614014,
      "652": -1.9504231214523315,
      "653": -4.006624698638916,
      "654": -1.0651209354400635,
      "655": -0.03524653986096382,
      "656": 0.9196977615356445,
      "657": -0.8002108335494995,
      "658": -0.9813026189804077,
      "659": -1.8427222967147827,
      "660": -2.9605064392089844,
      "661": -0.523625910282135,
      "662": -1.3640841245651245,
      "663": -2.461630344390869,
      "664": -1.3127003908157349,
      "665": -0.8701296448707581,
      "666": 1.9770444631576538,
      "667": -4.62787389755249,
      "668": -2.219630479812622,
      "669": 0.8404216766357422,
      "670": -4.956696033477783,
      "671": 1.0266090631484985,
      "672": 0.6324647068977356,
      "673": 0.043455224484205246,
      "674": -0.8389976024627686,
      "675": -0.7060968279838562,
      "676": 0.6355927586555481,
      "677": -1.6733059883117676,
      "678": -1.1147849559783936,
      "679": -0.2058403193950653,
      "680": 0.01658317819237709,
      "681": 1.4074832201004028,
      "682": -3.520923614501953,
      "683": -0.8244994878768921,
      "684": 2.0860178470611572,
      "685": -1.8916070461273193,
      "686": -1.592264175415039,
      "687": 1.182524561882019,
      "688": -1.2758113145828247,
      "689": -2.1318917274475098,
      "690": 0.6658383011817932,
      "691": -2.2677500247955322,
      "692": 2.279399871826172,
      "693": 1.1743335723876953,
      "694": 3.1284005641937256,
      "695": -1.4509400129318237,
      "696": -1.8310837745666504,
      "697": 2.3192813396453857,
      "698": -0.25675612688064575,
      "699": -1.5248371362686157,
      "700": 1.343695044517517,
      "701": 1.3672946691513062,
      "702": 1.1912353038787842,
      "703": -0.18316510319709778,
      "704": 1.6547592878341675,
      "705": -1.986061453819275,
      "706": 1.1572682857513428,
      "707": 0.4031989574432373,
      "708": -1.2347346544265747,
      "709": -0.0599067248404026,
      "710": 1.1969361305236816,
      "711": 3.425560474395752,
      "712": -0.6466795802116394,
      "713": -0.29445308446884155,
      "714": -0.2643050253391266,
      "715": -3.8676023483276367,
      "716": -1.5751492977142334,
      "717": 0.11283567547798157,
      "718": 1.7962156534194946,
      "719": -0.2101159393787384,
      "720": -2.5056674480438232,
      "721": 0.5716734528541565,
      "722": -1.4185644388198853,
      "723": -1.285956621170044,
      "724": -1.926024079322815,
      "725": -1.5519839525222778,
      "726": -0.09940414130687714,
      "727": 0.46218958497047424,
      "728": 2.6396281719207764,
      "729": 0.0665380135178566,
      "730": 0.8966522216796875,
      "731": -1.9065214395523071,
      "732": -0.6341964602470398,
      "733": 0.3807770907878876,
      "734": -0.427773118019104,
      "735": -3.1044132709503174,
      "736": 0.43920087814331055,
      "737": 1.2054721117019653,
      "738": -0.17604583501815796,
      "739": 0.6042819619178772,
      "740": -1.1662583351135254,
      "741": -3.534403085708618,
      "742": 1.5383487939834595,
      "743": -1.3555428981781006,
      "744": -1.6195874214172363,
      "745": 2.573035955429077,
      "746": -1.3983961343765259,
      "747": 0.8433061838150024,
      "748": -1.4802131652832031,
      "749": 0.10676155984401703,
      "750": -1.4503408670425415,
      "751": -0.4504624605178833,
      "752": 0.5839350819587708,
      "753": 2.0047500133514404,
      "754": -1.629736065864563,
      "755": 0.2142176479101181,
      "756": -1.3006329536437988,
      "757": 0.422982394695282,
      "758": 0.28985995054244995,
      "759": -3.7487354278564453,
      "760": -0.42489415407180786,
      "761": -1.1670165061950684,
      "762": 0.7459784746170044,
      "763": 0.3084610104560852,
      "764": 0.14223861694335938,
      "765": 0.9053028225898743,
      "766": 4.147335052490234,
      "767": -6.818173885345459,
      "768": -2.932537078857422,
      "769": 1.6623883247375488,
      "770": 2.539869546890259,
      "771": 2.1200056076049805,
      "772": -3.089374542236328,
      "773": -0.9766634702682495,
      "774": -0.09011998027563095,
      "775": -2.6467983722686768,
      "776": 1.6485862731933594,
      "777": -0.18304575979709625,
      "778": 0.4116538166999817,
      "779": 0.17523041367530823,
      "780": -2.4938766956329346,
      "781": -4.416295528411865,
      "782": 0.41106417775154114,
      "783": 4.925130367279053,
      "784": 0.4632173776626587,
      "785": -1.4695607423782349,
      "786": 3.3018810749053955,
      "787": -0.39216506481170654,
      "788": -2.5073728561401367,
      "789": 0.2642607092857361,
      "790": 2.8660478591918945,
      "791": -0.7781747579574585,
      "792": 5.768961429595947,
      "793": 2.9452974796295166,
      "794": -1.2836097478866577,
      "795": -2.5225272178649902,
      "796": 1.7063060998916626,
      "797": -0.4929492175579071,
      "798": -1.171056866645813,
      "799": 0.25861769914627075,
      "800": 3.9428040981292725,
      "801": 2.2281229496002197,
      "802": -0.6860792636871338,
      "803": -0.19519740343093872,
      "804": -1.4114289283752441,
      "805": 2.516977310180664,
      "806": -0.07997112721204758,
      "807": 4.210148334503174,
      "808": 3.040572166442871,
      "809": -5.006685733795166,
      "810": 1.1187726259231567,
      "811": 2.350741386413574,
      "812": -2.6839239597320557,
      "813": 1.3487118482589722,
      "814": 3.7806103229522705,
      "815": 0.5556519627571106,
      "816": 4.0379815101623535,
      "817": -2.9465153217315674,
      "818": 2.2673115730285645,
      "819": 3.1712541580200195,
      "820": -4.791677474975586,
      "821": 5.716617107391357,
      "822": 1.6602152585983276,
      "823": 0.7254374027252197,
      "824": 2.2252233028411865,
      "825": -0.2366829663515091,
      "826": -0.8697287440299988,
      "827": 2.902575731277466,
      "828": -0.9527825117111206,
      "829": -0.29246681928634644,
      "830": 1.8743312358856201,
      "831": -0.2076258659362793,
      "832": 4.395251274108887,
      "833": 2.412891149520874,
      "834": -3.1559441089630127,
      "835": -0.4002378284931183,
      "836": 0.10636577010154724,
      "837": -3.482475757598877,
      "838": -1.7367660999298096,
      "839": 4.137538909912109,
      "840": 2.687544822692871,
      "841": 2.4148175716400146,
      "842": 2.4436542987823486,
      "843": 1.0973601341247559,
      "844": 2.9359657764434814,
      "845": 0.5251089930534363,
      "846": -2.909048557281494,
      "847": -0.9594869017601013,
      "848": 0.041177649050951004,
      "849": 1.4227800369262695,
      "850": 0.5940155982971191,
      "851": -2.1555020809173584,
      "852": -1.4368072748184204,
      "853": 1.1427624225616455,
      "854": 0.17120392620563507,
      "855": -1.1106011867523193,
      "856": -2.7394511699676514,
      "857": -0.6951396465301514,
      "858": 0.27788394689559937,
      "859": 1.175476312637329,
      "860": 0.8750646114349365,
      "861": 0.0722237303853035,
      "862": 1.7367429733276367,
      "863": -0.3498246371746063,
      "864": -1.6771554946899414,
      "865": -0.24581259489059448,
      "866": -0.12826232612133026,
      "867": -0.9510250687599182,
      "868": -1.8771601915359497,
      "869": -0.053060632199048996,
      "870": -1.4487336874008179,
      "871": 0.5528691411018372,
      "872": -1.0116630792617798,
      "873": -4.307995796203613,
      "874": -0.527183473110199,
      "875": 3.901378870010376,
      "876": 3.6570663452148438,
      "877": 0.4479459524154663,
      "878": 5.7092390060424805,
      "879": -0.7108652591705322,
      "880": 0.1063084751367569,
      "881": -1.2368247509002686,
      "882": -2.284400463104248,
      "883": -0.5175628066062927,
      "884": 1.6656550168991089,
      "885": 0.00010596161882858723,
      "886": 0.5819835662841797,
      "887": -4.770687103271484,
      "888": 0.16197212040424347,
      "889": 0.5879340171813965,
      "890": 1.5734325647354126,
      "891": -4.465303421020508,
      "892": -1.265836477279663,
      "893": -0.9403781890869141,
      "894": 3.209646701812744,
      "895": 0.7202620506286621,
      "896": 0.9210176467895508,
      "897": -1.6059494018554688,
      "898": -2.942201614379883,
      "899": -1.6077356338500977,
      "900": -2.5514297485351562,
      "901": -0.7579643130302429,
      "902": 2.4559428691864014,
      "903": 2.9140422344207764,
      "904": -7.676375865936279,
      "905": -0.5227614641189575,
      "906": 1.5721906423568726,
      "907": 0.22917962074279785,
      "908": 3.896939992904663,
      "909": -1.1692140102386475,
      "910": -0.7362537980079651,
      "911": -2.6665501594543457,
      "912": 1.5380338430404663,
      "913": 1.3548442125320435,
      "914": 1.628753423690796,
      "915": 3.5208613872528076,
      "916": -1.0936012268066406,
      "917": 4.849684238433838,
      "918": -0.4099903106689453,
      "919": 8.392865180969238,
      "920": -1.2217344045639038,
      "921": 6.96954870223999,
      "922": -0.4020267128944397,
      "923": 7.855439186096191,
      "924": 7.316837787628174,
      "925": 2.29736328125,
      "926": 1.5029107332229614,
      "927": 2.79699969291687,
      "928": 4.179872989654541,
      "929": 2.2240095138549805,
      "930": 7.356072425842285,
      "931": 0.49588674306869507,
      "932": 0.3836008906364441,
      "933": 5.739336967468262,
      "934": 0.926475465297699,
      "935": 1.827933669090271,
      "936": 1.2583153247833252,
      "937": -3.334249973297119,
      "938": -2.32043194770813,
      "939": 0.7250750660896301,
      "940": 1.3708128929138184,
      "941": 4.203023433685303,
      "942": -1.459714412689209,
      "943": 3.0269241333007812,
      "944": -3.496736526489258,
      "945": -5.914112091064453,
      "946": -2.7215611934661865,
      "947": 2.201105833053589,
      "948": 4.497566223144531,
      "949": -1.232945442199707,
      "950": -3.945563554763794,
      "951": -0.032635435461997986,
      "952": -5.193892478942871,
      "953": -1.3235114812850952,
      "954": 4.022303581237793,
      "955": -1.5275776386260986,
      "956": 5.767840385437012,
      "957": -1.2408498525619507,
      "958": -1.6324748992919922,
      "959": 1.2670797109603882,
      "960": -0.2928929328918457,
      "961": 4.357896327972412,
      "962": -1.2899956703186035,
      "963": -1.8916912078857422,
      "964": -3.7179980278015137,
      "965": 1.881361961364746,
      "966": 0.4651872515678406,
      "967": -2.6335530281066895,
      "968": 5.58317756652832,
      "969": 3.653388738632202,
      "970": -1.4193369150161743,
      "971": -3.6656298637390137,
      "972": 4.931879043579102,
      "973": -1.8017901182174683,
      "974": -6.209850311279297,
      "975": 3.8935940265655518,
      "976": 2.0612356662750244,
      "977": 7.395595550537109,
      "978": -2.0140862464904785,
      "979": -3.312091827392578,
      "980": 2.0486159324645996,
      "981": 11.427521705627441,
      "982": 4.770506858825684,
      "983": -5.367826461791992,
      "984": -3.928830862045288,
      "985": -0.18932415544986725,
      "986": 3.3854711055755615,
      "987": -4.799447536468506,
      "988": 4.471855640411377,
      "989": 2.708465099334717,
      "990": -3.947467565536499,
      "991": 1.371679425239563,
      "992": -1.3286082744598389,
      "993": -0.42443960905075073,
      "994": -4.9161176681518555,
      "995": -1.5990673303604126,
      "996": -9.740220069885254,
      "997": 4.052785396575928,
      "998": 11.404996871948242,
      "999": 9.488283157348633,
      "1000": 5.613935947418213,
      "1001": -5.553706645965576,
      "1002": 0.12632045149803162,
      "1003": 2.5350558757781982,
      "1004": -5.298891544342041,
      "1005": 3.03678560256958,
      "1006": 0.9918134212493896,
      "1007": -3.5684938430786133,
      "1008": -0.40980419516563416,
      "1009": 2.439286470413208,
      "1010": -7.616188049316406,
      "1011": -5.203965663909912,
      "1012": -4.931194305419922,
      "1013": 10.056966781616211,
      "1014": 1.0107542276382446,
      "1015": -7.982517719268799,
      "1016": -4.234104633331299,
      "1017": 10.863893508911133,
      "1018": 2.4308969974517822,
      "1019": 0.8130542635917664,
      "1020": -2.43906569480896,
      "1021": -6.643749713897705,
      "1022": 1.1136001348495483,
      "1023": 5.28954553604126,
      "1024": -9.811661720275879,
      "1025": -3.9943594932556152,
      "1026": 9.097939491271973,
      "1027": 7.860032081604004,
      "1028": 0.87233966588974,
      "1029": 5.672457695007324,
      "1030": -0.17612023651599884,
      "1031": -6.206171989440918,
      "1032": 10.492229461669922,
      "1033": 2.587087631225586,
      "1034": 0.006976742297410965,
      "1035": -2.97507381439209,
      "1036": -4.625485420227051,
      "1037": 7.360914707183838,
      "1038": 4.437314033508301,
      "1039": 0.12044688314199448,
      "1040": -7.240102767944336,
      "1041": 2.8799021244049072,
      "1042": -2.5251548290252686,
      "1043": 5.708461761474609,
      "1044": 5.741003036499023,
      "1045": 7.016903400421143,
      "1046": -1.7949550151824951,
      "1047": -1.5266262292861938,
      "1048": 11.565590858459473,
      "1049": 1.9365944862365723,
      "1050": 9.962851524353027,
      "1051": -2.5829918384552,
      "1052": -5.568239688873291,
      "1053": -2.206045389175415,
      "1054": -2.0540056228637695,
      "1055": -3.9057137966156006,
      "1056": -1.477830410003662,
      "1057": 6.43712043762207,
      "1058": -14.85736083984375,
      "1059": -13.273276329040527,
      "1060": 18.70309066772461,
      "1061": -4.104903697967529,
      "1062": 17.02083396911621,
      "1063": -12.108799934387207,
      "1064": -18.152690887451172,
      "1065": 8.363814353942871,
      "1066": 2.1004674434661865,
      "1067": 7.898192405700684,
      "1068": -1.6812845468521118,
      "1069": 1.3197226524353027,
      "1070": 3.734943151473999,
      "1071": 1.9004043340682983,
      "1072": -12.88040542602539,
      "1073": 19.351024627685547,
      "1074": -8.425114631652832,
      "1075": -0.14382636547088623,
      "1076": 4.997334003448486,
      "1077": -14.083317756652832,
      "1078": -2.5771729946136475,
      "1079": -19.83959197998047,
      "1080": -12.59781551361084,
      "1081": -2.395522356033325,
      "1082": -0.8132131695747375,
      "1083": 13.097493171691895,
      "1084": 10.758031845092773,
      "1085": 7.006387710571289,
      "1086": -3.794570207595825,
      "1087": -10.630680084228516,
      "1088": -22.807113647460938,
      "1089": -6.3452935218811035,
      "1090": -23.16399383544922,
      "1091": 9.88997745513916,
      "1092": 2.7242980003356934,
      "1093": 14.715928077697754,
      "1094": -0.19201429188251495,
      "1095": -11.232793807983398,
      "1096": -9.869878768920898,
      "1097": 4.102679252624512,
      "1098": 9.55379867553711,
      "1099": -0.08370489627122879,
      "1100": -6.518014907836914,
      "1101": 3.423034906387329,
      "1102": 6.656363487243652,
      "1103": -17.020055770874023,
      "1104": -5.2784881591796875,
      "1105": 7.511696815490723,
      "1106": -3.179166793823242,
      "1107": -12.375631332397461,
      "1108": 13.295129776000977,
      "1109": -10.527135848999023,
      "1110": 1.5565632581710815,
      "1111": 4.926997184753418,
      "1112": 7.394160747528076,
      "1113": 13.376808166503906,
      "1114": 12.981024742126465,
      "1115": 10.037631034851074,
      "1116": -6.43275260925293,
      "1117": -1.2316406965255737,
      "1118": -9.555048942565918,
      "1119": 1.8099390268325806,
      "1120": 2.9579927921295166,
      "1121": -5.614709377288818,
      "1122": -5.100258827209473,
      "1123": -1.2296242713928223,
      "1124": -4.421885967254639,
      "1125": 3.847005844116211,
      "1126": 3.401095151901245,
      "1127": -1.2332911491394043,
      "1128": -4.524420738220215,
      "1129": -3.5895488262176514,
      "1130": -6.4052839279174805,
      "1131": -0.5599160194396973,
      "1132": 0.6725173592567444,
      "1133": 0.601078987121582,
      "1134": 5.762065887451172,
      "1135": -1.6627895832061768,
      "1136": -5.992532253265381,
      "1137": 2.2072389125823975,
      "1138": -0.41486528515815735,
      "1139": 1.8870952129364014,
      "1140": -4.409589767456055,
      "1141": 3.3393795490264893,
      "1142": 0.573235034942627,
      "1143": -4.516051769256592,
      "1144": -1.8860535621643066,
      "1145": 2.6770715713500977,
      "1146": -2.195126533508301,
      "1147": 4.513694763183594,
      "1148": -3.0976264476776123,
      "1149": 0.04723699390888214,
      "1150": 1.8755176067352295,
      "1151": -0.25027546286582947,
      "1152": 5.837064266204834,
      "1153": -1.255724310874939,
      "1154": 0.38031941652297974,
      "1155": -2.2913360595703125,
      "1156": 0.590230405330658,
      "1157": -6.798828125,
      "1158": 5.03687858581543,
      "1159": 2.317110776901245,
      "1160": 2.090208053588867,
      "1161": -4.08422327041626,
      "1162": 2.65987229347229,
      "1163": -1.854935646057129,
      "1164": -2.1070430278778076,
      "1165": 6.094245433807373,
      "1166": -2.8913023471832275,
      "1167": 1.839495301246643,
      "1168": 3.571607828140259,
      "1169": -1.3858518600463867,
      "1170": -2.174177646636963,
      "1171": -1.6995326280593872,
      "1172": -2.176156759262085,
      "1173": 1.9502609968185425,
      "1174": -6.056211471557617,
      "1175": -1.901103138923645,
      "1176": -0.15997496247291565,
      "1177": 1.6667789220809937,
      "1178": 0.7581115961074829,
      "1179": -3.2767932415008545,
      "1180": -1.9097425937652588,
      "1181": 3.470470905303955,
      "1182": 1.1064413785934448,
      "1183": 0.5349223613739014,
      "1184": -4.764989852905273,
      "1185": -7.076699256896973,
      "1186": 0.4652339816093445,
      "1187": -6.959076404571533,
      "1188": -0.3069767355918884,
      "1189": -0.07801283895969391,
      "1190": -2.2475829124450684,
      "1191": -8.150339126586914,
      "1192": 3.4783785343170166,
      "1193": 4.324922561645508,
      "1194": -4.298147678375244,
      "1195": -1.2363665103912354,
      "1196": 2.616361618041992,
      "1197": 1.3242785930633545,
      "1198": 0.04112515226006508,
      "1199": 0.4792689085006714,
      "1200": -3.8679258823394775,
      "1201": -1.0327662229537964,
      "1202": 3.1904027462005615,
      "1203": -1.120568037033081,
      "1204": 0.6542328000068665,
      "1205": -3.2740564346313477,
      "1206": 2.599475622177124,
      "1207": -1.5035841464996338,
      "1208": -1.7975753545761108,
      "1209": -2.4572598934173584,
      "1210": -0.7010623216629028,
      "1211": -1.3016248941421509,
      "1212": 1.7191236019134521,
      "1213": 2.246011257171631,
      "1214": -3.5709900856018066,
      "1215": -1.5838356018066406,
      "1216": 4.618640422821045,
      "1217": 2.7017905712127686,
      "1218": -0.8123564720153809,
      "1219": -0.0791589617729187,
      "1220": 0.3978828489780426,
      "1221": -5.526144504547119,
      "1222": 3.1584842205047607,
      "1223": -0.32007384300231934,
      "1224": 2.3221335411071777,
      "1225": 1.0544958114624023,
      "1226": 3.917228937149048,
      "1227": 3.7171595096588135,
      "1228": 0.04999968782067299,
      "1229": -1.4150779247283936,
      "1230": 5.569701671600342,
      "1231": -0.7796258330345154,
      "1232": 1.0308412313461304,
      "1233": -2.4978277683258057,
      "1234": -0.9388721585273743,
      "1235": -0.13231953978538513,
      "1236": 0.4474688172340393,
      "1237": 1.0456583499908447,
      "1238": 2.875927686691284,
      "1239": 2.0805461406707764,
      "1240": -2.5601370334625244,
      "1241": 1.5402880907058716,
      "1242": 5.16961145401001,
      "1243": 4.0361127853393555,
      "1244": -3.2797188758850098,
      "1245": -4.585643768310547,
      "1246": 1.4514179229736328,
      "1247": 1.734812617301941,
      "1248": -0.5379923582077026,
      "1249": -0.10470101982355118,
      "1250": -0.706835150718689,
      "1251": -1.0843015909194946,
      "1252": 2.137943744659424,
      "1253": 5.3358964920043945,
      "1254": -2.0001332759857178,
      "1255": 1.209104299545288,
      "1256": 6.377269744873047,
      "1257": -1.9579516649246216,
      "1258": 1.7261754274368286,
      "1259": 0.7875882387161255,
      "1260": -1.9534481763839722,
      "1261": 1.5758618116378784,
      "1262": -0.18115709722042084,
      "1263": -1.594264030456543,
      "1264": 0.23313848674297333,
      "1265": 3.042917251586914,
      "1266": 0.24959591031074524,
      "1267": 6.775656223297119,
      "1268": -3.68451189994812,
      "1269": -7.177460670471191,
      "1270": 0.12435077875852585,
      "1271": 3.1589534282684326,
      "1272": 6.527327537536621,
      "1273": 0.23814979195594788,
      "1274": 4.84343957901001,
      "1275": 1.2717833518981934,
      "1276": 4.877766132354736,
      "1277": 0.9711247086524963,
      "1278": -2.472111463546753,
      "1279": 0.7394039034843445,
      "1280": 3.38847279548645,
      "1281": 3.0913310050964355,
      "1282": -0.9034113883972168,
      "1283": -7.175651550292969,
      "1284": 2.7322304248809814,
      "1285": 2.0429720878601074,
      "1286": 1.2800551652908325,
      "1287": 3.0981366634368896,
      "1288": 2.7944839000701904,
      "1289": 0.7575407028198242,
      "1290": 2.2895514965057373,
      "1291": -2.7295894622802734,
      "1292": -1.2499867677688599,
      "1293": 2.108879566192627,
      "1294": 0.3048712909221649,
      "1295": -4.014954090118408,
      "1296": -2.267216682434082,
      "1297": -1.1382217407226562,
      "1298": 1.1627663373947144,
      "1299": -0.19667260348796844,
      "1300": -4.2571563720703125,
      "1301": 6.560704708099365,
      "1302": -1.4533430337905884,
      "1303": -1.0536330938339233,
      "1304": 1.8460228443145752,
      "1305": -5.90016508102417,
      "1306": -3.872586250305176,
      "1307": 0.001559870084747672,
      "1308": -1.7041993141174316,
      "1309": 3.3694140911102295,
      "1310": 2.3827431201934814,
      "1311": -1.1567316055297852,
      "1312": 0.4453047215938568,
      "1313": -0.12542665004730225,
      "1314": 1.4528521299362183,
      "1315": -4.820436477661133,
      "1316": -0.35330843925476074,
      "1317": 0.9374074935913086,
      "1318": -4.14184045791626,
      "1319": -1.63327157497406,
      "1320": 1.5224547386169434,
      "1321": -3.362685203552246,
      "1322": 2.761960029602051,
      "1323": 0.4791102409362793,
      "1324": -0.8140116333961487,
      "1325": -2.9310245513916016,
      "1326": -3.5710337162017822,
      "1327": 0.40014564990997314,
      "1328": 2.9263837337493896,
      "1329": 3.651792526245117,
      "1330": -2.7787187099456787,
      "1331": -1.6150343418121338,
      "1332": 0.8183172941207886,
      "1333": -2.571277141571045,
      "1334": 0.9566448926925659,
      "1335": 1.0303785800933838,
      "1336": 0.7946515679359436,
      "1337": 4.05410623550415,
      "1338": 1.691637635231018,
      "1339": -2.2628281116485596,
      "1340": 0.585010826587677,
      "1341": -0.9323632717132568,
      "1342": 6.288247585296631,
      "1343": -4.237718105316162,
      "1344": 5.633934020996094,
      "1345": -1.7919002771377563,
      "1346": 1.5460188388824463,
      "1347": -1.2384344339370728,
      "1348": -3.5545356273651123,
      "1349": 3.154926061630249,
      "1350": 0.7838612794876099,
      "1351": 1.337326169013977,
      "1352": 1.059752345085144,
      "1353": -0.7590985894203186,
      "1354": 1.0369350910186768,
      "1355": 2.102273941040039,
      "1356": 2.0352697372436523,
      "1357": -0.10013090074062347,
      "1358": -2.3069541454315186,
      "1359": -2.964188575744629,
      "1360": 1.346699833869934,
      "1361": -5.696354866027832,
      "1362": -0.863237202167511,
      "1363": 0.05041711777448654,
      "1364": 1.6998469829559326,
      "1365": 0.739661693572998,
      "1366": 2.389533758163452,
      "1367": 5.073579788208008,
      "1368": 1.4928385019302368,
      "1369": -2.3134801387786865,
      "1370": -4.045567035675049,
      "1371": 0.8561079502105713,
      "1372": 0.24221742153167725,
      "1373": -1.601799488067627,
      "1374": 2.1218655109405518,
      "1375": -0.47621873021125793,
      "1376": -0.8642677068710327,
      "1377": 2.235412120819092,
      "1378": 0.5383015871047974,
      "1379": -0.3209155201911926,
      "1380": -1.3805979490280151,
      "1381": -3.9482574462890625,
      "1382": -5.161862850189209,
      "1383": 2.131330728530884,
      "1384": -1.850929617881775,
      "1385": -0.34816062450408936,
      "1386": -0.11318611353635788,
      "1387": 0.6666516661643982,
      "1388": -1.0354182720184326,
      "1389": 1.0705827474594116,
      "1390": 0.3029690980911255,
      "1391": -4.717349052429199,
      "1392": -0.46743470430374146,
      "1393": -0.5319466590881348,
      "1394": -1.8187816143035889,
      "1395": 1.7035198211669922,
      "1396": -5.263203144073486,
      "1397": 0.4020352065563202,
      "1398": -0.5244214534759521,
      "1399": -2.7296319007873535,
      "1400": 1.7674938440322876,
      "1401": 3.450831651687622,
      "1402": -0.06042017787694931,
      "1403": 3.608158826828003,
      "1404": 0.13325059413909912,
      "1405": 1.580863118171692,
      "1406": 2.001063585281372,
      "1407": -4.050412654876709,
      "1408": 5.802452087402344,
      "1409": -7.618345737457275,
      "1410": -4.179182052612305,
      "1411": 1.4583286046981812,
      "1412": 0.46743133664131165,
      "1413": -2.2036919593811035,
      "1414": -3.4630861282348633,
      "1415": -3.2233142852783203,
      "1416": -1.7615662813186646,
      "1417": -0.6949787735939026,
      "1418": 1.7877838611602783,
      "1419": -5.299844264984131,
      "1420": -3.7957170009613037,
      "1421": -0.8030641674995422,
      "1422": 0.5119135975837708,
      "1423": -6.038281440734863,
      "1424": 1.5533956289291382,
      "1425": 0.8039065003395081,
      "1426": 2.728511095046997,
      "1427": 3.18758487701416,
      "1428": 8.87602424621582,
      "1429": 7.3151936531066895,
      "1430": -2.963367462158203,
      "1431": 0.7759649753570557,
      "1432": 1.8252533674240112,
      "1433": -1.3037889003753662,
      "1434": -4.879304885864258,
      "1435": 3.5879409313201904,
      "1436": 1.8746788501739502,
      "1437": -0.08088474720716476,
      "1438": -1.3942135572433472,
      "1439": -4.898934841156006,
      "1440": -0.06700045615434647,
      "1441": 1.584147572517395,
      "1442": 1.5881292819976807,
      "1443": 1.9951863288879395,
      "1444": -1.6787402629852295,
      "1445": 1.4666348695755005,
      "1446": -2.351902961730957,
      "1447": -2.1601173877716064,
      "1448": 0.4738559126853943,
      "1449": 1.3456578254699707,
      "1450": 2.2927939891815186,
      "1451": 2.166738748550415,
      "1452": 1.4367852210998535,
      "1453": 2.590080976486206,
      "1454": 2.07187557220459,
      "1455": 0.8231123685836792,
      "1456": 0.41627463698387146,
      "1457": -3.783473253250122,
      "1458": -5.324630260467529,
      "1459": -2.47847056388855,
      "1460": -1.8945156335830688,
      "1461": -2.7820587158203125,
      "1462": 0.14635878801345825,
      "1463": 0.7423049211502075,
      "1464": -4.540441989898682,
      "1465": 6.38568115234375,
      "1466": 3.3318405151367188,
      "1467": -4.4803361892700195,
      "1468": 2.4658334255218506,
      "1469": 5.629856586456299,
      "1470": 0.7038416862487793,
      "1471": -5.245875358581543,
      "1472": 1.8990302085876465,
      "1473": -0.12406913936138153,
      "1474": -3.6256558895111084,
      "1475": 1.9298063516616821,
      "1476": 0.9029937386512756,
      "1477": -1.8797214031219482,
      "1478": 0.43870997428894043,
      "1479": -1.2260316610336304,
      "1480": -0.5876278877258301,
      "1481": 0.275737464427948,
      "1482": -3.591804027557373,
      "1483": 2.8219892978668213,
      "1484": 7.1533989906311035,
      "1485": 1.738699197769165,
      "1486": -2.7080209255218506,
      "1487": 1.7038960456848145,
      "1488": 3.2928264141082764,
      "1489": 5.2400431632995605,
      "1490": 0.8731843829154968,
      "1491": -3.8785951137542725,
      "1492": 1.112060546875,
      "1493": 0.0880127027630806,
      "1494": -2.8814542293548584,
      "1495": 3.40643310546875,
      "1496": -3.7531490325927734,
      "1497": -2.3152027130126953,
      "1498": -4.514743328094482,
      "1499": 1.5169293880462646,
      "1500": 0.7774935960769653,
      "1501": 2.769275426864624,
      "1502": -0.7653250098228455,
      "1503": -0.6065918207168579,
      "1504": 1.509153127670288,
      "1505": -2.385125160217285,
      "1506": 2.962022066116333,
      "1507": 0.7522901892662048,
      "1508": 3.4421753883361816,
      "1509": -3.2681355476379395,
      "1510": -2.199289560317993,
      "1511": -0.02347475476562977,
      "1512": -3.2426960468292236,
      "1513": -3.273350715637207,
      "1514": 3.6515817642211914,
      "1515": -1.1444807052612305,
      "1516": 1.5441553592681885,
      "1517": -2.5371904373168945,
      "1518": -4.999451637268066,
      "1519": 2.636378526687622,
      "1520": 2.136673927307129,
      "1521": 0.3495080769062042,
      "1522": -5.108455657958984,
      "1523": -1.7270417213439941,
      "1524": -1.9591764211654663,
      "1525": 3.0943145751953125,
      "1526": -0.44707944989204407,
      "1527": 3.4405581951141357,
      "1528": 1.19584321975708,
      "1529": 0.8220309019088745,
      "1530": -0.2665916681289673,
      "1531": 0.15246239304542542,
      "1532": 0.6209161877632141,
      "1533": -0.4602280855178833,
      "1534": -0.9594157338142395,
      "1535": -0.9197943210601807,
      "1536": -0.08307621628046036,
      "1537": 4.219568252563477,
      "1538": -0.6362689733505249,
      "1539": 1.101284146308899,
      "1540": 6.218443393707275,
      "1541": -0.3660866916179657,
      "1542": 0.1982908397912979,
      "1543": 0.20862816274166107,
      "1544": -0.856947124004364,
      "1545": -0.38384243845939636,
      "1546": 2.795274257659912,
      "1547": 2.8349978923797607,
      "1548": 1.8379707336425781,
      "1549": -2.431401014328003,
      "1550": 0.9681377410888672,
      "1551": -4.691750526428223,
      "1552": -2.3163464069366455,
      "1553": -1.026923418045044,
      "1554": 0.907652735710144,
      "1555": 4.853834629058838,
      "1556": 0.3945603370666504,
      "1557": 1.115004301071167,
      "1558": -0.19449223577976227,
      "1559": 1.7328280210494995,
      "1560": -3.6668429374694824,
      "1561": -1.7693058252334595,
      "1562": 6.236186504364014,
      "1563": 2.045583486557007,
      "1564": 3.942884922027588,
      "1565": -0.43389615416526794,
      "1566": 2.0558600425720215,
      "1567": -1.3145639896392822,
      "1568": -1.304093599319458,
      "1569": 0.49698272347450256,
      "1570": -5.562450885772705,
      "1571": -1.3776599168777466,
      "1572": -2.4108786582946777,
      "1573": 0.4923451244831085,
      "1574": 1.4447675943374634,
      "1575": 0.35164469480514526,
      "1576": 2.660640239715576,
      "1577": 3.428901195526123,
      "1578": 5.398655891418457,
      "1579": -4.363461971282959,
      "1580": -0.23191405832767487,
      "1581": -0.11163546144962311,
      "1582": -2.7548983097076416,
      "1583": 2.9088315963745117,
      "1584": -3.7375550270080566,
      "1585": -2.075320243835449,
      "1586": 0.6368588209152222,
      "1587": 1.234653115272522,
      "1588": -4.275280475616455,
      "1589": 3.0747296810150146,
      "1590": -0.7357540726661682,
      "1591": -0.840281069278717,
      "1592": -5.316747188568115,
      "1593": -0.8712882399559021,
      "1594": 3.987163782119751,
      "1595": 0.17376048862934113,
      "1596": 7.500672340393066,
      "1597": 1.7565733194351196,
      "1598": 0.9100777506828308,
      "1599": -1.4397506713867188,
      "1600": 5.688542366027832,
      "1601": -1.6661885976791382,
      "1602": -2.05222225189209,
      "1603": 0.563030481338501,
      "1604": -3.5426764488220215,
      "1605": 2.618335247039795,
      "1606": -7.14213228225708,
      "1607": -1.022531509399414,
      "1608": -0.21432256698608398,
      "1609": -3.6274125576019287,
      "1610": 1.3521147966384888,
      "1611": 3.339723587036133,
      "1612": -0.3489833474159241,
      "1613": -5.099134922027588,
      "1614": 5.658697128295898,
      "1615": -9.721309661865234,
      "1616": -2.009171962738037,
      "1617": 8.65336799621582,
      "1618": -8.005087852478027,
      "1619": 2.025223731994629,
      "1620": -4.910417079925537,
      "1621": 5.283154010772705,
      "1622": -3.399034261703491,
      "1623": 3.6225180625915527,
      "1624": -3.2626311779022217,
      "1625": 3.753337860107422,
      "1626": -5.367584705352783,
      "1627": 5.585361003875732,
      "1628": 2.270021438598633,
      "1629": 6.8104658126831055,
      "1630": -3.4460973739624023,
      "1631": -4.358739376068115,
      "1632": 1.9702154397964478,
      "1633": -5.91610050201416,
      "1634": -1.6898491382598877,
      "1635": 4.4446845054626465,
      "1636": -10.552818298339844,
      "1637": -0.6839112639427185,
      "1638": 2.812547445297241,
      "1639": -13.606826782226562,
      "1640": 8.996458053588867,
      "1641": 5.6965250968933105,
      "1642": 5.436009883880615,
      "1643": 1.5865827798843384,
      "1644": -5.826690673828125,
      "1645": 3.713533639907837,
      "1646": -1.9998737573623657,
      "1647": -2.91438627243042,
      "1648": 5.492290496826172,
      "1649": 7.770650863647461,
      "1650": -10.537149429321289,
      "1651": -6.711826324462891,
      "1652": -5.095751762390137,
      "1653": -11.904656410217285,
      "1654": 4.394189357757568,
      "1655": -1.4844671487808228,
      "1656": 2.02665376663208,
      "1657": -10.075272560119629,
      "1658": -20.71237564086914,
      "1659": -8.298120498657227,
      "1660": 0.2209281027317047,
      "1661": 7.645155906677246,
      "1662": -10.59515380859375,
      "1663": -2.3531224727630615,
      "1664": 6.426173686981201,
      "1665": 3.49721097946167,
      "1666": 0.7245498895645142,
      "1667": -6.982448101043701,
      "1668": -5.6317338943481445,
      "1669": 4.636569023132324,
      "1670": 0.30990836024284363,
      "1671": 6.750216007232666,
      "1672": -6.930385112762451,
      "1673": -8.312379837036133,
      "1674": -6.048411846160889,
      "1675": -3.857362747192383,
      "1676": -0.47060495615005493,
      "1677": 0.7784966230392456,
      "1678": 3.0491085052490234,
      "1679": -1.0954405069351196,
      "1680": -9.401233673095703,
      "1681": -13.668679237365723,
      "1682": 7.761377811431885,
      "1683": -5.586953639984131,
      "1684": 2.0122246742248535,
      "1685": 5.448294639587402,
      "1686": -8.935928344726562,
      "1687": 4.236434459686279,
      "1688": -0.4784502387046814,
      "1689": 0.22374288737773895,
      "1690": -8.065352439880371,
      "1691": -14.709566116333008,
      "1692": 11.396495819091797,
      "1693": 3.202529191970825,
      "1694": 2.0352883338928223,
      "1695": 7.436675548553467,
      "1696": -26.74519157409668,
      "1697": -0.6459646821022034,
      "1698": -4.978735446929932,
      "1699": 6.8464884757995605,
      "1700": -5.741298675537109,
      "1701": -11.915892601013184,
      "1702": -21.198652267456055,
      "1703": -8.240164756774902,
      "1704": 15.445426940917969,
      "1705": 3.8889505863189697,
      "1706": -19.39961051940918,
      "1707": 1.8589953184127808,
      "1708": 1.2647591829299927,
      "1709": -2.1168341636657715,
      "1710": 5.860188007354736,
      "1711": 3.5739173889160156,
      "1712": 3.8885960578918457,
      "1713": 0.26512792706489563,
      "1714": -5.710505485534668,
      "1715": 7.118480682373047,
      "1716": 13.15224838256836,
      "1717": -15.677226066589355,
      "1718": -6.206490516662598,
      "1719": 26.488174438476562,
      "1720": -0.2970133125782013,
      "1721": 23.275232315063477,
      "1722": 7.735147953033447,
      "1723": -15.897238731384277,
      "1724": 6.5706939697265625,
      "1725": -10.818729400634766,
      "1726": 1.461161732673645,
      "1727": -2.5570497512817383,
      "1728": 10.905326843261719,
      "1729": -17.74319076538086,
      "1730": 2.369359254837036,
      "1731": 11.608174324035645,
      "1732": -9.07146167755127,
      "1733": -0.7990818023681641,
      "1734": -4.526119232177734,
      "1735": -2.1085784435272217,
      "1736": -12.548748970031738,
      "1737": 11.012164115905762,
      "1738": -8.133234977722168,
      "1739": 0.5713340044021606,
      "1740": -18.088069915771484,
      "1741": -13.84923267364502,
      "1742": 17.313190460205078,
      "1743": 12.117161750793457,
      "1744": 26.239286422729492,
      "1745": -14.21886920928955,
      "1746": -11.3817720413208,
      "1747": -3.9253954887390137,
      "1748": 1.5259970426559448,
      "1749": -1.2258334159851074,
      "1750": 0.4233338236808777,
      "1751": -0.7426310181617737,
      "1752": 3.642104148864746,
      "1753": 2.579162120819092,
      "1754": -6.959591388702393,
      "1755": 4.101808071136475,
      "1756": 7.774557113647461,
      "1757": -0.04155983403325081,
      "1758": 3.5297346115112305,
      "1759": -0.9427129030227661,
      "1760": -8.843042373657227,
      "1761": 2.8696937561035156,
      "1762": 1.0950722694396973,
      "1763": -6.675659656524658,
      "1764": -0.9817283153533936,
      "1765": -5.304286003112793,
      "1766": -4.5804643630981445,
      "1767": 9.561717987060547,
      "1768": 5.716332912445068,
      "1769": 5.352715969085693,
      "1770": 1.8888347148895264,
      "1771": 13.111270904541016,
      "1772": -0.3239632844924927,
      "1773": 15.702217102050781,
      "1774": 0.2884553074836731,
      "1775": -4.3684821128845215,
      "1776": 5.680487632751465,
      "1777": -4.019056797027588,
      "1778": -9.57692813873291,
      "1779": -1.3148071765899658,
      "1780": -7.119899272918701,
      "1781": 10.340641975402832,
      "1782": 5.565445423126221,
      "1783": 7.914821624755859,
      "1784": -4.9973273277282715,
      "1785": -7.27618408203125,
      "1786": 13.79443359375,
      "1787": -1.5761969089508057,
      "1788": 8.494211196899414,
      "1789": -4.065249443054199,
      "1790": 6.063194751739502,
      "1791": -3.1109161376953125,
      "1792": -2.0830533504486084,
      "1793": 5.266839981079102,
      "1794": -11.244281768798828,
      "1795": 3.3723645210266113,
      "1796": -0.0842239111661911,
      "1797": 1.5739127397537231,
      "1798": 6.929521560668945,
      "1799": 2.761897563934326,
      "1800": 8.222005844116211,
      "1801": -2.5100021362304688,
      "1802": 0.49782851338386536,
      "1803": 4.5661725997924805,
      "1804": -1.1037286520004272,
      "1805": 5.705170154571533,
      "1806": -6.9500322341918945,
      "1807": -3.42391037940979,
      "1808": -0.8157799243927002,
      "1809": 1.2674829959869385,
      "1810": -4.808568477630615,
      "1811": -5.314260005950928,
      "1812": 1.617567777633667,
      "1813": 7.575361251831055,
      "1814": -4.106658458709717,
      "1815": 3.6409213542938232,
      "1816": 0.5884911417961121,
      "1817": 0.2558935284614563,
      "1818": 0.2374800443649292,
      "1819": 6.598611354827881,
      "1820": 19.928714752197266,
      "1821": 13.961806297302246,
      "1822": -12.826613426208496,
      "1823": 0.9907834529876709,
      "1824": 19.310091018676758,
      "1825": 4.373833656311035,
      "1826": 10.89996337890625,
      "1827": 2.079864025115967,
      "1828": -7.227356433868408,
      "1829": 3.3324079513549805,
      "1830": 6.250591278076172,
      "1831": 5.756802082061768,
      "1832": 4.753666877746582,
      "1833": 4.810618877410889,
      "1834": -0.8845439553260803,
      "1835": 0.1810407191514969,
      "1836": 1.780001163482666,
      "1837": -4.53824520111084,
      "1838": -19.51955223083496,
      "1839": 9.745924949645996,
      "1840": -3.14280104637146,
      "1841": -11.064443588256836,
      "1842": 3.9876511096954346,
      "1843": -6.703685283660889,
      "1844": -10.599905014038086,
      "1845": 22.475934982299805,
      "1846": 3.524414300918579,
      "1847": -13.2052583694458,
      "1848": -7.253777503967285,
      "1849": 0.45903509855270386,
      "1850": 7.833327770233154,
      "1851": 9.821697235107422,
      "1852": 4.066129684448242,
      "1853": 9.986892700195312,
      "1854": -11.340052604675293,
      "1855": -4.986174583435059,
      "1856": -0.7962051033973694,
      "1857": -10.239295959472656,
      "1858": 9.29417610168457,
      "1859": -4.235738277435303,
      "1860": -6.657780647277832,
      "1861": 14.14486312866211,
      "1862": 12.83233642578125,
      "1863": -4.475113391876221,
      "1864": -3.7769980430603027,
      "1865": 9.872603416442871,
      "1866": -16.177257537841797,
      "1867": -6.483768939971924,
      "1868": -2.9442508220672607,
      "1869": -10.505348205566406,
      "1870": -0.9281289577484131,
      "1871": -2.1669039726257324,
      "1872": -20.727859497070312,
      "1873": -0.2056826502084732,
      "1874": 4.253295421600342,
      "1875": -10.11302661895752,
      "1876": 2.1009135246276855,
      "1877": -5.085840225219727,
      "1878": 1.2432289123535156,
      "1879": 5.520651340484619,
      "1880": -0.1707976758480072,
      "1881": -2.312209367752075,
      "1882": -4.076908111572266,
      "1883": -2.6509101390838623,
      "1884": -16.03219223022461,
      "1885": -4.370307445526123,
      "1886": -4.823633670806885,
      "1887": 1.8433938026428223,
      "1888": 1.8910170793533325,
      "1889": 9.050522804260254,
      "1890": -3.116112232208252,
      "1891": -0.2919701933860779,
      "1892": 2.1375858783721924,
      "1893": 5.3516974449157715,
      "1894": 0.24570001661777496,
      "1895": 4.713179588317871,
      "1896": 0.6979031562805176,
      "1897": -2.1545631885528564,
      "1898": -4.872668266296387,
      "1899": 0.19551709294319153,
      "1900": -0.4953452944755554,
      "1901": -1.043287992477417,
      "1902": -0.8202406764030457,
      "1903": -1.6470600366592407,
      "1904": 6.504404067993164,
      "1905": -6.462887763977051,
      "1906": -7.697194576263428,
      "1907": -0.008149697445333004,
      "1908": 0.6080509424209595,
      "1909": 3.179259777069092,
      "1910": 1.5511319637298584,
      "1911": 4.3610429763793945,
      "1912": 1.5191221237182617,
      "1913": 3.0844662189483643,
      "1914": 3.5067107677459717,
      "1915": -4.5631303787231445,
      "1916": -2.904186487197876,
      "1917": 0.16550381481647491,
      "1918": -0.9744526147842407,
      "1919": -2.495453119277954,
      "1920": -1.6380884647369385,
      "1921": -2.205306053161621,
      "1922": -2.55558705329895,
      "1923": -5.213421821594238,
      "1924": 2.8513331413269043,
      "1925": -0.4356226921081543,
      "1926": -0.003670761128887534,
      "1927": 0.6107102036476135,
      "1928": 1.6320749521255493,
      "1929": -0.8271390199661255,
      "1930": -4.834469318389893,
      "1931": -1.9374747276306152,
      "1932": 1.113135814666748,
      "1933": 1.918123483657837,
      "1934": -4.83136510848999,
      "1935": 2.0971882343292236,
      "1936": -2.9385173320770264,
      "1937": 2.370285987854004,
      "1938": 0.28689587116241455,
      "1939": 2.787545680999756,
      "1940": 2.9524283409118652,
      "1941": 0.0035370951518416405,
      "1942": -0.39349570870399475,
      "1943": 2.351598024368286,
      "1944": -4.62069034576416,
      "1945": -0.5763819813728333,
      "1946": -2.225062847137451,
      "1947": -0.5340726375579834,
      "1948": -3.5908615589141846,
      "1949": 1.2598267793655396,
      "1950": 0.3849680721759796,
      "1951": -2.7206225395202637,
      "1952": -4.282975673675537,
      "1953": 5.331228256225586,
      "1954": -0.6169097423553467,
      "1955": -2.6450607776641846,
      "1956": 8.467483520507812,
      "1957": -4.134186744689941,
      "1958": -6.853475093841553,
      "1959": 4.775648593902588,
      "1960": 6.125875473022461,
      "1961": 4.398891925811768,
      "1962": -5.34535551071167,
      "1963": -3.5925629138946533,
      "1964": 12.718154907226562,
      "1965": 16.62022590637207,
      "1966": -3.4985921382904053,
      "1967": 13.342923164367676,
      "1968": -3.712332248687744,
      "1969": 2.0077836513519287,
      "1970": -3.4873006343841553,
      "1971": 10.323212623596191,
      "1972": 7.0627121925354,
      "1973": -10.108895301818848,
      "1974": 12.147200584411621,
      "1975": 0.1382320672273636,
      "1976": -2.9967241287231445,
      "1977": 10.872574806213379,
      "1978": 4.0111985206604,
      "1979": 14.160321235656738,
      "1980": -13.22575569152832,
      "1981": 4.654824256896973,
      "1982": 0.4038012623786926,
      "1983": -12.561391830444336,
      "1984": -3.1393229961395264,
      "1985": 7.031261444091797,
      "1986": -2.238370656967163,
      "1987": 3.748685121536255,
      "1988": 0.6566317081451416,
      "1989": -1.6119211912155151,
      "1990": -1.7809548377990723,
      "1991": -3.6929216384887695,
      "1992": 7.01671838760376,
      "1993": 6.513881683349609,
      "1994": -8.876448631286621,
      "1995": -4.1041388511657715,
      "1996": 7.946816444396973,
      "1997": -2.9887888431549072,
      "1998": 8.237088203430176,
      "1999": 0.6501654982566833,
      "2000": -11.011207580566406,
      "2001": -7.61269998550415,
      "2002": -1.6378376483917236,
      "2003": -5.182860374450684,
      "2004": 1.776671051979065,
      "2005": -0.31027206778526306,
      "2006": -13.391074180603027,
      "2007": -12.975976943969727,
      "2008": 0.3068372309207916,
      "2009": -5.454786777496338,
      "2010": -9.87971019744873,
      "2011": 1.7890795469284058,
      "2012": -16.932937622070312,
      "2013": 6.348685264587402,
      "2014": 3.374966621398926,
      "2015": -11.66573429107666,
      "2016": -15.387922286987305,
      "2017": 0.5838556289672852,
      "2018": 4.580371856689453,
      "2019": -6.319159507751465,
      "2020": 4.000333309173584,
      "2021": 17.936620712280273,
      "2022": -9.190933227539062,
      "2023": 7.455991744995117,
      "2024": -13.061348915100098,
      "2025": -9.803532600402832,
      "2026": -0.8791394233703613,
      "2027": -12.332242012023926,
      "2028": -3.3030550479888916,
      "2029": 10.84798812866211,
      "2030": 4.01607084274292,
      "2031": -7.282792091369629,
      "2032": 7.828042984008789,
      "2033": -4.677416801452637,
      "2034": 7.195720672607422,
      "2035": 10.139086723327637,
      "2036": -5.441871643066406,
      "2037": 3.172257900238037,
      "2038": 1.205532431602478,
      "2039": 7.3200364112854,
      "2040": 4.173343658447266,
      "2041": 6.655637741088867,
      "2042": -4.345354080200195,
      "2043": 0.05838548764586449,
      "2044": -6.922089576721191,
      "2045": 11.679452896118164,
      "2046": 3.2305285930633545,
      "2047": -10.013522148132324,
      "2048": 1.0249009132385254,
      "2049": 0.5334059000015259,
      "2050": 9.517416954040527,
      "2051": -10.207474708557129,
      "2052": -4.195497035980225,
      "2053": -8.203055381774902,
      "2054": -12.176725387573242,
      "2055": 9.301495552062988,
      "2056": 2.332197427749634,
      "2057": -2.016263246536255,
      "2058": 7.169456958770752,
      "2059": 1.3832032680511475,
      "2060": -10.993762969970703,
      "2061": -4.95258092880249,
      "2062": -5.213134765625,
      "2063": 1.0132312774658203,
      "2064": 2.7589046955108643,
      "2065": 2.996896266937256,
      "2066": 0.8397229909896851,
      "2067": -8.326223373413086,
      "2068": -4.925968647003174,
      "2069": 10.156351089477539,
      "2070": -18.497777938842773,
      "2071": 10.150546073913574,
      "2072": -5.759286403656006,
      "2073": -9.201608657836914,
      "2074": 6.897674083709717,
      "2075": 8.78038501739502,
      "2076": 4.459430694580078,
      "2077": -6.211056709289551,
      "2078": -1.292452096939087,
      "2079": 1.508704423904419,
      "2080": -2.1656763553619385,
      "2081": 2.916832447052002,
      "2082": -11.068032264709473,
      "2083": -6.038175106048584,
      "2084": -1.5178799629211426,
      "2085": 6.574397563934326,
      "2086": 0.12170405685901642,
      "2087": -0.7081559300422668,
      "2088": 7.302680969238281,
      "2089": 1.0481637716293335,
      "2090": 0.6535711884498596,
      "2091": -6.928632736206055,
      "2092": -2.919403553009033,
      "2093": -11.44058609008789,
      "2094": -7.763917446136475,
      "2095": -12.55260181427002,
      "2096": 0.9835479259490967,
      "2097": -0.654670238494873,
      "2098": -10.794736862182617,
      "2099": -0.8218958973884583,
      "2100": -1.5993577241897583,
      "2101": 2.2537896633148193,
      "2102": -4.962114334106445,
      "2103": -5.266990661621094,
      "2104": 2.908608913421631,
      "2105": -4.755098342895508,
      "2106": -2.144134998321533,
      "2107": 2.3613905906677246,
      "2108": -1.2428659200668335,
      "2109": -7.3554253578186035,
      "2110": 1.6357393264770508,
      "2111": 3.9419312477111816,
      "2112": -3.500771999359131,
      "2113": -7.162006378173828,
      "2114": -2.332475423812866,
      "2115": 4.935938835144043,
      "2116": 7.453799247741699,
      "2117": -5.230737209320068,
      "2118": -2.3779945373535156,
      "2119": 0.08269590139389038,
      "2120": 3.807610273361206,
      "2121": 0.5644256472587585,
      "2122": 3.547811508178711,
      "2123": -3.819566011428833,
      "2124": -2.346113443374634,
      "2125": -7.5113525390625,
      "2126": -2.949694871902466,
      "2127": 0.44417184591293335,
      "2128": -0.2504574656486511,
      "2129": -3.3881824016571045,
      "2130": 2.026050329208374,
      "2131": -4.3611249923706055,
      "2132": -3.4368863105773926,
      "2133": -3.5285887718200684,
      "2134": -1.642944574356079,
      "2135": 4.765682220458984,
      "2136": 2.5396323204040527,
      "2137": -7.004770278930664,
      "2138": 3.594939947128296,
      "2139": 0.22866077721118927,
      "2140": -5.01065731048584,
      "2141": -2.0737738609313965,
      "2142": -5.216110706329346,
      "2143": -6.421146869659424,
      "2144": -5.791510105133057,
      "2145": -2.8312878608703613,
      "2146": 0.6693860292434692,
      "2147": -1.3061288595199585,
      "2148": -1.3598992824554443,
      "2149": -7.781534194946289,
      "2150": 4.881079196929932,
      "2151": -6.33152437210083,
      "2152": -5.267584323883057,
      "2153": 0.1182149201631546,
      "2154": -3.753915309906006,
      "2155": 9.033641815185547,
      "2156": -1.5484416484832764,
      "2157": -7.54941463470459,
      "2158": 6.649794578552246,
      "2159": 1.0418071746826172,
      "2160": 3.0135135650634766,
      "2161": 0.3011395037174225,
      "2162": -5.942084789276123,
      "2163": 3.4410228729248047,
      "2164": 0.04716496914625168,
      "2165": -7.141922473907471,
      "2166": -2.093794584274292,
      "2167": -0.9086241126060486,
      "2168": -0.46863818168640137,
      "2169": -7.618940830230713,
      "2170": -8.436386108398438,
      "2171": -0.2431284338235855,
      "2172": -10.247715950012207,
      "2173": -13.070456504821777,
      "2174": 0.9913341999053955,
      "2175": 7.204476356506348,
      "2176": 5.182681083679199,
      "2177": -0.8162587881088257,
      "2178": -5.109551429748535,
      "2179": 19.082481384277344,
      "2180": -3.1608269214630127,
      "2181": 11.043983459472656,
      "2182": 4.656203746795654,
      "2183": 16.784526824951172,
      "2184": 13.53402042388916,
      "2185": -7.38845682144165,
      "2186": -4.262971878051758,
      "2187": -24.220531463623047,
      "2188": -11.22994327545166,
      "2189": 9.28862476348877,
      "2190": 8.916028022766113,
      "2191": -8.692673683166504,
      "2192": 17.24370574951172,
      "2193": 9.446404457092285,
      "2194": -1.3131790161132812,
      "2195": 20.27394676208496,
      "2196": 4.89827823638916,
      "2197": 7.341190338134766,
      "2198": 2.907041072845459,
      "2199": 8.148331642150879,
      "2200": -3.6665585041046143,
      "2201": 5.635420799255371,
      "2202": -9.079798698425293,
      "2203": 13.407482147216797,
      "2204": -0.6877932548522949,
      "2205": 3.8484036922454834,
      "2206": -11.049452781677246,
      "2207": 15.577227592468262,
      "2208": -4.765410900115967,
      "2209": 14.098794937133789,
      "2210": -6.247290134429932,
      "2211": -3.429276466369629,
      "2212": -1.7554885149002075,
      "2213": 14.228629112243652,
      "2214": -0.7251007556915283,
      "2215": -5.424062728881836,
      "2216": 11.606362342834473,
      "2217": 15.441838264465332,
      "2218": -5.651889324188232,
      "2219": 7.467155933380127,
      "2220": -10.644147872924805,
      "2221": -13.727513313293457,
      "2222": 9.9670991897583,
      "2223": -10.555150985717773,
      "2224": 22.36367416381836,
      "2225": 6.9890618324279785,
      "2226": 4.754505634307861,
      "2227": 12.87182903289795,
      "2228": 6.411499500274658,
      "2229": 16.16512680053711,
      "2230": 4.534800052642822,
      "2231": -6.934472560882568,
      "2232": -5.739678382873535,
      "2233": -19.72100830078125,
      "2234": 6.988332748413086,
      "2235": -5.422507286071777,
      "2236": -18.183393478393555,
      "2237": 13.663285255432129,
      "2238": 20.267276763916016,
      "2239": -15.989745140075684,
      "2240": -10.487652778625488,
      "2241": 6.909271717071533,
      "2242": 2.556511878967285,
      "2243": -15.034547805786133,
      "2244": -2.8963046073913574,
      "2245": -1.8487880229949951,
      "2246": -11.880977630615234,
      "2247": 5.511588096618652,
      "2248": -19.14119529724121,
      "2249": 16.230037689208984,
      "2250": -6.4108991622924805,
      "2251": 4.982922554016113,
      "2252": -12.034200668334961,
      "2253": -6.584354400634766,
      "2254": -0.7025274038314819,
      "2255": 7.869670391082764,
      "2256": 4.181519985198975,
      "2257": 3.404629707336426,
      "2258": -7.414168834686279,
      "2259": -1.2762781381607056,
      "2260": -0.4916391968727112,
      "2261": -16.92487907409668,
      "2262": -10.332071304321289,
      "2263": -15.330248832702637,
      "2264": -10.833308219909668,
      "2265": 6.25178337097168,
      "2266": -7.360103130340576,
      "2267": 6.706055164337158,
      "2268": -8.992980003356934,
      "2269": -14.40789794921875,
      "2270": 4.1976494789123535,
      "2271": -11.187089920043945,
      "2272": 7.875860691070557,
      "2273": 7.6039934158325195,
      "2274": -19.203744888305664,
      "2275": 9.06165885925293,
      "2276": 4.839156627655029,
      "2277": -11.446418762207031,
      "2278": 6.608989715576172,
      "2279": 17.284835815429688,
      "2280": -4.9850029945373535,
      "2281": 6.158360004425049,
      "2282": 6.048742771148682,
      "2283": -10.184961318969727,
      "2284": -3.0220749378204346,
      "2285": -9.373178482055664,
      "2286": 14.824729919433594,
      "2287": -0.0964389368891716,
      "2288": -13.893112182617188,
      "2289": -16.92203712463379,
      "2290": 12.626876831054688,
      "2291": 6.3971333503723145,
      "2292": -11.558058738708496,
      "2293": -5.133120059967041,
      "2294": 2.537198066711426,
      "2295": 3.0790250301361084,
      "2296": -24.227657318115234,
      "2297": -5.98365592956543,
      "2298": -3.5502233505249023,
      "2299": 9.041643142700195,
      "2300": 1.7634729146957397,
      "2301": -13.518158912658691,
      "2302": -13.616120338439941,
      "2303": 8.948469161987305,
      "2304": -6.914497375488281,
      "2305": -16.905691146850586,
      "2306": -12.358874320983887,
      "2307": -1.9337564706802368,
      "2308": -4.257582664489746,
      "2309": 12.768881797790527,
      "2310": 23.739843368530273,
      "2311": -0.7099298238754272,
      "2312": -6.5218400955200195,
      "2313": -8.896468162536621,
      "2314": -2.005370616912842,
      "2315": -3.364945411682129,
      "2316": 2.6712169647216797,
      "2317": 6.373405456542969,
      "2318": 10.710548400878906,
      "2319": 9.360880851745605,
      "2320": -8.090155601501465,
      "2321": 4.0184645652771,
      "2322": 1.1096923351287842,
      "2323": -17.412328720092773,
      "2324": -11.298476219177246,
      "2325": -1.0575556755065918,
      "2326": -24.71811294555664,
      "2327": 8.788708686828613,
      "2328": -15.327441215515137,
      "2329": -4.115014553070068,
      "2330": -8.858266830444336,
      "2331": -1.892427682876587,
      "2332": 10.103678703308105,
      "2333": -11.427184104919434,
      "2334": -8.288871765136719,
      "2335": -11.697538375854492,
      "2336": -2.065814733505249,
      "2337": 15.690632820129395,
      "2338": -3.868208646774292,
      "2339": 6.892516136169434,
      "2340": -2.101461172103882,
      "2341": 1.5612099170684814,
      "2342": 5.6953887939453125,
      "2343": -20.718076705932617,
      "2344": 9.59028148651123,
      "2345": -2.258631467819214,
      "2346": -0.19164051115512848,
      "2347": -2.539076805114746,
      "2348": 1.8611701726913452,
      "2349": -3.429701328277588,
      "2350": 20.658878326416016,
      "2351": -11.51968765258789,
      "2352": 6.621904373168945,
      "2353": -5.597768306732178,
      "2354": -4.354571342468262,
      "2355": -9.254522323608398,
      "2356": -0.6458504796028137,
      "2357": -12.669269561767578,
      "2358": -8.736899375915527,
      "2359": -10.68006706237793,
      "2360": -8.830290794372559,
      "2361": 8.072192192077637,
      "2362": 0.2968638837337494,
      "2363": 10.951892852783203,
      "2364": 15.242575645446777,
      "2365": -12.946069717407227,
      "2366": -4.1776442527771,
      "2367": -13.641390800476074,
      "2368": 4.525207042694092,
      "2369": 14.624123573303223,
      "2370": 8.268712043762207,
      "2371": -0.13791976869106293,
      "2372": -18.01523208618164,
      "2373": -3.368955373764038,
      "2374": -2.6154582500457764,
      "2375": -5.464841365814209,
      "2376": 9.09729290008545,
      "2377": -5.604080677032471,
      "2378": -1.6019210815429688,
      "2379": 1.723036766052246,
      "2380": -11.90886402130127,
      "2381": 5.836373805999756,
      "2382": 12.082242965698242,
      "2383": -8.921307563781738,
      "2384": 2.437366485595703,
      "2385": 4.033254623413086,
      "2386": 4.170340061187744,
      "2387": 16.17331886291504,
      "2388": 12.694625854492188,
      "2389": -17.41409683227539,
      "2390": 6.016629695892334,
      "2391": 14.361541748046875,
      "2392": 18.825122833251953,
      "2393": -15.96416187286377,
      "2394": 6.248804092407227,
      "2395": -13.614202499389648,
      "2396": -3.9274065494537354,
      "2397": 0.35373926162719727,
      "2398": -4.003150939941406,
      "2399": 6.350887298583984,
      "2400": -6.787215232849121,
      "2401": 12.117337226867676,
      "2402": -4.611761093139648,
      "2403": -18.014297485351562,
      "2404": 14.410734176635742,
      "2405": 25.937959671020508,
      "2406": 3.740811824798584,
      "2407": -12.092506408691406,
      "2408": -3.8737857341766357,
      "2409": -11.155234336853027,
      "2410": -11.242798805236816,
      "2411": -8.749676704406738,
      "2412": -12.640666961669922,
      "2413": -11.291915893554688,
      "2414": 1.0545896291732788,
      "2415": 10.308486938476562,
      "2416": 0.47760310769081116,
      "2417": 4.913910865783691,
      "2418": 7.856404781341553,
      "2419": -17.493236541748047,
      "2420": -19.54003143310547,
      "2421": 10.770859718322754,
      "2422": 7.8837127685546875,
      "2423": 0.7977662086486816,
      "2424": 3.826005458831787,
      "2425": -11.598093032836914,
      "2426": -4.438526153564453,
      "2427": 0.4118558466434479,
      "2428": -0.6915493011474609,
      "2429": -24.097524642944336,
      "2430": 0.8773161768913269,
      "2431": -9.418367385864258,
      "2432": -15.15549087524414,
      "2433": 3.0157382488250732,
      "2434": 22.305391311645508,
      "2435": -1.7352408170700073,
      "2436": 22.245708465576172,
      "2437": 8.558154106140137,
      "2438": -4.901491165161133,
      "2439": -6.095999240875244,
      "2440": -7.925342559814453,
      "2441": -19.056385040283203,
      "2442": 14.000486373901367,
      "2443": 0.5253199934959412,
      "2444": 7.510231018066406,
      "2445": 20.835651397705078,
      "2446": 10.738869667053223,
      "2447": 12.33637523651123,
      "2448": -8.164432525634766,
      "2449": -7.702378273010254,
      "2450": 3.8762705326080322,
      "2451": -4.352100849151611,
      "2452": 1.825858235359192,
      "2453": -1.3833388090133667,
      "2454": -2.1069865226745605,
      "2455": -2.249119520187378,
      "2456": -0.6206750273704529,
      "2457": 3.3778815269470215,
      "2458": 4.022992134094238,
      "2459": 2.0769999027252197,
      "2460": 3.436060905456543,
      "2461": 7.897226810455322,
      "2462": 2.062375545501709,
      "2463": 1.2383517026901245,
      "2464": -1.8643749952316284,
      "2465": 2.3809666633605957,
      "2466": 4.9451584815979,
      "2467": -3.5676207542419434,
      "2468": -0.8043955564498901,
      "2469": 2.485846757888794,
      "2470": 4.859712600708008,
      "2471": -1.8332656621932983,
      "2472": 0.6365792751312256,
      "2473": -5.488852024078369,
      "2474": -4.263675212860107,
      "2475": -0.38270825147628784,
      "2476": -0.8618817329406738,
      "2477": 0.39598092436790466,
      "2478": -0.38167521357536316,
      "2479": -5.121199607849121,
      "2480": -2.6816704273223877,
      "2481": -0.1167888268828392,
      "2482": 0.057675834745168686,
      "2483": -1.361930012702942,
      "2484": 5.269084930419922,
      "2485": -0.6295155882835388,
      "2486": 0.840269923210144,
      "2487": 3.6421589851379395,
      "2488": -1.674139380455017,
      "2489": 2.035541534423828,
      "2490": -2.9718897342681885,
      "2491": 0.45568984746932983,
      "2492": -0.5107951760292053,
      "2493": 3.1939361095428467,
      "2494": 8.836370468139648,
      "2495": 6.201756000518799,
      "2496": -3.696686267852783,
      "2497": 0.9428311586380005,
      "2498": -0.1373351812362671,
      "2499": -5.101861476898193,
      "2500": -4.951569557189941,
      "2501": 4.69727087020874,
      "2502": -6.216627597808838,
      "2503": 0.5426151156425476,
      "2504": -0.9807628393173218,
      "2505": 0.06762542575597763,
      "2506": -2.7165534496307373,
      "2507": 1.9378881454467773,
      "2508": 0.6839469075202942,
      "2509": 3.8533029556274414,
      "2510": -0.7900843620300293,
      "2511": -4.594033241271973,
      "2512": -1.3136039972305298,
      "2513": -3.6961216926574707,
      "2514": 3.220445156097412,
      "2515": -2.4949676990509033,
      "2516": -2.7717936038970947,
      "2517": 1.4345406293869019,
      "2518": -2.5036354064941406,
      "2519": -5.472551345825195,
      "2520": 0.6933704018592834,
      "2521": 9.27578353881836,
      "2522": 7.414299964904785,
      "2523": -0.14610788226127625,
      "2524": -2.069319725036621,
      "2525": 1.4604506492614746,
      "2526": -6.644525051116943,
      "2527": -0.8787218332290649,
      "2528": 2.3027849197387695,
      "2529": -1.4501844644546509,
      "2530": -7.794626712799072,
      "2531": 1.9084460735321045,
      "2532": 4.6041669845581055,
      "2533": 0.5767942667007446,
      "2534": -6.577363967895508,
      "2535": -0.7309393882751465,
      "2536": -1.4897010326385498,
      "2537": 4.259401321411133,
      "2538": -3.435433864593506,
      "2539": -3.363898754119873,
      "2540": -1.4280110597610474,
      "2541": -0.2750042974948883,
      "2542": -1.927451491355896,
      "2543": -6.2806267738342285,
      "2544": -2.4372472763061523,
      "2545": -2.675966262817383,
      "2546": 4.0263671875,
      "2547": 1.3431223630905151,
      "2548": 4.573995590209961,
      "2549": -0.5213357210159302,
      "2550": 4.607384204864502,
      "2551": 7.3173065185546875,
      "2552": -0.1957695335149765,
      "2553": -1.0509105920791626,
      "2554": -5.80224084854126,
      "2555": -5.717092037200928,
      "2556": -1.0016850233078003,
      "2557": -1.4892432689666748,
      "2558": 2.5169284343719482,
      "2559": -0.7115436792373657,
      "2560": -1.7027614116668701,
      "2561": 10.073190689086914,
      "2562": -11.577544212341309,
      "2563": 1.6060762405395508,
      "2564": 0.9426034688949585,
      "2565": 1.552532434463501,
      "2566": -0.17332342267036438,
      "2567": -5.035044193267822,
      "2568": 6.852207660675049,
      "2569": -0.40284308791160583,
      "2570": 1.0312739610671997,
      "2571": 0.8202797174453735,
      "2572": 3.8602523803710938,
      "2573": 2.490654468536377,
      "2574": 3.8068900108337402,
      "2575": -6.4549784660339355,
      "2576": 1.2257190942764282,
      "2577": -2.02754807472229,
      "2578": -4.666941165924072,
      "2579": 0.9072292447090149,
      "2580": -3.904118299484253,
      "2581": -0.3811827003955841,
      "2582": 8.289061546325684,
      "2583": 1.6471668481826782,
      "2584": 1.0729492902755737,
      "2585": -1.9536173343658447,
      "2586": 2.2255632877349854,
      "2587": -1.9566409587860107,
      "2588": 2.8353776931762695,
      "2589": 2.3060054779052734,
      "2590": 3.826073408126831,
      "2591": -10.606804847717285,
      "2592": 2.0308265686035156,
      "2593": 2.241973638534546,
      "2594": 3.9978511333465576,
      "2595": 2.463677167892456,
      "2596": 10.31191635131836,
      "2597": -2.6843349933624268,
      "2598": 1.9615870714187622,
      "2599": 7.406739234924316,
      "2600": -9.115617752075195,
      "2601": -12.513976097106934,
      "2602": 6.398463726043701,
      "2603": 0.2778763175010681,
      "2604": -5.799489498138428,
      "2605": 4.169280052185059,
      "2606": 4.374512195587158,
      "2607": 9.744867324829102,
      "2608": -7.752967834472656,
      "2609": 6.679407596588135,
      "2610": -9.076631546020508,
      "2611": 6.4590864181518555,
      "2612": -3.6956918239593506,
      "2613": -2.684677839279175,
      "2614": -4.796620845794678,
      "2615": -4.611708164215088,
      "2616": 7.569320201873779,
      "2617": 10.56516170501709,
      "2618": 4.864674091339111,
      "2619": 17.74603271484375,
      "2620": 1.5155750513076782,
      "2621": -6.342634677886963,
      "2622": 18.25464630126953,
      "2623": 1.3687241077423096,
      "2624": 10.221858978271484,
      "2625": 10.191293716430664,
      "2626": -5.685239315032959,
      "2627": -14.467534065246582,
      "2628": -21.380952835083008,
      "2629": 11.280535697937012,
      "2630": 6.336530685424805,
      "2631": 1.3476217985153198,
      "2632": 8.01119613647461,
      "2633": -9.356986045837402,
      "2634": -8.126545906066895,
      "2635": -5.524914741516113,
      "2636": -1.7858225107192993,
      "2637": 9.538681030273438,
      "2638": 9.896602630615234,
      "2639": 7.4880757331848145,
      "2640": 10.201605796813965,
      "2641": 7.834734916687012,
      "2642": 9.984509468078613,
      "2643": 7.774053573608398,
      "2644": -10.102338790893555,
      "2645": -16.117891311645508,
      "2646": -1.4179561138153076,
      "2647": 2.6816656589508057,
      "2648": 3.521794557571411,
      "2649": 2.104473829269409,
      "2650": 3.0588948726654053,
      "2651": 2.245098114013672,
      "2652": -8.056695938110352,
      "2653": -1.4523221254348755,
      "2654": 10.746024131774902,
      "2655": -11.869421005249023,
      "2656": -18.902143478393555,
      "2657": -6.452396392822266,
      "2658": 7.586825370788574,
      "2659": 4.736467361450195,
      "2660": -8.35484790802002,
      "2661": -5.127598762512207,
      "2662": -3.7962558269500732,
      "2663": -10.907064437866211,
      "2664": 0.82145094871521,
      "2665": 1.150181531906128,
      "2666": 1.9572935104370117,
      "2667": 2.677154302597046,
      "2668": 0.46097710728645325,
      "2669": -4.935760974884033,
      "2670": -12.767804145812988,
      "2671": 9.318329811096191,
      "2672": -9.074195861816406,
      "2673": 10.712225914001465,
      "2674": -2.5105044841766357,
      "2675": -0.3880768418312073,
      "2676": -2.3355627059936523,
      "2677": -2.6492316722869873,
      "2678": -6.601569652557373,
      "2679": 1.3674392700195312,
      "2680": 12.611723899841309,
      "2681": -14.954633712768555,
      "2682": -0.9337493181228638,
      "2683": 0.12087935209274292,
      "2684": -0.8663575053215027,
      "2685": -0.5070902109146118,
      "2686": -4.748831748962402,
      "2687": -8.056365966796875,
      "2688": -3.064138889312744,
      "2689": 19.062952041625977,
      "2690": -6.066855430603027,
      "2691": 20.64586067199707,
      "2692": 9.958762168884277,
      "2693": 12.020917892456055,
      "2694": -7.604858875274658,
      "2695": 2.5947625637054443,
      "2696": -10.046805381774902,
      "2697": -15.631247520446777,
      "2698": 11.47826099395752,
      "2699": 8.306706428527832,
      "2700": -0.27616703510284424,
      "2701": 23.718351364135742,
      "2702": -12.531050682067871,
      "2703": 5.652533531188965,
      "2704": -7.46480655670166,
      "2705": 1.900075078010559,
      "2706": -1.2338666915893555,
      "2707": -29.436885833740234,
      "2708": -0.9376689791679382,
      "2709": -1.185998797416687,
      "2710": 1.6273345947265625,
      "2711": 2.7527894973754883,
      "2712": 2.450695276260376,
      "2713": -3.9186229705810547,
      "2714": 6.773337364196777,
      "2715": -5.243805885314941,
      "2716": 9.506311416625977,
      "2717": -5.035383701324463,
      "2718": -0.6554161310195923,
      "2719": 3.525470733642578,
      "2720": -9.352930068969727,
      "2721": 5.00523567199707,
      "2722": -12.879733085632324,
      "2723": -14.948667526245117,
      "2724": -3.4458112716674805,
      "2725": -3.7114334106445312,
      "2726": -3.668491840362549,
      "2727": 0.5997314453125,
      "2728": 3.1965246200561523,
      "2729": -6.854549407958984,
      "2730": -6.790777683258057,
      "2731": 9.609865188598633,
      "2732": -5.1822099685668945,
      "2733": -8.521912574768066,
      "2734": -2.6340112686157227,
      "2735": -10.10158634185791,
      "2736": 3.0457472801208496,
      "2737": -4.524933338165283,
      "2738": 1.5952072143554688,
      "2739": 1.4716811180114746,
      "2740": 4.966835021972656,
      "2741": 13.945018768310547,
      "2742": -3.4046096801757812,
      "2743": 13.49988079071045,
      "2744": -4.718570709228516,
      "2745": 5.930544376373291,
      "2746": 5.130899429321289,
      "2747": 5.788503646850586,
      "2748": -2.0762736797332764,
      "2749": 6.73214054107666,
      "2750": 5.59765625,
      "2751": -1.640061855316162,
      "2752": -4.629599094390869,
      "2753": -5.837548732757568,
      "2754": 4.838718414306641,
      "2755": 0.5665217638015747,
      "2756": 5.035998344421387,
      "2757": -10.38288402557373,
      "2758": 0.43296727538108826,
      "2759": -7.608111381530762,
      "2760": 8.539170265197754,
      "2761": 10.2293701171875,
      "2762": -5.782261371612549,
      "2763": 5.519010543823242,
      "2764": -0.792178213596344,
      "2765": 5.455453395843506,
      "2766": 12.94810676574707,
      "2767": 0.8862459659576416,
      "2768": 7.968889236450195,
      "2769": -0.5594944357872009,
      "2770": -7.408411026000977,
      "2771": 6.260677337646484,
      "2772": -8.625406265258789,
      "2773": -1.5282865762710571,
      "2774": -1.9418519735336304,
      "2775": 11.237137794494629,
      "2776": 11.532696723937988,
      "2777": 2.4149186611175537,
      "2778": 2.9600424766540527,
      "2779": -1.6031423807144165,
      "2780": 6.186756134033203,
      "2781": 2.30918288230896,
      "2782": -11.530773162841797,
      "2783": -9.342907905578613,
      "2784": 9.54554557800293,
      "2785": 4.402085304260254,
      "2786": -1.4635624885559082,
      "2787": 9.905067443847656,
      "2788": -4.7808966636657715,
      "2789": -0.8454870581626892,
      "2790": 8.268421173095703,
      "2791": 5.929442882537842,
      "2792": 6.48225212097168,
      "2793": -23.573246002197266,
      "2794": -1.4808299541473389,
      "2795": -6.3085808753967285,
      "2796": -3.761847972869873,
      "2797": 6.348896503448486,
